463 50
裤子 -0.026672803 -0.1504312 0.067754045 -0.17774594 -0.27303943 -0.6615704 0.6521321 0.92091054 0.15368941 -0.50841916 0.16066407 0.32036424 -0.28634715 -0.14106563 -0.4729764 -0.12114351 0.69760054 0.32608926 -0.32882857 -0.339457 0.14797616 -0.30864605 0.15946485 -0.032477003 -0.00026580025 0.39311498 -0.08823955 0.6060462 0.6927551 0.54274344 -0.6111359 0.0036785537 -0.33579078 -0.6461217 -0.2873754 -0.24580534 0.15055592 -0.23887925 -0.22867402 0.04093787 -0.5956985 -0.009800049 -0.25044638 -0.7478707 0.055990953 -0.17499843 -0.34890527 0.8140638 0.13165267 -1.0240997
不错 -0.00782207 -0.100474566 0.060130693 -0.1163704 -0.1917275 -0.44457772 0.45456293 0.61361545 0.09695042 -0.350529 0.11201858 0.21039258 -0.18492381 -0.08249063 -0.30579403 -0.0807552 0.47048122 0.22384965 -0.22608571 -0.23059092 0.101977654 -0.20931141 0.10127432 -0.022233559 0.004316785 0.27022412 -0.073236085 0.4154972 0.46409553 0.37167597 -0.40965578 0.013818694 -0.23203994 -0.44038734 -0.20123948 -0.17210871 0.11776975 -0.16668853 -0.1575544 0.02239653 -0.39067563 0.0029674002 -0.15642722 -0.50002736 0.04336027 -0.11777407 -0.23902321 0.55018777 0.09300681 -0.7067003
买 -0.036760706 -0.20376982 0.10256592 -0.25299537 -0.36942944 -0.9015202 0.9047097 1.2604309 0.20245522 -0.6915408 0.19957131 0.44758943 -0.38034475 -0.1791349 -0.6371439 -0.16818048 0.9446351 0.4353168 -0.44763514 -0.47208774 0.20457022 -0.41462755 0.22078425 -0.03223953 0.014514414 0.53773206 -0.14049557 0.80712485 0.95346516 0.7545 -0.854665 0.014671221 -0.46372506 -0.8828019 -0.376987 -0.3219258 0.22632104 -0.33340272 -0.32346684 0.051191892 -0.7992994 -0.020984747 -0.34018388 -1.0316805 0.100387 -0.2554084 -0.47527084 1.1250298 0.17500578 -1.4123788
质量 -0.023573829 -0.12839188 0.06224504 -0.13626981 -0.20752579 -0.5069843 0.5147535 0.70889664 0.10767478 -0.39784294 0.114332646 0.24154109 -0.20852302 -0.1006393 -0.36316714 -0.10383079 0.5440547 0.24314594 -0.2580971 -0.2672137 0.12496514 -0.22864893 0.11939175 -0.024231073 0.0008343298 0.30931044 -0.075026765 0.4682809 0.5447565 0.4336964 -0.48495093 0.014022701 -0.2571873 -0.5160618 -0.22362298 -0.19121145 0.117483474 -0.19557829 -0.17195103 0.036111873 -0.46614873 -0.010476237 -0.18141063 -0.59212357 0.043968208 -0.1345878 -0.26525664 0.64418226 0.09078834 -0.79792833
穿 -0.016758354 -0.16630945 0.07682981 -0.17985672 -0.29573208 -0.69974905 0.6997971 0.9808966 0.15985134 -0.5398995 0.17152205 0.34299237 -0.29735354 -0.13857791 -0.49392474 -0.13131389 0.74163866 0.332138 -0.35611808 -0.36448494 0.17104937 -0.31658578 0.15830615 -0.03527961 0.0017149708 0.41475782 -0.09854869 0.63967514 0.726987 0.58761007 -0.65109205 0.014595862 -0.36117437 -0.6974733 -0.309078 -0.24502891 0.17455015 -0.2552146 -0.23600641 0.03953652 -0.63223374 -0.006624602 -0.26840863 -0.80531615 0.06143491 -0.19960022 -0.3662076 0.8736607 0.12544353 -1.0992109
舒服 -0.014567545 -0.09826383 0.04088504 -0.11039042 -0.15968244 -0.40278494 0.40401626 0.57671905 0.095419765 -0.32868642 0.0995913 0.20049556 -0.16766424 -0.08673174 -0.2893477 -0.07156924 0.43694192 0.20319311 -0.20254031 -0.21553099 0.09837412 -0.18617204 0.09933467 -0.011550146 0.010030707 0.24831301 -0.05424138 0.38353515 0.4308286 0.34963202 -0.3762668 0.009608919 -0.20871541 -0.41957852 -0.16818576 -0.1497444 0.09465043 -0.16071996 -0.13957876 0.019896511 -0.36283135 -0.010416041 -0.1572659 -0.4767707 0.049087327 -0.10888605 -0.22106345 0.51603067 0.07074303 -0.6438698
颜色 -0.024634276 -0.10517658 0.06523826 -0.14067098 -0.20945206 -0.5107148 0.50722474 0.7110668 0.10624621 -0.39830062 0.10861775 0.23829268 -0.22087218 -0.104499064 -0.36761555 -0.0982467 0.5436947 0.25563043 -0.25736788 -0.27043316 0.11609399 -0.2291555 0.11822086 -0.024023768 0.0064534442 0.29387742 -0.08448512 0.4559041 0.5366948 0.42206284 -0.47399905 0.007970039 -0.252084 -0.5099746 -0.22478862 -0.17731674 0.119960636 -0.17540696 -0.1783668 0.023176245 -0.4637512 -0.01009896 -0.19107358 -0.5770425 0.048261706 -0.13377525 -0.26630124 0.63521284 0.10554696 -0.7877597
喜欢 -0.0055906167 -0.08028211 0.03385998 -0.09165585 -0.12896428 -0.3298952 0.3301548 0.4573362 0.06283764 -0.2415297 0.07821655 0.16548058 -0.13431767 -0.06895099 -0.23377974 -0.056167908 0.35038748 0.14923044 -0.15488116 -0.17290784 0.08350592 -0.14097361 0.078041404 -0.011355669 -0.0030996266 0.19678138 -0.046031907 0.30056348 0.33303463 0.26710972 -0.30808255 0.011053269 -0.16108802 -0.31568468 -0.13142252 -0.115331054 0.07866594 -0.114286415 -0.104015484 0.0276737 -0.29381907 -0.0007052211 -0.11749507 -0.3633265 0.023669994 -0.09651619 -0.17108615 0.40133008 0.055630002 -0.51200163
穿着 -0.0052726725 -0.09196189 0.033691127 -0.09687468 -0.15572874 -0.37160185 0.3690999 0.5145581 0.09070002 -0.2820052 0.08011488 0.18521436 -0.15280297 -0.084699735 -0.26428464 -0.07257428 0.40027484 0.18599598 -0.19319186 -0.1941675 0.08706554 -0.17533006 0.09461533 -0.019495077 0.007099458 0.23432419 -0.048932955 0.3474166 0.3852578 0.30954182 -0.34329033 0.008771441 -0.19738938 -0.3664865 -0.15339647 -0.13072313 0.08818547 -0.13279587 -0.12238369 0.018399213 -0.32744208 -0.0078021474 -0.14566708 -0.43445572 0.03250932 -0.10242212 -0.19055301 0.47344932 0.069855615 -0.578123
好好 -0.15300554 0.03800399 -0.0028582427 -0.15275198 0.02509881 -0.24936579 0.14610302 0.35945213 -0.045969665 -0.25028622 -0.046456113 0.14229907 -0.10271488 -0.020366343 -0.19882686 -0.0974558 0.20743461 0.040629152 -0.12387398 -0.20168105 0.03657042 -0.18414612 -0.041124757 -0.09036711 -0.023552785 -0.0071642 -0.12463987 0.0794497 0.25920573 0.13722774 -0.2619745 -0.0842114 -0.062639944 -0.11555759 -0.039587103 -0.14464854 0.10883032 0.028383331 -0.1376146 -0.07681717 -0.25809446 -0.019999033 0.010695817 -0.24483101 0.079005376 -0.05444605 -0.1911887 0.31589395 -0.008316695 -0.25380936
挺 -0.015941603 -0.08565689 0.044149213 -0.09139702 -0.14459126 -0.35913283 0.35812375 0.4976718 0.07168654 -0.265268 0.08271595 0.17307884 -0.15199034 -0.06414804 -0.24777874 -0.07050081 0.38013706 0.17495772 -0.17084788 -0.18731642 0.08397338 -0.16849892 0.08685054 -0.017697195 -0.0068112267 0.2185558 -0.04612914 0.32987988 0.3713137 0.2915808 -0.32726097 0.0038761927 -0.17612585 -0.35258946 -0.15939835 -0.13703258 0.09323058 -0.13035074 -0.12022365 0.017608045 -0.31647938 -0.0012059611 -0.1353363 -0.4107956 0.03297888 -0.09258017 -0.1861899 0.44625533 0.06745511 -0.5482801
合适 -0.01866289 -0.094924934 0.056101844 -0.11098441 -0.17765568 -0.43151402 0.41814876 0.59487104 0.08421113 -0.33274364 0.10531837 0.20192438 -0.17580962 -0.091302305 -0.2958991 -0.09157093 0.44203922 0.20162588 -0.21983811 -0.22757912 0.0946362 -0.20527625 0.098381914 -0.0141443685 -0.00017540701 0.25598127 -0.07026328 0.37512237 0.44884706 0.3627118 -0.3911684 0.009949239 -0.21993431 -0.42992067 -0.18534508 -0.16028967 0.09609451 -0.16458796 -0.1481179 0.028090382 -0.38877955 0.0041098776 -0.1662725 -0.49372375 0.04269587 -0.12030835 -0.22060217 0.53716207 0.082552195 -0.6731773
以纯 -0.01993046 -0.11793432 0.06319144 -0.13595462 -0.20834851 -0.50204736 0.50024384 0.6919526 0.103087954 -0.39324048 0.10980038 0.2341212 -0.21307166 -0.099614374 -0.34499893 -0.10393424 0.52322245 0.23710084 -0.24447772 -0.26942083 0.12535393 -0.23755276 0.118578464 -0.026402181 0.00087882794 0.29723328 -0.08089 0.45852318 0.5242834 0.41657516 -0.47609308 0.0086093275 -0.24685574 -0.49369857 -0.20371851 -0.18628335 0.11441641 -0.19093797 -0.16993181 0.020602467 -0.4356518 -0.00088801014 -0.17858453 -0.57501435 0.05654585 -0.13812372 -0.2660164 0.60801274 0.0984589 -0.7847038
客服 -0.0295514 -0.17776601 0.0849114 -0.20693538 -0.30304164 -0.75750244 0.75321454 1.0532659 0.17265081 -0.59060967 0.16518615 0.36137947 -0.32720637 -0.15333864 -0.5348342 -0.13990082 0.794454 0.3640846 -0.37692422 -0.40384457 0.16774525 -0.35498565 0.18714873 -0.033288524 0.012667931 0.45044255 -0.11165593 0.68679065 0.7873 0.619122 -0.70184267 0.009052114 -0.38511294 -0.74677455 -0.32371005 -0.27518857 0.1730578 -0.27491856 -0.27381772 0.042188454 -0.6741607 -0.004715903 -0.28772515 -0.86844754 0.086915374 -0.19772728 -0.40544406 0.93170315 0.14045756 -1.1784542
衣服 -0.019876584 -0.108810365 0.06349064 -0.12831326 -0.20981777 -0.48935452 0.4886805 0.67753035 0.10151323 -0.37215093 0.12109888 0.23892452 -0.21378842 -0.095458575 -0.35515937 -0.09459892 0.5312168 0.2495575 -0.24332891 -0.2587564 0.11327418 -0.22278392 0.12129893 -0.022334479 0.009266651 0.2962742 -0.07726756 0.4471738 0.5107975 0.4197342 -0.45495895 0.016030742 -0.24193081 -0.49748254 -0.21087831 -0.17945984 0.114184946 -0.18004306 -0.16880691 0.01868987 -0.44737524 -0.0026455286 -0.18030849 -0.5722263 0.059224408 -0.13529566 -0.25220218 0.6162943 0.09257475 -0.77791774
感觉 -0.02775812 -0.1087403 0.05063125 -0.13419504 -0.18710469 -0.47534505 0.47347698 0.66011506 0.09768702 -0.36947528 0.107270375 0.23882647 -0.21037446 -0.09162208 -0.33852354 -0.089084536 0.49802467 0.22321782 -0.24507461 -0.24237913 0.10814748 -0.21496436 0.11569376 -0.026815612 0.012548253 0.2918508 -0.07582666 0.43258652 0.5033726 0.390524 -0.4515757 0.0054149125 -0.24698545 -0.47385293 -0.19453645 -0.16757798 0.109199606 -0.17174122 -0.17446795 0.018757073 -0.4217986 -0.0017727828 -0.1705263 -0.55261 0.052568506 -0.13625379 -0.24957234 0.5860351 0.08708573 -0.7542239
快递 -0.018229682 -0.119399175 0.06812313 -0.13984326 -0.19658281 -0.4836289 0.5031789 0.6966315 0.10446568 -0.39127502 0.1225191 0.23884884 -0.21219327 -0.094921425 -0.34549654 -0.096935526 0.5353903 0.23722704 -0.2428751 -0.26936927 0.119010106 -0.23462613 0.12141556 -0.024452772 -0.0034263483 0.30542564 -0.06728607 0.454858 0.52401286 0.41249886 -0.46266013 0.003271272 -0.25280258 -0.4918726 -0.22051315 -0.18196408 0.112904646 -0.18682928 -0.17544332 0.030598788 -0.43599665 -0.013668705 -0.19510621 -0.57709813 0.05285632 -0.14280342 -0.25540006 0.6153133 0.09804285 -0.76989686
掉色 -0.015603103 -0.074935585 0.04189469 -0.09256479 -0.14226723 -0.33329406 0.3451002 0.46581817 0.07263438 -0.26493782 0.07593638 0.1544398 -0.14418557 -0.061501503 -0.2462238 -0.07075263 0.34665078 0.15368828 -0.17560342 -0.17620444 0.082388245 -0.15999159 0.0753114 -0.022416426 0.012747679 0.21208397 -0.051568866 0.3065108 0.35803828 0.28570655 -0.31035703 0.0016676467 -0.17852041 -0.33831653 -0.14930336 -0.13211152 0.091804445 -0.12682115 -0.12071208 0.018854536 -0.29677075 -0.012313137 -0.12563057 -0.39068723 0.03790942 -0.102413625 -0.19028145 0.42717987 0.07572365 -0.5257138
好看 -0.012821356 -0.08584717 0.051282603 -0.09570489 -0.13667469 -0.34589273 0.34630758 0.4845923 0.07957027 -0.28213763 0.0817774 0.1744231 -0.149673 -0.07646561 -0.2535596 -0.06427055 0.36973482 0.17982765 -0.18320504 -0.19011906 0.076768905 -0.16479811 0.09332685 -0.005717451 0.0020453283 0.22155756 -0.051387515 0.31853935 0.36719012 0.28844452 -0.32941532 -0.00054118264 -0.18705836 -0.34331068 -0.14456154 -0.13270143 0.095030665 -0.1345903 -0.11968302 0.018871836 -0.3200513 -0.014381023 -0.13069563 -0.40589583 0.042207137 -0.08789756 -0.18307404 0.4431386 0.061251584 -0.5551704
满意 -0.006279417 -0.08713758 0.04349706 -0.09057105 -0.1424789 -0.36408526 0.3675739 0.5178183 0.08862062 -0.27736345 0.08451789 0.17798367 -0.16657123 -0.068086505 -0.25648403 -0.07207034 0.3948864 0.1693774 -0.1822066 -0.1851197 0.09376184 -0.16788267 0.0965954 -0.0096844 0.00056811847 0.21677428 -0.051805474 0.3341084 0.38474008 0.3166569 -0.3439423 0.0027541965 -0.18951713 -0.36662218 -0.15139447 -0.13876697 0.0908964 -0.12995885 -0.121828765 0.017031413 -0.3313454 -0.0025761907 -0.14476982 -0.42310217 0.034333173 -0.10477608 -0.1865202 0.45838183 0.07936163 -0.5804534
收到 -0.017692806 -0.10943196 0.06229235 -0.12602405 -0.18372008 -0.43895563 0.45538408 0.63152355 0.09205734 -0.34470415 0.104687184 0.21487397 -0.18626001 -0.08322743 -0.3164247 -0.08275423 0.4857172 0.2164928 -0.2150013 -0.24589127 0.09682947 -0.21554777 0.10844087 -0.012447308 -0.005119969 0.2792531 -0.06392624 0.416937 0.46518672 0.3807832 -0.41402596 0.010381725 -0.22565012 -0.44746542 -0.18679428 -0.16312183 0.11384851 -0.158424 -0.16365762 0.031704403 -0.41037172 -0.01635467 -0.17217734 -0.5169647 0.035274744 -0.12199886 -0.24265067 0.5561351 0.08568693 -0.696375
物流 -0.015635096 -0.10653037 0.05992652 -0.12563817 -0.18413532 -0.46039256 0.45482817 0.6248595 0.10044906 -0.35217547 0.114672475 0.22427844 -0.19347592 -0.100620486 -0.3170601 -0.088030025 0.48300144 0.22090955 -0.22524995 -0.23436816 0.11060141 -0.21326594 0.11000847 -0.019650107 0.013298567 0.26619518 -0.06150719 0.40298116 0.47281003 0.3694825 -0.42805132 0.016112715 -0.23358448 -0.44648954 -0.18929757 -0.15557031 0.109785676 -0.15871756 -0.15207875 0.028288608 -0.41392243 0.0019378607 -0.17627925 -0.5165358 0.041859716 -0.11436748 -0.2490624 0.5572187 0.09703118 -0.7072986
好评 -0.019706583 -0.09772564 0.056223117 -0.11394324 -0.17516616 -0.40162244 0.42072016 0.5703711 0.10244956 -0.3121898 0.10556356 0.19410652 -0.18081656 -0.09127051 -0.30349317 -0.08860218 0.43386525 0.1933436 -0.2090354 -0.22498699 0.088353075 -0.18572608 0.108167544 -0.014797383 -0.0013876945 0.23970968 -0.06992474 0.36858973 0.4407322 0.3517001 -0.38882193 0.007811273 -0.20524547 -0.4174202 -0.18586312 -0.15222414 0.09260571 -0.1436497 -0.15251572 0.01475246 -0.37592462 -0.0009871138 -0.16031723 -0.46464208 0.048124917 -0.11929026 -0.22666289 0.51412016 0.068597995 -0.6577225
差评 -0.009698645 -0.09986781 0.051282343 -0.12555811 -0.19451971 -0.47413546 0.46993834 0.6777334 0.11658646 -0.36542568 0.119484864 0.2445258 -0.20291375 -0.10430773 -0.34215364 -0.09285375 0.50873494 0.22669795 -0.24246664 -0.2537344 0.1035237 -0.23022261 0.11151369 -0.02162949 1.6494774e-05 0.29041937 -0.079951346 0.44300953 0.5115399 0.39116815 -0.44956952 -0.002912869 -0.24776913 -0.48048386 -0.19841735 -0.17461295 0.11055884 -0.16939232 -0.1604026 0.017024726 -0.4381725 -0.014801071 -0.17771459 -0.5550652 0.042985734 -0.12717646 -0.25876713 0.6069774 0.10224824 -0.74358565
合身 -0.0031470475 -0.0865833 0.04098038 -0.099520974 -0.13786018 -0.34569433 0.33833247 0.47127014 0.07405358 -0.2689574 0.08199471 0.16448478 -0.14743438 -0.06470512 -0.2514253 -0.07106243 0.36121532 0.16858853 -0.17053871 -0.18544343 0.0696185 -0.14697564 0.07884052 -0.017047206 0.012808957 0.20962699 -0.04577288 0.30278608 0.36161938 0.2901589 -0.32133567 0.013298011 -0.18275626 -0.34975016 -0.15022978 -0.12861916 0.07711726 -0.11725412 -0.12037646 0.017379405 -0.30744702 0.0026437112 -0.1188179 -0.3985849 0.027820518 -0.09493427 -0.1821503 0.43137515 0.06992985 -0.54581404
牛仔裤 -0.023043705 -0.1312404 0.06773131 -0.14186876 -0.2217556 -0.5536947 0.5527434 0.7600636 0.1220397 -0.42108288 0.13669784 0.2734615 -0.23930754 -0.10279514 -0.3894623 -0.10336572 0.57431054 0.27810845 -0.26574367 -0.2792881 0.13373587 -0.24797887 0.1329679 -0.02758167 0.009899628 0.33970934 -0.076627016 0.5060302 0.57805264 0.46657726 -0.5065407 0.018000718 -0.28002197 -0.5528241 -0.22769226 -0.20877136 0.13654268 -0.1976019 -0.20174487 0.028420402 -0.4998355 -0.01275114 -0.20678648 -0.62362385 0.059798103 -0.15593867 -0.29251185 0.68837315 0.10367451 -0.862398
洗 -0.0243395 -0.11821511 0.061812397 -0.13589238 -0.21279666 -0.49545124 0.5139004 0.72243994 0.105896436 -0.39277893 0.112673275 0.25873274 -0.2117199 -0.10697457 -0.36907583 -0.105055094 0.5347572 0.25095046 -0.24716297 -0.27469057 0.116079 -0.23022084 0.12765704 -0.01355413 -0.002320321 0.29614797 -0.07262277 0.45661575 0.5304185 0.41937014 -0.47055843 0.009688228 -0.25289574 -0.5102958 -0.22028863 -0.1930638 0.1324617 -0.19293524 -0.17749141 0.035016045 -0.46244302 -0.019525357 -0.19625688 -0.58939135 0.05858066 -0.14424786 -0.27200866 0.6346956 0.10065184 -0.8049108
色差 -0.0052357125 -0.070545055 0.049205452 -0.10068354 -0.1512728 -0.34902045 0.3539824 0.48464766 0.078616746 -0.28290462 0.07324231 0.17938921 -0.14917545 -0.06500217 -0.24622777 -0.072798975 0.37744933 0.172882 -0.17423126 -0.18595684 0.09192424 -0.1716165 0.07848637 -0.0072024846 0.0038326066 0.21469907 -0.054102205 0.3162699 0.36936375 0.2999981 -0.33999413 0.0012538553 -0.17167869 -0.35146415 -0.14171119 -0.13490473 0.095604576 -0.13331474 -0.13395558 0.012800142 -0.3184202 0.0013119717 -0.12253896 -0.40852648 0.04509543 -0.095741875 -0.18959148 0.43966323 0.072152525 -0.5532352
图片 -0.026703512 -0.103147455 0.055217974 -0.121275306 -0.1748227 -0.4431617 0.44766685 0.6303984 0.10585352 -0.34365988 0.10065472 0.22065663 -0.18844765 -0.09270952 -0.32839167 -0.081230946 0.47624207 0.22247672 -0.23117857 -0.23914444 0.1101202 -0.21177278 0.11675023 -0.028353805 -0.0042116363 0.26184833 -0.07542848 0.41631186 0.4751191 0.37736422 -0.43314198 0.004602804 -0.2275727 -0.44050747 -0.20187715 -0.16601726 0.1180245 -0.16307482 -0.15210974 0.027187083 -0.4020858 -0.0038865723 -0.15822782 -0.5195499 0.04329075 -0.1283054 -0.24098928 0.5673335 0.08395055 -0.7142992
购买 -0.010749415 -0.090886585 0.05362315 -0.10239698 -0.16048814 -0.39485112 0.38924125 0.5482085 0.08811571 -0.30239505 0.08108542 0.19729741 -0.17272562 -0.087591514 -0.2706817 -0.08270374 0.41723952 0.19611445 -0.19162238 -0.2051128 0.08472212 -0.18086964 0.08470224 -0.02591828 0.008588161 0.241739 -0.06229088 0.35135403 0.41354397 0.33552676 -0.37567434 0.006367122 -0.19382173 -0.40038976 -0.16958165 -0.13501301 0.08549509 -0.13591903 -0.14616571 0.025028324 -0.3435117 -0.0040137446 -0.15567861 -0.44958666 0.041780688 -0.11485834 -0.2188289 0.50157595 0.07141095 -0.6075593
差 -0.024413329 -0.11153589 0.06770189 -0.14456783 -0.20336695 -0.50780934 0.49892983 0.69871616 0.11304478 -0.3961217 0.116008915 0.25269145 -0.21855067 -0.09869741 -0.36315328 -0.10757507 0.52379674 0.25195238 -0.25136268 -0.26471576 0.12119873 -0.22242889 0.12516616 -0.02161923 -0.0050500277 0.30075762 -0.08447636 0.45584938 0.5202972 0.42375487 -0.46535066 0.008540551 -0.25310215 -0.5058371 -0.22404668 -0.18533553 0.124479964 -0.19081458 -0.17484719 0.026002826 -0.4531011 -0.004897845 -0.18933614 -0.5746694 0.051118862 -0.14413227 -0.26498863 0.629544 0.10188673 -0.78577703
京东 -0.019881926 -0.1478819 0.06917033 -0.17332824 -0.27410898 -0.6466918 0.6657055 0.92338586 0.13819273 -0.51989514 0.15569906 0.31717375 -0.28118092 -0.1261849 -0.47270536 -0.13372946 0.6917485 0.32960752 -0.32685408 -0.35863742 0.15113765 -0.3126438 0.14644708 -0.025157725 0.0012555069 0.38799462 -0.099606134 0.59468514 0.69922084 0.5486091 -0.61936694 -0.00036336822 -0.3412409 -0.6617405 -0.29175088 -0.24717313 0.1629987 -0.23060066 -0.2356267 0.02885329 -0.5933445 -0.005522463 -0.24479964 -0.7608275 0.074752934 -0.17789346 -0.3432054 0.8135335 0.117057584 -1.0275826
东西 -0.021168578 -0.08310661 0.04330085 -0.11264846 -0.15979044 -0.406506 0.39666718 0.56671923 0.08030526 -0.3099557 0.08344008 0.18532255 -0.17398858 -0.083496295 -0.2862466 -0.074642 0.42773706 0.20044376 -0.20082858 -0.20408861 0.09608723 -0.18841025 0.09630331 -0.02290328 0.00967882 0.2373473 -0.059097763 0.3697118 0.41137022 0.33921477 -0.38273013 0.010019358 -0.21192452 -0.39150527 -0.16584682 -0.14681362 0.097802185 -0.14258456 -0.14799517 0.026612218 -0.35736382 -0.008505551 -0.14894731 -0.45769724 0.048251975 -0.10541856 -0.21116573 0.49411988 0.07347387 -0.6246945
尺码 -0.023301275 -0.096383646 0.04331128 -0.12834728 -0.18871143 -0.45073754 0.43545547 0.61356336 0.109034054 -0.35322142 0.101970814 0.2194507 -0.18167908 -0.09301895 -0.32037926 -0.08204064 0.46866143 0.21126898 -0.22818212 -0.22690408 0.09777648 -0.19671026 0.112163804 -0.018564342 -0.001950041 0.26131266 -0.062350806 0.41128972 0.4702168 0.36725068 -0.42189452 -0.0020042579 -0.21969058 -0.44829926 -0.18251176 -0.16334186 0.10896196 -0.16385302 -0.15059412 0.028273715 -0.39524218 -0.015246705 -0.15966259 -0.50977397 0.041170537 -0.111693695 -0.2321018 0.54638624 0.09051822 -0.692494
价格 -0.007775638 -0.07426627 0.048195228 -0.10219461 -0.14907871 -0.36675647 0.3691138 0.50135267 0.08271297 -0.28312474 0.075441875 0.16853426 -0.15294328 -0.07750824 -0.2547079 -0.07332005 0.38492787 0.1705417 -0.17085935 -0.17993802 0.08300471 -0.16070743 0.08253145 -0.019898364 -0.00040169669 0.21872713 -0.04783005 0.31750464 0.38724723 0.30842003 -0.3441317 0.011641447 -0.19023821 -0.36558726 -0.14866696 -0.12988771 0.087673284 -0.12846507 -0.12997371 0.011074972 -0.32943282 -0.0028590977 -0.12954368 -0.4150348 0.042218737 -0.10619731 -0.18421309 0.45734835 0.07768212 -0.56394005
弹性 -0.011770122 -0.093749374 0.056507047 -0.10293045 -0.16531424 -0.39140996 0.39069372 0.5627533 0.08636208 -0.29668528 0.08760799 0.1846913 -0.17746185 -0.0775253 -0.27823898 -0.06932645 0.4214127 0.1895189 -0.20048472 -0.20199665 0.09353614 -0.18677028 0.085148714 -0.024125926 0.0059058955 0.23787795 -0.050060045 0.36784288 0.41206172 0.32444483 -0.3712237 0.009318402 -0.20121154 -0.40236646 -0.1786714 -0.14395021 0.10099497 -0.14865237 -0.14542793 0.030882014 -0.36558652 -0.0038341484 -0.14631023 -0.45894235 0.036793966 -0.11399902 -0.20757008 0.48624286 0.06846019 -0.62072444
A21 -0.024375277 -0.11102097 0.048603944 -0.13039805 -0.20094478 -0.48003685 0.48692662 0.68228406 0.10697005 -0.3851322 0.12008558 0.24120057 -0.21379809 -0.105079755 -0.34546113 -0.0938482 0.52171665 0.23760313 -0.24569823 -0.24836464 0.112943724 -0.21781112 0.12344558 -0.023532456 -0.0050120647 0.2991108 -0.07924446 0.43461835 0.5185992 0.40573272 -0.4564674 0.015884977 -0.24295518 -0.4781996 -0.21430725 -0.18173338 0.11589157 -0.17901655 -0.17486608 0.028057132 -0.44568452 -0.009380471 -0.19199754 -0.5614962 0.052399226 -0.13865626 -0.25512406 0.6090629 0.08923344 -0.7777406
值得 -0.010153572 -0.09870457 0.043348726 -0.09370761 -0.15710935 -0.37676466 0.37904626 0.53262305 0.07427933 -0.29682025 0.0803372 0.17773393 -0.15746924 -0.084706664 -0.27045426 -0.06906934 0.3941734 0.17900266 -0.19040728 -0.20904581 0.091486245 -0.17470984 0.10164425 -0.014463836 0.010129063 0.22252437 -0.048684876 0.33318767 0.39824677 0.32062417 -0.34382927 -0.0010151764 -0.18835633 -0.38019568 -0.16730666 -0.12906559 0.087046295 -0.13697822 -0.121527605 0.030971603 -0.33730373 -0.0077488967 -0.15013908 -0.42778504 0.036275476 -0.10264116 -0.19113971 0.46757674 0.06347509 -0.59718287
大小 -0.0020065936 -0.07988183 0.03642489 -0.09468274 -0.1383058 -0.3238494 0.32023028 0.4523131 0.07406201 -0.2517528 0.08072041 0.16443036 -0.13073507 -0.06461181 -0.24120472 -0.057542183 0.34461135 0.17034672 -0.17428274 -0.17983611 0.07550933 -0.14036925 0.06973281 -0.024359055 0.0033070666 0.19616795 -0.04963586 0.30779597 0.3495636 0.28490686 -0.30941883 0.006315394 -0.16612627 -0.32110372 -0.1467761 -0.11268819 0.07881921 -0.13107665 -0.12161162 0.02217679 -0.28949982 -0.010452765 -0.12588131 -0.37775612 0.0316392 -0.083455876 -0.18333906 0.41214073 0.06639638 -0.5233331
下次 -0.003793736 -0.083031185 0.03572735 -0.10740432 -0.15567864 -0.36746183 0.36272377 0.4954121 0.0720592 -0.27120775 0.082665876 0.17725156 -0.15049349 -0.07014166 -0.26142284 -0.063328296 0.37958604 0.18391721 -0.18807298 -0.1975587 0.094435625 -0.16835386 0.07695004 -0.022845438 0.0035038325 0.2222147 -0.0474403 0.31840074 0.37125322 0.29780102 -0.34018984 0.007261746 -0.17286313 -0.34922615 -0.154078 -0.1349389 0.08121763 -0.12442166 -0.1261185 0.010701814 -0.33355826 -0.011409736 -0.12993138 -0.40969062 0.026391095 -0.088917404 -0.19226775 0.4485128 0.071325056 -0.5680578
味道 -0.02168218 -0.08987402 0.056681823 -0.12436227 -0.17213318 -0.44361505 0.44321805 0.6081716 0.08695058 -0.3459019 0.09588659 0.21795961 -0.17985505 -0.09694895 -0.3120503 -0.077323444 0.47060344 0.22287805 -0.21292374 -0.23346414 0.10209445 -0.2044037 0.105146214 -0.013448819 0.012385008 0.26189888 -0.06897848 0.40158302 0.46018055 0.37365848 -0.41171676 0.005209801 -0.21262187 -0.43989336 -0.18509136 -0.15163088 0.09948797 -0.1554258 -0.1572553 0.015745552 -0.40143374 -0.016789649 -0.16810174 -0.5087427 0.036098287 -0.11977023 -0.2447642 0.55057883 0.09483975 -0.6829503
垃圾 -0.0058571678 -0.0967277 0.041668322 -0.108292565 -0.16599569 -0.3962177 0.38879076 0.54291624 0.09148227 -0.30749 0.08953465 0.18609399 -0.16021328 -0.08381629 -0.2749075 -0.07907826 0.41012695 0.19812505 -0.20393915 -0.21079889 0.098175526 -0.17919846 0.09392196 -0.020369299 0.008291042 0.22856301 -0.055668335 0.3566537 0.4074942 0.3269687 -0.36964315 -0.00020701493 -0.19379425 -0.37963864 -0.16681074 -0.13949223 0.09987306 -0.14230113 -0.12705061 0.018074645 -0.34110758 -0.00948729 -0.14011696 -0.43598408 0.044876162 -0.10377796 -0.20643438 0.48439384 0.07253769 -0.6120467
版型 -0.012757612 -0.086085446 0.04772194 -0.09296754 -0.14485444 -0.35128942 0.3572013 0.5034021 0.07771265 -0.28480828 0.092341185 0.17484228 -0.14503357 -0.0681527 -0.25023055 -0.07461507 0.3752694 0.1698227 -0.17689978 -0.17836957 0.09221342 -0.15803553 0.093920425 -0.025368184 -0.004751121 0.22045392 -0.05811376 0.3243992 0.38145533 0.3023182 -0.34122625 0.015244136 -0.18230458 -0.3642876 -0.16107328 -0.12554656 0.079015575 -0.13899712 -0.1333311 0.026769014 -0.31844682 -0.01402618 -0.1344752 -0.41562966 0.03140753 -0.10010169 -0.19673583 0.4446701 0.07804766 -0.5499836
评价 -0.025531704 -0.14150709 0.07296291 -0.1664433 -0.2754896 -0.66022927 0.659519 0.9157675 0.14978586 -0.50764084 0.13777839 0.32822585 -0.26707086 -0.12760986 -0.46343538 -0.13981391 0.6841842 0.31150565 -0.3442938 -0.33740655 0.13774994 -0.29161274 0.16403303 -0.028857559 0.025718749 0.39371797 -0.08899544 0.5763386 0.6977879 0.5432517 -0.6006725 0.0025935564 -0.33226788 -0.6530919 -0.2933428 -0.2359425 0.15648139 -0.22838941 -0.23457424 0.01814649 -0.5976565 -0.023631489 -0.24254677 -0.74376553 0.087844 -0.18138723 -0.3423025 0.813536 0.122637406 -1.0232314
太 -0.024304906 -0.08860397 0.0593737 -0.11571726 -0.17776126 -0.43291292 0.42021683 0.61152774 0.102779016 -0.33289045 0.10535601 0.20927055 -0.18492138 -0.084207445 -0.3126535 -0.083979815 0.45780832 0.20540737 -0.20933582 -0.22246599 0.10978306 -0.18767558 0.09611185 -0.009187302 0.009324377 0.24671389 -0.06382225 0.39591348 0.45298278 0.36800948 -0.41371405 0.011477316 -0.21388479 -0.4341175 -0.19218014 -0.16033886 0.10925347 -0.16284032 -0.15077566 0.026350398 -0.37844795 -0.0134414835 -0.14993592 -0.4868466 0.037585285 -0.11953657 -0.23702325 0.54080266 0.088622786 -0.6813813
很快 -0.020958757 -0.07892691 0.04651144 -0.09747535 -0.14317194 -0.31596237 0.31498304 0.45385927 0.08288112 -0.25126413 0.08517507 0.16088238 -0.14765178 -0.057531048 -0.22216092 -0.063826546 0.35144597 0.15447807 -0.16596521 -0.1649893 0.08114858 -0.15141895 0.08093833 -0.007068249 0.0044480693 0.20309266 -0.048330575 0.28460273 0.3496367 0.26576412 -0.3134285 0.0009988663 -0.17407022 -0.3204557 -0.13731663 -0.10929579 0.06939342 -0.11555071 -0.11428215 0.007957451 -0.28319404 -0.009642349 -0.118304186 -0.37182692 0.041483954 -0.09467318 -0.179705 0.40878925 0.067667186 -0.49983773
刚刚 -0.012857604 -0.07835187 0.03554114 -0.09332136 -0.13865355 -0.36275113 0.36900666 0.5003378 0.08209151 -0.28690162 0.08962032 0.1756727 -0.16048981 -0.07914816 -0.24885291 -0.07864522 0.37981853 0.16616435 -0.18286586 -0.19634609 0.09219927 -0.16227552 0.08092917 -0.016722519 -0.00052408245 0.22086062 -0.051261928 0.32812372 0.37726825 0.30540285 -0.33847868 -0.003263594 -0.17566502 -0.35175443 -0.16553752 -0.13043222 0.08230617 -0.13364102 -0.122093484 0.027840514 -0.31523702 0.0027807595 -0.13225953 -0.4229173 0.04554701 -0.09774687 -0.18787454 0.4428405 0.07549627 -0.5703113
款式 -0.00553699 -0.08101265 0.04964797 -0.094581984 -0.14559445 -0.3541611 0.35344392 0.50779015 0.08065631 -0.28053993 0.07755666 0.17814198 -0.15140207 -0.07019991 -0.26356062 -0.06754814 0.39063218 0.1685024 -0.18112323 -0.19375943 0.075904705 -0.16552636 0.09473591 -0.006213461 -0.005405936 0.209788 -0.051286656 0.32010806 0.37435892 0.30928645 -0.34271625 0.006685306 -0.17387429 -0.36756778 -0.16294657 -0.13236646 0.090564854 -0.124433324 -0.11585564 0.018085195 -0.31691045 0.0027718993 -0.13079102 -0.41660592 0.042789947 -0.103726335 -0.18041982 0.44731832 0.07055968 -0.5664516
品牌 -0.022289222 -0.11009017 0.043425012 -0.12172328 -0.18097527 -0.45555598 0.4414269 0.62521905 0.099425204 -0.3454169 0.09353767 0.22534762 -0.193196 -0.090856396 -0.3269763 -0.08185668 0.47015324 0.22365354 -0.23102485 -0.22835034 0.09940762 -0.2107411 0.10498618 -0.01421728 0.0031432882 0.27233788 -0.0750873 0.39635453 0.47874352 0.36857563 -0.41391397 0.009754915 -0.22146064 -0.4487135 -0.18523227 -0.16812569 0.11261391 -0.17075326 -0.16414751 0.02597703 -0.41026002 -0.0053144605 -0.16071416 -0.5059133 0.036972575 -0.118632264 -0.23603903 0.561968 0.09318551 -0.707311
面料 -0.010586807 -0.07465627 0.041187994 -0.08466868 -0.12592672 -0.2990339 0.28880396 0.40832898 0.073584974 -0.22822623 0.07192075 0.14683364 -0.11462825 -0.054038566 -0.21774901 -0.046522304 0.3086359 0.13714798 -0.14450763 -0.1572121 0.070138834 -0.13123181 0.07467003 -0.008091259 0.0006385687 0.18374828 -0.04663413 0.27144295 0.31480765 0.2544626 -0.28318775 0.0071710087 -0.1501017 -0.29356873 -0.1284937 -0.10381765 0.06962085 -0.1093573 -0.10964529 0.019932369 -0.2690411 0.0049604154 -0.11800618 -0.3330559 0.034785282 -0.08849864 -0.16283135 0.37442905 0.04720411 -0.46447667
实体店 -0.0138636995 -0.09280008 0.047227975 -0.114505865 -0.15968584 -0.3933067 0.38425052 0.5608359 0.09813909 -0.29949883 0.095175944 0.18271954 -0.17769846 -0.08845611 -0.28397977 -0.07628871 0.41679385 0.20115036 -0.1998758 -0.20668377 0.091907315 -0.1747382 0.084125675 -0.01868529 -0.00070668804 0.24644418 -0.05964947 0.36468887 0.4200286 0.32271084 -0.37231377 -0.000740443 -0.20719348 -0.40000927 -0.17192203 -0.1410072 0.10530705 -0.13580896 -0.1394082 0.02642958 -0.35988706 -0.016742302 -0.13922954 -0.45216206 0.034702104 -0.11396116 -0.21300323 0.49437553 0.08387455 -0.62409323
购物 -0.014440525 -0.078907706 0.052113082 -0.111638166 -0.16576973 -0.38798124 0.38229272 0.53835344 0.08204464 -0.2968089 0.08085936 0.1874609 -0.17346527 -0.082222156 -0.26504302 -0.07128812 0.40983954 0.1885533 -0.18380235 -0.20117535 0.08594961 -0.17222415 0.08227562 -0.0073438142 -0.007203984 0.237187 -0.0653159 0.35043073 0.39625454 0.3311614 -0.36300823 0.01148093 -0.19424614 -0.3889889 -0.17431366 -0.13742794 0.09162036 -0.13456927 -0.13305122 0.0133187 -0.35409644 0.004450479 -0.13448843 -0.4521093 0.039497092 -0.11095129 -0.19780403 0.48571783 0.06795884 -0.6126297
柔软 -0.014324179 -0.084607735 0.04721434 -0.107027635 -0.1517741 -0.35815474 0.365446 0.49804714 0.08518017 -0.28152603 0.089338414 0.17870064 -0.1597422 -0.07235396 -0.26098242 -0.0650707 0.39000893 0.17317158 -0.19045416 -0.19567752 0.09030592 -0.16649653 0.08530026 -0.014742734 0.009896738 0.21634254 -0.064389266 0.3324705 0.3748468 0.3046802 -0.34328458 0.0015302228 -0.19012634 -0.36608478 -0.16466816 -0.13289261 0.08775057 -0.13540429 -0.12675501 0.026080158 -0.3276701 -0.011537574 -0.14517815 -0.42142093 0.041493487 -0.10443665 -0.18989973 0.46180382 0.0615144 -0.57352144
活动 -0.012335692 -0.11685907 0.06811751 -0.14378011 -0.21752049 -0.5114014 0.5161408 0.72755986 0.11468608 -0.3995741 0.12490839 0.25557163 -0.21678631 -0.09448035 -0.36017713 -0.09147096 0.5447807 0.2538194 -0.25781178 -0.27755192 0.12645644 -0.2344636 0.11890054 -0.024458203 0.0137441065 0.3141384 -0.07087345 0.47415775 0.53637695 0.43561238 -0.4814867 0.008720216 -0.26404402 -0.50798106 -0.21382059 -0.19299543 0.115566455 -0.18987274 -0.1861026 0.032856446 -0.45529634 0.0035018576 -0.18670292 -0.5814212 0.04842777 -0.14677875 -0.28189242 0.6388077 0.09204975 -0.8100615
行 -0.013999192 -0.06766067 0.023438336 -0.07723937 -0.11665435 -0.2804123 0.2745026 0.39608973 0.06619851 -0.22427976 0.064678065 0.13465437 -0.13010193 -0.058707137 -0.20408797 -0.05646809 0.30113515 0.14080769 -0.14761604 -0.151928 0.060344286 -0.13882369 0.062999316 -0.02255811 -0.003666506 0.16149817 -0.046622317 0.26255888 0.29026985 0.23329064 -0.27355218 -0.0037298626 -0.14118364 -0.2908175 -0.12784542 -0.09620307 0.06864942 -0.09890858 -0.09501105 0.014924391 -0.24976586 -0.0058355373 -0.11063139 -0.32700035 0.033959847 -0.08132737 -0.15977482 0.35722175 0.06349201 -0.45234296
码 -0.02951633 -0.14145733 0.072100244 -0.15028869 -0.22680087 -0.56041664 0.56763947 0.80978286 0.13424712 -0.4381467 0.12406865 0.28726932 -0.24100374 -0.10890347 -0.4061637 -0.11060894 0.61416215 0.28429598 -0.29479483 -0.3082212 0.12764543 -0.27040866 0.12948956 -0.015288386 0.004163677 0.34563527 -0.07907534 0.5307461 0.5940211 0.48525468 -0.54643625 0.017022993 -0.28230587 -0.56500554 -0.2364299 -0.20497283 0.13993388 -0.21423748 -0.1902878 0.03467463 -0.5170585 0.00052504166 -0.20379451 -0.65341765 0.058323752 -0.16642018 -0.31087834 0.71038365 0.10609452 -0.90972537
一点 -0.014649825 -0.09333051 0.044979032 -0.10704044 -0.15819328 -0.3899376 0.40477097 0.54601127 0.09385538 -0.29726902 0.084324576 0.18700992 -0.16487242 -0.07330176 -0.28229856 -0.06627445 0.42309335 0.20197134 -0.19575956 -0.20910053 0.09706481 -0.19165666 0.08511161 -0.0077720485 -0.005333459 0.23813227 -0.05180918 0.35627306 0.41872755 0.33383814 -0.3675977 0.008401424 -0.19850023 -0.39403328 -0.1799306 -0.13807619 0.100197956 -0.14043449 -0.14746127 0.016328072 -0.3649405 -0.015564603 -0.15773427 -0.45256564 0.049058743 -0.11076249 -0.21035124 0.5032781 0.07020718 -0.62436044
不好 -0.003129478 -0.07607467 0.045500718 -0.10091204 -0.15593763 -0.36703137 0.3559238 0.51641345 0.08340761 -0.29038918 0.0913925 0.1864787 -0.16043691 -0.080736876 -0.259824 -0.071345404 0.38222516 0.1845793 -0.1820096 -0.1871175 0.089725316 -0.16316494 0.083125204 -0.02176837 0.010156472 0.22858025 -0.061999172 0.3350165 0.3823632 0.30593768 -0.34006077 -0.0002607953 -0.19445312 -0.3692906 -0.15579054 -0.1290272 0.09659612 -0.13633248 -0.120760456 0.015587567 -0.32959744 -0.01545383 -0.13464801 -0.42888868 0.033193074 -0.10060019 -0.19442572 0.46308762 0.07476775 -0.5809505
布料 -0.008145937 -0.0978844 0.040021624 -0.10036216 -0.16275157 -0.38750067 0.38030678 0.5476766 0.092253424 -0.2988619 0.08645585 0.18896998 -0.15755585 -0.07630574 -0.2822294 -0.06876963 0.41591915 0.19204289 -0.19771606 -0.21012045 0.091638766 -0.17938769 0.0965506 -0.012275174 -0.004097536 0.23472917 -0.05532733 0.36218554 0.41314992 0.331364 -0.36343285 -0.0023917488 -0.20255709 -0.3852385 -0.17322062 -0.1365154 0.092072286 -0.15004902 -0.12981513 0.01593204 -0.35584256 0.00033028252 -0.13588102 -0.44754255 0.037835598 -0.10746972 -0.20104825 0.49277762 0.08017641 -0.60652757
默认 -0.019245608 -0.07257609 0.03633527 -0.08546946 -0.15837367 -0.36775354 0.3522815 0.5045365 0.08262201 -0.27550802 0.08068971 0.17168097 -0.14713626 -0.0769463 -0.26035336 -0.07543017 0.38488153 0.17754278 -0.19540226 -0.19157356 0.07178249 -0.17581464 0.08306204 -0.016332287 0.015133948 0.21155758 -0.04709694 0.31199974 0.3855331 0.29461944 -0.3285758 0.0102127325 -0.17569695 -0.35993132 -0.15874992 -0.14499201 0.07742289 -0.121676736 -0.13461912 0.010139107 -0.33057424 0.0012018598 -0.12880708 -0.41631845 0.04699199 -0.09009925 -0.18430367 0.44799295 0.06105752 -0.57050323
一般般 -0.0025774546 -0.03267363 0.0055221305 -0.041349698 -0.056304514 -0.12204161 0.11976219 0.18192415 0.034509283 -0.08847928 0.019959519 0.057157874 -0.04369144 -0.015094408 -0.08683829 -0.022366652 0.14002503 0.06781273 -0.058322962 -0.066043906 0.019385962 -0.066918544 0.028892292 -0.008799564 -0.0016088916 0.070304394 -0.024944732 0.103685446 0.13990425 0.09514159 -0.11524891 0.0024769932 -0.056389123 -0.116995305 -0.049735934 -0.04864293 0.022734411 -0.050331313 -0.039495867 0.0007270224 -0.11718394 0.00095921726 -0.052478254 -0.14884928 0.01686197 -0.038126644 -0.06861118 0.15633796 0.017896164 -0.18554969
实惠 -0.015934689 -0.06986078 0.035030846 -0.082272165 -0.11077969 -0.2706004 0.25812352 0.36795762 0.056050483 -0.21346208 0.070859656 0.12820491 -0.11765308 -0.046932455 -0.19070847 -0.053351965 0.2931346 0.13017304 -0.124335535 -0.14117534 0.05709192 -0.113975115 0.06123801 -0.021200465 -0.0075395717 0.16810901 -0.036802694 0.23299597 0.28065753 0.22292386 -0.24332866 -0.005075856 -0.14282142 -0.25548264 -0.122244105 -0.10053911 0.071964934 -0.10236456 -0.100683756 0.016324805 -0.24819256 0.004867201 -0.09928285 -0.3146634 0.031759955 -0.08261248 -0.1514877 0.33710608 0.053010475 -0.40877563
牌子 -0.013981007 -0.06916368 0.03833099 -0.092987135 -0.14174275 -0.31619018 0.32759836 0.46287185 0.074126534 -0.26304972 0.081299305 0.15271965 -0.13431406 -0.06872379 -0.23188911 -0.059491966 0.3500784 0.17042375 -0.1570928 -0.17626019 0.08696603 -0.15805154 0.068163656 -0.023990715 -0.00053909054 0.19075593 -0.05606111 0.28924176 0.33378765 0.27098432 -0.31631088 -0.0026629001 -0.15844479 -0.32337114 -0.14074299 -0.1236074 0.08079649 -0.12010014 -0.11621191 0.018560639 -0.3029287 0.00056515756 -0.13327019 -0.37373328 0.029379806 -0.09801754 -0.16505837 0.40572134 0.06202206 -0.5136958
第一次 -0.00852536 -0.09053699 0.04894986 -0.10545059 -0.15251872 -0.38461652 0.38832134 0.5553255 0.08090465 -0.29599738 0.08067338 0.18837419 -0.1753253 -0.08017037 -0.27724582 -0.08552854 0.4226119 0.1931976 -0.19546047 -0.20625311 0.09296782 -0.17309012 0.095951 -0.021769635 0.00012369717 0.23588985 -0.06706279 0.34913665 0.40342492 0.33556643 -0.3763513 0.009859665 -0.20204099 -0.39000154 -0.15955214 -0.14590387 0.0909208 -0.14543013 -0.14214726 0.016218118 -0.351265 -0.016699871 -0.15037976 -0.44835064 0.041124295 -0.113693394 -0.21636122 0.48529425 0.07308291 -0.61796665
商品 -0.011270075 -0.095323876 0.058282882 -0.11396511 -0.1687848 -0.43103606 0.4417438 0.5952052 0.09148258 -0.33013168 0.08988207 0.21448593 -0.17625496 -0.08480807 -0.30248606 -0.084744155 0.4624434 0.20388374 -0.21249051 -0.22313188 0.094978444 -0.20387715 0.10624212 -0.01972418 -0.002409683 0.2632269 -0.065463394 0.38492164 0.45398718 0.354711 -0.412304 0.0035312055 -0.21417236 -0.42874607 -0.18873265 -0.15502451 0.10236729 -0.16196275 -0.15700707 0.027478794 -0.39482838 -0.0066594672 -0.1620772 -0.4853888 0.03641933 -0.115057595 -0.2296144 0.54870176 0.09084833 -0.6737954
码数 -0.024260132 -0.09617224 0.041890994 -0.10960725 -0.16194831 -0.41416106 0.4152373 0.5644592 0.08240651 -0.31744477 0.09345898 0.19645143 -0.18172985 -0.08160064 -0.2935952 -0.07214807 0.44081485 0.20321919 -0.2031782 -0.21715909 0.09403077 -0.18176754 0.096642435 -0.014221882 0.00220969 0.23844771 -0.06730728 0.37714925 0.4227409 0.33941004 -0.38990173 0.007989012 -0.21679366 -0.41536668 -0.18454427 -0.15416624 0.10510779 -0.14400539 -0.14724372 0.012199372 -0.37739962 -0.0053158714 -0.16090925 -0.4691601 0.049989503 -0.10907163 -0.22179268 0.5085848 0.084949575 -0.6498309
舒适 -0.0071168803 -0.058995135 0.032675132 -0.078620695 -0.12582973 -0.28550178 0.28886443 0.41733044 0.05860203 -0.22657534 0.07227849 0.14525695 -0.12602866 -0.060977276 -0.2116666 -0.06553871 0.3173368 0.13965274 -0.1407324 -0.16174099 0.06543419 -0.1442299 0.071937785 -0.014858109 0.008351021 0.18011066 -0.043614898 0.27907747 0.31275624 0.25701013 -0.27817738 -0.0053129564 -0.14826009 -0.28469798 -0.13138932 -0.10738901 0.076685555 -0.1094963 -0.1023511 0.024584107 -0.2714844 0.0040966603 -0.10451647 -0.33698124 0.031491254 -0.082015015 -0.14987889 0.36654696 0.062161904 -0.46693304
速度 -0.008755438 -0.09025089 0.03733114 -0.10425771 -0.14848435 -0.36689675 0.3699392 0.5096812 0.072340585 -0.27970317 0.075436726 0.17185564 -0.1625911 -0.06497114 -0.2502981 -0.075984 0.392062 0.1784316 -0.1829947 -0.18208379 0.0934151 -0.17198701 0.08889979 -0.014603694 0.0026253238 0.2168454 -0.05156372 0.32845706 0.3747437 0.30412084 -0.34539393 0.01091247 -0.18943058 -0.35364613 -0.1465191 -0.12995696 0.09189974 -0.13606796 -0.11879993 0.014481649 -0.32155156 -0.011326095 -0.13134593 -0.4190874 0.038521275 -0.091270655 -0.19110565 0.44905922 0.07302144 -0.57884127
一条 -0.026419856 -0.11342491 0.058524415 -0.12710857 -0.19846989 -0.49704015 0.4914508 0.6921048 0.11848638 -0.38573018 0.121399514 0.24830239 -0.20592685 -0.0968583 -0.3524035 -0.08813904 0.53741896 0.24371263 -0.24697031 -0.26955852 0.11291651 -0.22712551 0.11904223 -0.02014571 0.0088812625 0.30597368 -0.08148152 0.46326277 0.5299341 0.41740063 -0.47090057 -0.0004812267 -0.2556423 -0.4970535 -0.21727848 -0.18200624 0.12367984 -0.18152577 -0.1683448 0.025998374 -0.44306716 -0.00012797888 -0.18015903 -0.5798646 0.05179199 -0.14394268 -0.26605743 0.61478496 0.09078209 -0.79355985
褪色 -0.012284446 -0.06534084 0.027155623 -0.0719532 -0.10809071 -0.26427367 0.2754835 0.3822496 0.06705229 -0.2071799 0.07069506 0.14109313 -0.11951939 -0.054005202 -0.20015569 -0.050603967 0.28319892 0.12881987 -0.14255247 -0.14259689 0.070163175 -0.13535641 0.06954789 -0.02179158 0.011053917 0.1725972 -0.04647422 0.25077978 0.29582578 0.23264576 -0.26100257 0.009792564 -0.13817544 -0.2785584 -0.12444839 -0.10574925 0.07267826 -0.104462035 -0.09407189 0.0074979905 -0.25301448 0.0019742032 -0.10066506 -0.30361208 0.017907137 -0.074102044 -0.15425988 0.34863347 0.061394803 -0.42685744
修身 -0.02052007 -0.07427075 0.05102014 -0.088723324 -0.14215797 -0.3626566 0.35129112 0.5023487 0.08671706 -0.2834735 0.07468214 0.17433377 -0.16094896 -0.065900296 -0.25745693 -0.070608355 0.37875006 0.17868228 -0.17498538 -0.19928786 0.08002385 -0.170338 0.078449026 -0.0065847766 -0.0026822917 0.21266696 -0.045765635 0.3350711 0.37082833 0.30203006 -0.34517005 0.0029843529 -0.17211784 -0.36525735 -0.15161362 -0.13772365 0.083119705 -0.12844005 -0.12811002 0.008943509 -0.32804856 -0.014199474 -0.12468668 -0.4169986 0.029005932 -0.094674304 -0.18395495 0.4497689 0.06923513 -0.55548555
还行 -0.008890047 -0.06289296 0.026170414 -0.07219237 -0.13214956 -0.30496195 0.30680707 0.41604772 0.06331684 -0.23024748 0.06836911 0.14374448 -0.12735528 -0.053735115 -0.20331761 -0.05040866 0.31615242 0.13834639 -0.14062154 -0.16131072 0.066822365 -0.14052364 0.06333535 -0.016318085 -0.003931233 0.17349175 -0.047185175 0.27751985 0.31558177 0.25430027 -0.28045997 0.005088641 -0.16038431 -0.30444223 -0.1198359 -0.113734424 0.07641719 -0.10791987 -0.097409844 0.017566904 -0.2626024 -0.0052487454 -0.119381726 -0.34400225 0.031265665 -0.07921901 -0.15816876 0.3712983 0.05271789 -0.46689475
裤脚 -0.01792307 -0.06965523 0.02980126 -0.08074373 -0.11601485 -0.28530207 0.29189962 0.39785627 0.069369264 -0.22046687 0.057179164 0.14579669 -0.12271874 -0.0577602 -0.19574751 -0.051991742 0.31068197 0.13399518 -0.15455896 -0.14236304 0.06128022 -0.12507014 0.062182125 -0.012222566 0.009962653 0.1706068 -0.04044549 0.26928666 0.2966234 0.24802248 -0.26900092 0.004973931 -0.14176993 -0.2840666 -0.12114137 -0.101724505 0.059955187 -0.11162883 -0.10562479 0.019072583 -0.2525226 0.0037328242 -0.11274533 -0.32748687 0.03425432 -0.076051585 -0.15547155 0.36795586 0.053118788 -0.45590737
便宜 -0.014142739 -0.06489627 0.035214018 -0.08055473 -0.11622072 -0.30531898 0.2972675 0.40562478 0.057346642 -0.24004224 0.05906905 0.13655294 -0.13376702 -0.051469743 -0.21362095 -0.054585353 0.3120474 0.14093775 -0.14561486 -0.16150562 0.06496253 -0.12927514 0.07042584 -0.014742623 0.0035362267 0.18120529 -0.044035092 0.2709622 0.31749496 0.25438195 -0.28574756 -0.0024276606 -0.15372571 -0.3020461 -0.1208811 -0.11840804 0.063497 -0.102906 -0.096594565 0.021759821 -0.25973856 -0.0010390967 -0.11405392 -0.33318168 0.024888614 -0.08980856 -0.15032887 0.36947513 0.067415245 -0.4600375
实物 -0.011364812 -0.080364704 0.04966649 -0.08699047 -0.14344163 -0.34742975 0.33821526 0.48936695 0.084670424 -0.2715703 0.07825358 0.16899161 -0.14006597 -0.0631461 -0.24832699 -0.06502522 0.3601885 0.17507346 -0.1646202 -0.1841871 0.08935076 -0.16244404 0.08615257 -0.020493804 0.0051837065 0.19843963 -0.044507332 0.32026792 0.3521337 0.29552072 -0.32709143 0.011186177 -0.16465782 -0.33307722 -0.14006262 -0.13058788 0.093490124 -0.11595756 -0.13003637 0.009016225 -0.30358088 -0.01176031 -0.121115625 -0.40375608 0.024574948 -0.10235494 -0.18613392 0.43582416 0.07681183 -0.546642
特别 -0.010209715 -0.083762385 0.046255916 -0.08978626 -0.15984242 -0.3681336 0.3699678 0.5123205 0.07710237 -0.2943198 0.0913317 0.17208242 -0.15737127 -0.08254249 -0.2638509 -0.06842582 0.40012303 0.17911445 -0.18567386 -0.20291996 0.09068101 -0.17438978 0.07756538 -0.013885922 0.0053231465 0.22210659 -0.054587767 0.34369728 0.3805771 0.30404925 -0.341673 0.0016847961 -0.19708788 -0.36175063 -0.16380797 -0.13043055 0.0910037 -0.14323956 -0.13958804 0.009580722 -0.33539274 -0.006036028 -0.13589472 -0.42779946 0.0322915 -0.10918982 -0.18819632 0.4559501 0.07894983 -0.56836295
货 -0.017868264 -0.07926601 0.03767599 -0.09440547 -0.13839926 -0.31745815 0.3092313 0.45574826 0.07655551 -0.23800376 0.0653436 0.16335954 -0.13191645 -0.070001505 -0.22360083 -0.06424682 0.3491927 0.15772605 -0.16707465 -0.16053206 0.081846714 -0.1509665 0.08207704 -0.0077508735 0.008349633 0.18673676 -0.047141798 0.29277837 0.33595333 0.2619224 -0.29807034 0.0018155512 -0.16676295 -0.32566354 -0.13678974 -0.121452965 0.08275526 -0.11469835 -0.103016384 0.021575874 -0.2837579 -0.0016564826 -0.12470754 -0.3728184 0.031386472 -0.09304846 -0.16924949 0.39823475 0.06312735 -0.490559
换 -0.012355869 -0.113097176 0.05457676 -0.11322639 -0.19067107 -0.46582097 0.46230754 0.64657444 0.098653205 -0.3440429 0.10350175 0.22246537 -0.18950987 -0.083044626 -0.32026026 -0.08859418 0.4827868 0.22697337 -0.23976946 -0.24114542 0.10419101 -0.20184514 0.10088626 -0.014496146 0.0024168165 0.27743816 -0.060967628 0.42175847 0.47520465 0.38069618 -0.43450943 0.0014047145 -0.23677151 -0.4559297 -0.19712664 -0.17449436 0.1190259 -0.16194542 -0.16946341 0.013083706 -0.403064 0.0015138882 -0.1612119 -0.5233365 0.040055543 -0.11784832 -0.24121127 0.5647172 0.08727048 -0.7220788
发货 -0.02374994 -0.11524643 0.053997427 -0.14201532 -0.21760046 -0.49950817 0.5119459 0.7263017 0.116252534 -0.39790928 0.12397237 0.24876589 -0.22548604 -0.09294991 -0.363704 -0.09174126 0.55470663 0.2460239 -0.24796526 -0.26482785 0.12096325 -0.24554417 0.12210615 -0.01278965 0.0104457205 0.30906302 -0.08639647 0.46734095 0.54397386 0.43704686 -0.47213492 0.016840957 -0.2557244 -0.5170831 -0.21517172 -0.19601798 0.117134966 -0.18029088 -0.1784916 0.024424117 -0.45255268 -0.008196926 -0.18775763 -0.59552556 0.062364157 -0.1415088 -0.2701496 0.63026255 0.10857012 -0.80826044
挺舒服 -0.013210232 -0.045016717 0.027359465 -0.058010697 -0.09392191 -0.20247242 0.2020298 0.30435452 0.039471958 -0.1747363 0.050351396 0.10514413 -0.08080795 -0.051525205 -0.15517014 -0.042684704 0.22936691 0.09519563 -0.10022424 -0.11473466 0.05123314 -0.090880916 0.054437976 0.00011315887 -0.0028074437 0.13160384 -0.038604822 0.19138384 0.22664055 0.17021498 -0.19217229 -0.005368936 -0.099708065 -0.20671505 -0.09733127 -0.08736906 0.042346444 -0.08506741 -0.08102211 0.014133957 -0.19485566 -0.0033046491 -0.08643961 -0.2482028 0.03216225 -0.06238295 -0.10898826 0.25600535 0.039178472 -0.32641187
三条 -0.007177705 -0.09567279 0.047525026 -0.10260404 -0.16050817 -0.3744477 0.37797108 0.51524377 0.08871976 -0.2851307 0.08996857 0.18856391 -0.1512331 -0.08096655 -0.26011047 -0.0671823 0.40366462 0.17938536 -0.183627 -0.1945809 0.09478147 -0.17676274 0.09508492 -0.010378675 -0.0057500903 0.22421242 -0.061656095 0.34519583 0.38459626 0.3109422 -0.36038795 0.0068154144 -0.19317617 -0.37962654 -0.15471311 -0.132108 0.098076776 -0.14579408 -0.13766766 0.027103407 -0.331056 -0.00540787 -0.13266408 -0.42475516 0.04378702 -0.09737634 -0.2064135 0.47144368 0.080612 -0.5853443
商家 -0.0129139135 -0.10744546 0.053686 -0.1392808 -0.20909359 -0.49213007 0.49200132 0.6863076 0.117337614 -0.38391078 0.1080548 0.23494436 -0.20834771 -0.09781191 -0.33944327 -0.09759981 0.52716273 0.23249586 -0.24127743 -0.26184475 0.1208587 -0.22627048 0.12590021 -0.016129453 -0.0054181335 0.29257244 -0.06837946 0.44106317 0.5181638 0.42144135 -0.45998296 0.001541024 -0.25724807 -0.47946593 -0.21315515 -0.17541242 0.11787573 -0.18224972 -0.17264053 0.020109542 -0.4499757 -0.010655217 -0.18986975 -0.5633837 0.05475979 -0.12730701 -0.26096368 0.6235774 0.09538526 -0.77420413
真的 -0.019632313 -0.086589865 0.045546144 -0.10167902 -0.13039263 -0.34543532 0.34773368 0.48197237 0.081421904 -0.25760764 0.07926509 0.17269233 -0.1475121 -0.06118415 -0.24039523 -0.057921614 0.367038 0.16657601 -0.1677998 -0.18248656 0.082151584 -0.15430138 0.079205826 -0.008308911 0.011503234 0.20349588 -0.061683554 0.31578618 0.36367828 0.29393876 -0.31226838 -0.0008330563 -0.16463512 -0.33828175 -0.14776647 -0.11813928 0.077830106 -0.115354404 -0.11268994 0.0152270915 -0.3087702 -0.012014295 -0.12317418 -0.3954622 0.037330206 -0.090044625 -0.19048356 0.42919713 0.06742825 -0.53134924
做工 -0.016212128 -0.088008836 0.05180546 -0.097717024 -0.15952979 -0.37349012 0.3705221 0.52125615 0.0784498 -0.28263828 0.09294471 0.18879789 -0.15742068 -0.070764065 -0.27202603 -0.06780292 0.3991075 0.19050533 -0.19294262 -0.1971757 0.09118544 -0.17405419 0.08050639 -0.01388872 0.0061365366 0.22003858 -0.06496929 0.32698175 0.3886034 0.3154749 -0.3448725 -0.0041305413 -0.18247755 -0.37625214 -0.1548401 -0.13019782 0.08999806 -0.13233487 -0.12538733 0.019763978 -0.33408812 -0.0028323198 -0.1387055 -0.42350855 0.041802112 -0.10658833 -0.18620852 0.45796046 0.07783205 -0.5743915
换货 -0.023234518 -0.1283409 0.053867824 -0.14534798 -0.2163464 -0.52930444 0.5200953 0.7318391 0.121351026 -0.4000812 0.11791162 0.25864336 -0.23059025 -0.10502177 -0.36522457 -0.09654324 0.5527711 0.25114092 -0.2558262 -0.27312973 0.12816595 -0.24468134 0.11423649 -0.025685707 -0.004429671 0.30228403 -0.08316987 0.48041657 0.5515084 0.4421034 -0.49047646 0.00081566593 -0.2599403 -0.518211 -0.21226381 -0.20122437 0.13335463 -0.18748714 -0.1907861 0.0291768 -0.47290042 0.0016324011 -0.18534409 -0.60278565 0.049682528 -0.13169675 -0.28027633 0.6570211 0.10216967 -0.8068668
手感 -0.019838482 -0.06464658 0.034612767 -0.07241628 -0.12555368 -0.28944343 0.27365053 0.38748232 0.06396969 -0.23039418 0.07077268 0.13696913 -0.12839942 -0.049845837 -0.200001 -0.058071412 0.3028363 0.1328117 -0.14555797 -0.1565396 0.06736508 -0.12602088 0.057280097 -0.0059660315 -0.0029458497 0.17354837 -0.03346296 0.25367606 0.29165164 0.23806714 -0.27638462 -0.00509295 -0.13444746 -0.27766496 -0.12855023 -0.09824409 0.0677824 -0.11116934 -0.09358507 0.010409281 -0.26056567 -0.003041779 -0.09667868 -0.31697112 0.026695928 -0.08481415 -0.15132836 0.36321568 0.059075657 -0.43663165
还好 -0.0014876068 -0.04862814 0.018887404 -0.059413906 -0.107948825 -0.24592489 0.2451908 0.3362839 0.049620554 -0.17983322 0.06024024 0.12225732 -0.095493585 -0.044065196 -0.16386035 -0.04941465 0.26523396 0.10925138 -0.113164864 -0.1331373 0.066627294 -0.109387375 0.05511386 -0.011648873 0.004569696 0.15360744 -0.04293664 0.21682288 0.2527383 0.21331808 -0.2242856 0.00018868927 -0.114695705 -0.24972276 -0.10931133 -0.09487494 0.060074564 -0.079387 -0.07951275 0.0033068412 -0.21549912 -0.012603607 -0.08596253 -0.28207222 0.020175159 -0.069960915 -0.13957383 0.31302986 0.054236222 -0.38361564
两条 0.00032078114 -0.067820475 0.032391433 -0.07789893 -0.113732286 -0.26100725 0.27766287 0.37777486 0.063681446 -0.20264226 0.06171669 0.13368738 -0.12013125 -0.0581211 -0.18724364 -0.06153981 0.27903408 0.13038799 -0.12652755 -0.1301452 0.06576439 -0.13055274 0.06642333 -0.01901189 0.009916292 0.15546007 -0.04114899 0.24168368 0.2902617 0.21753134 -0.25225326 -0.005300839 -0.12985666 -0.25791094 -0.106975794 -0.104770586 0.07013482 -0.10141083 -0.099533826 0.0046471683 -0.24460809 -0.0064075133 -0.09225712 -0.3069745 0.03403254 -0.06428688 -0.13647987 0.33360484 0.04642473 -0.4129109
很大 -0.01749288 -0.07819587 0.03962484 -0.0809191 -0.12722306 -0.32154897 0.32319164 0.46517393 0.06509493 -0.2446339 0.08115041 0.16458385 -0.13147762 -0.061960265 -0.22535947 -0.06362219 0.3461071 0.15990078 -0.16395618 -0.16990413 0.069504485 -0.15427306 0.07559252 -0.0153265465 0.007645269 0.19898799 -0.044026483 0.2988858 0.33438694 0.27945617 -0.30601934 0.007511116 -0.15890147 -0.32852477 -0.14604409 -0.12238819 0.07047566 -0.12563665 -0.11505209 0.013548762 -0.30247635 -0.009182073 -0.11352297 -0.36559835 0.04057198 -0.09184295 -0.16390762 0.41531795 0.066304006 -0.5205801
退 -0.010652731 -0.09151701 0.05294426 -0.10023531 -0.17000204 -0.39777786 0.39629453 0.5583383 0.09507816 -0.3145802 0.09487241 0.19637965 -0.17099488 -0.076478384 -0.28697363 -0.08242946 0.4249602 0.18614076 -0.1985053 -0.20759684 0.096744254 -0.18781202 0.08585873 -0.015058563 0.007861769 0.22961113 -0.06040864 0.35383603 0.4084072 0.3320244 -0.3779067 0.006946433 -0.21181767 -0.38834816 -0.16749991 -0.14635414 0.10249923 -0.15473016 -0.13536645 0.015511169 -0.34750518 0.0030531015 -0.14944094 -0.45704427 0.030912913 -0.09672109 -0.2121278 0.5032006 0.070251845 -0.6159911
服务 -0.015880631 -0.0631514 0.033598617 -0.06366985 -0.10081045 -0.25707686 0.2633021 0.36392578 0.068863206 -0.20971029 0.071121976 0.13373582 -0.11012261 -0.05692869 -0.19376864 -0.059077617 0.28162235 0.1213622 -0.13047718 -0.14194931 0.06948859 -0.12479128 0.06280808 -0.008456972 0.009952456 0.15996905 -0.046204228 0.2408536 0.2765841 0.2126824 -0.24194326 0.011747174 -0.13456494 -0.25670207 -0.10286596 -0.09893602 0.056380704 -0.09252233 -0.099324875 0.010625731 -0.23501548 0.0015271733 -0.097622275 -0.30086315 0.024411622 -0.06368534 -0.14473398 0.33267552 0.044824053 -0.39927182
服务态度 -0.01870623 -0.089613035 0.04010032 -0.08891821 -0.15077196 -0.36902496 0.35859212 0.51286256 0.075960726 -0.26998046 0.0884842 0.17472506 -0.15992606 -0.08152969 -0.2519811 -0.064608626 0.39322865 0.18007006 -0.17464045 -0.19010794 0.08442312 -0.1738912 0.094751 -0.012821462 0.005207836 0.2242106 -0.04873304 0.32921988 0.36900666 0.2995444 -0.3410096 0.0043626865 -0.18522555 -0.35335806 -0.14976364 -0.1318035 0.08507709 -0.1406944 -0.13614412 0.019026369 -0.32971564 -0.0005026099 -0.13961008 -0.41527253 0.04519011 -0.10049967 -0.19902761 0.44094884 0.078470014 -0.5610794
一如既往 -0.014298371 -0.06775124 0.05290236 -0.09796906 -0.15280779 -0.3518817 0.32879996 0.4925079 0.087603934 -0.26123238 0.080006264 0.16921584 -0.1511895 -0.06475918 -0.25203428 -0.06415026 0.37896928 0.17811097 -0.173502 -0.19437319 0.07696463 -0.1508707 0.07912157 -0.01129517 0.011258863 0.20945129 -0.05283317 0.3086847 0.35992575 0.27566317 -0.33403218 0.014783062 -0.18858832 -0.34193754 -0.1592152 -0.12615238 0.0652282 -0.11590324 -0.1355258 0.019289011 -0.29718232 -0.009344524 -0.11757608 -0.40177384 0.02508612 -0.09121797 -0.16972274 0.43738663 0.05200643 -0.52880055
性价比 -0.0053308276 -0.081899084 0.0362812 -0.10041386 -0.13037752 -0.339452 0.33641353 0.48015377 0.06558684 -0.25758788 0.07076667 0.17021906 -0.13596447 -0.07264238 -0.23442477 -0.058575988 0.36447105 0.17509422 -0.17507873 -0.18272059 0.07873164 -0.16327456 0.07294627 -0.016124792 -0.0019439211 0.20759997 -0.05900959 0.2981643 0.3453769 0.29227343 -0.3138122 0.01056802 -0.17998496 -0.3308908 -0.14591715 -0.1334146 0.08138829 -0.117671415 -0.12563653 0.01308108 -0.2957502 -0.0007991264 -0.1346333 -0.37937966 0.02562094 -0.08268403 -0.18571047 0.41765553 0.065009736 -0.5286579
紧 -0.004063969 -0.05833433 0.026861843 -0.077097744 -0.1130605 -0.28278828 0.2884439 0.39152986 0.06252257 -0.22266336 0.05596927 0.14121042 -0.113689445 -0.059533156 -0.1933001 -0.0471727 0.30521977 0.13446957 -0.13284814 -0.1556799 0.06368358 -0.13308896 0.074205354 -0.006988541 0.011486284 0.17249109 -0.05188802 0.2467099 0.30347866 0.24416606 -0.26247278 0.0020803546 -0.14109194 -0.27990687 -0.12067015 -0.09498492 0.07089097 -0.11173197 -0.09616754 0.008854635 -0.26207444 0.0028843891 -0.1004552 -0.3262109 0.022838118 -0.0793977 -0.14699683 0.34873486 0.05926385 -0.43339795
态度 -0.014666453 -0.091430284 0.06090004 -0.12142552 -0.17373924 -0.43268067 0.43667024 0.6060741 0.09632119 -0.33424744 0.106657766 0.21661334 -0.18281701 -0.07893747 -0.29961184 -0.07641944 0.45639428 0.21621227 -0.22578877 -0.2383669 0.103749245 -0.19995135 0.09523996 -0.015741235 -0.001050594 0.25792372 -0.07353525 0.38976833 0.4621815 0.37138972 -0.40849456 0.0058833496 -0.21471158 -0.42292258 -0.19502836 -0.15061553 0.09577043 -0.1603601 -0.15535137 0.025527162 -0.3917537 -0.016126439 -0.16127901 -0.4962901 0.042977944 -0.1152909 -0.23731588 0.529755 0.0793098 -0.68246806
想象 -0.01471782 -0.03558483 0.027434705 -0.06552786 -0.08104359 -0.20617072 0.21179393 0.29118168 0.037965126 -0.16784574 0.03728253 0.10882555 -0.077490434 -0.045332123 -0.15228479 -0.029844426 0.22312239 0.09009142 -0.10388721 -0.10368642 0.05243786 -0.0945328 0.042921674 -0.019148834 -0.0036463828 0.114674725 -0.027716335 0.18650095 0.22332947 0.16730577 -0.1932718 0.01066238 -0.10026918 -0.19952048 -0.09399564 -0.072232865 0.056117136 -0.07307053 -0.061417233 0.012985436 -0.1885112 0.0054213754 -0.06473436 -0.24190724 0.029014671 -0.048668873 -0.10338941 0.25918487 0.031280287 -0.32089305
慢 -0.005736257 -0.059652235 0.03282756 -0.08023468 -0.12433315 -0.28463784 0.27424037 0.40418813 0.07352284 -0.22512797 0.06062719 0.14609152 -0.11785579 -0.05651814 -0.19258814 -0.05152199 0.31199184 0.13264553 -0.14848863 -0.14009467 0.061035033 -0.13244493 0.07810432 -0.011036586 -0.0042680535 0.17920555 -0.050283495 0.25547913 0.29134873 0.23947127 -0.25611836 -0.0013876103 -0.1541927 -0.28649026 -0.12789276 -0.106144324 0.065174825 -0.11052304 -0.10077007 0.021115413 -0.24961996 -0.012257 -0.110305674 -0.3238935 0.037361667 -0.070263885 -0.15318161 0.35183847 0.06332292 -0.44020003
尺寸 -0.0093527045 -0.08220924 0.04553501 -0.0809264 -0.139784 -0.32229322 0.32658675 0.46782777 0.07651002 -0.2658453 0.07450489 0.16842085 -0.15049638 -0.065795794 -0.2351553 -0.072964564 0.3533962 0.15750322 -0.16203107 -0.18421568 0.07034607 -0.15448926 0.08462079 -0.015742566 0.0069981753 0.20330335 -0.05190899 0.2979076 0.35393053 0.27058712 -0.31790966 -0.0052724364 -0.1753372 -0.33012688 -0.13252191 -0.120710514 0.077894464 -0.116059504 -0.1247597 0.0260312 -0.30333224 -0.0024218243 -0.11446362 -0.3777695 0.032949686 -0.082106374 -0.17028247 0.4136259 0.0576349 -0.52121735
未 -0.004890482 -0.08157301 0.03758514 -0.10274281 -0.16635455 -0.37721187 0.37770692 0.5197371 0.096462786 -0.30135456 0.09052953 0.18741474 -0.16451854 -0.0751886 -0.2765921 -0.08595696 0.40822974 0.18812521 -0.20602483 -0.19372275 0.07455741 -0.18178843 0.09185026 -0.020411646 0.016277717 0.2194649 -0.0532851 0.3388828 0.3994263 0.30286098 -0.3463892 -0.006856863 -0.19125806 -0.36204126 -0.16535112 -0.15047742 0.088843256 -0.13449478 -0.14408335 0.018155374 -0.3377821 -0.004910132 -0.14686297 -0.43068787 0.054393657 -0.098175585 -0.18845896 0.4644402 0.069666594 -0.5804472
划算 -0.011645308 -0.06740322 0.03418209 -0.076355465 -0.12342206 -0.27823094 0.28788766 0.3996055 0.0650584 -0.22547151 0.059913326 0.13206747 -0.11681496 -0.06335481 -0.19946305 -0.04712044 0.29550928 0.14344983 -0.14506437 -0.147556 0.07251648 -0.13563058 0.0695002 -0.016115705 0.0017850769 0.17843606 -0.036057 0.2633154 0.29713288 0.23550102 -0.25854337 0.00095470826 -0.14975286 -0.2859891 -0.12844038 -0.105233684 0.07667518 -0.10629281 -0.106357254 0.02185315 -0.24751778 -0.0051226015 -0.098720826 -0.32763696 0.027494036 -0.07494101 -0.14392099 0.35445723 0.06256513 -0.44709173
点 -0.0028952796 -0.071344905 0.041760217 -0.073501624 -0.12877208 -0.30193686 0.29076985 0.41963643 0.060271714 -0.23031159 0.06603789 0.14985889 -0.13563477 -0.06393633 -0.21345875 -0.06339153 0.32287914 0.14551814 -0.16074261 -0.16155241 0.075965576 -0.13299662 0.07384944 -0.0081358 0.0064905933 0.17156361 -0.049140107 0.28099406 0.32167813 0.25517613 -0.27983454 -0.0010253553 -0.15509549 -0.29932287 -0.13786739 -0.10297142 0.07634017 -0.117920145 -0.10769438 0.016377712 -0.2734196 -0.007886692 -0.12181011 -0.3531564 0.028166441 -0.08049608 -0.1599244 0.3822585 0.060421314 -0.46358052
长 -0.019720519 -0.06344868 0.031749193 -0.07750253 -0.13490777 -0.3188503 0.31640518 0.4416426 0.07951535 -0.24464695 0.081878364 0.1529448 -0.14464873 -0.06391138 -0.2200339 -0.06599613 0.33914447 0.155024 -0.16353853 -0.16459304 0.076356746 -0.15459281 0.06757206 -0.012277701 0.0046217805 0.19305451 -0.049734503 0.28626487 0.32934013 0.26458853 -0.30892017 0.010132473 -0.16076602 -0.3225241 -0.13998501 -0.12311567 0.076543935 -0.11752661 -0.10527199 0.010818506 -0.29513618 -0.008035353 -0.12905884 -0.37098122 0.039358992 -0.09057517 -0.1648188 0.40036157 0.07223473 -0.5019945
优惠 -0.010835192 -0.0620437 0.0329326 -0.07049688 -0.11815071 -0.28034395 0.28843886 0.3913327 0.06258974 -0.21156041 0.06734334 0.1366592 -0.118678525 -0.051647626 -0.19216868 -0.059872538 0.30824268 0.14723386 -0.13471857 -0.14396416 0.06434703 -0.12429566 0.075481094 -0.004695689 0.007889189 0.17832643 -0.039109483 0.2597269 0.30345488 0.23809539 -0.27252382 0.00589577 -0.13798822 -0.27106893 -0.11315787 -0.10514378 0.07723366 -0.10795323 -0.10809252 0.0054625846 -0.24961936 0.00012478749 -0.09796339 -0.32400474 0.03042544 -0.080163136 -0.1464843 0.34405455 0.047838718 -0.45182222
信赖 -0.011477078 -0.04722159 0.014161259 -0.057867654 -0.07712406 -0.20184977 0.21095894 0.28487533 0.037722245 -0.16636898 0.03711745 0.09171927 -0.0817567 -0.045226116 -0.15266089 -0.04849691 0.21640639 0.10482493 -0.10546148 -0.10401517 0.047212157 -0.08661758 0.051049657 -0.018143596 -0.0067082476 0.13256471 -0.033780556 0.18709418 0.21269841 0.17954329 -0.19267124 0.013467638 -0.11148946 -0.20796996 -0.08107678 -0.0702366 0.050800517 -0.07185548 -0.063141204 0.0058383113 -0.17537455 0.0050510205 -0.085721776 -0.23997101 0.015277652 -0.04541512 -0.11637025 0.26144966 0.03322797 -0.3252033
想 -0.014421295 -0.08277704 0.03222187 -0.09935454 -0.14933556 -0.3335386 0.35173884 0.4834163 0.06968179 -0.27245763 0.07377168 0.17098387 -0.14278243 -0.060186595 -0.23742807 -0.07492454 0.37356728 0.16384743 -0.17639366 -0.18270259 0.0837045 -0.16162173 0.085319765 -0.022307165 0.0026272314 0.21443392 -0.046374165 0.30625117 0.3685429 0.2953464 -0.31879774 0.009724603 -0.16718265 -0.3526276 -0.13854046 -0.13265762 0.077957965 -0.11795855 -0.11689424 0.012921402 -0.30724564 -0.007772687 -0.13313605 -0.40273285 0.030493455 -0.08771116 -0.18586318 0.4273434 0.064352825 -0.5381781
偏小 -0.0055583413 -0.05891312 0.024614777 -0.08219835 -0.10829314 -0.2679711 0.2757767 0.38811406 0.062176235 -0.21453264 0.058644146 0.12433433 -0.11102806 -0.05733828 -0.19651732 -0.047600053 0.28744557 0.14111699 -0.13810813 -0.15325974 0.06580815 -0.115782656 0.062325113 -0.017944774 0.0071793124 0.1531377 -0.034017146 0.25496742 0.28619206 0.21831192 -0.26114193 -0.005169167 -0.14732715 -0.27144155 -0.105951354 -0.09554231 0.07125549 -0.10335073 -0.10170315 0.021621265 -0.23443335 -0.0016374587 -0.109509245 -0.30349156 0.037295375 -0.068318084 -0.1457642 0.32992783 0.050704937 -0.4247207
厚 -0.013276731 -0.042522103 0.024466658 -0.05572709 -0.090464 -0.21157071 0.22312453 0.29106653 0.042560697 -0.16169472 0.052297737 0.108656116 -0.08450236 -0.047367673 -0.14510605 -0.04228187 0.22158432 0.100386195 -0.10686192 -0.11851929 0.04730305 -0.10142366 0.041517194 -0.012489585 0.010754896 0.12481805 -0.024459314 0.18832324 0.23083925 0.17697261 -0.2089417 -0.005673272 -0.09944999 -0.21854103 -0.09654726 -0.07132037 0.062279932 -0.079995066 -0.08002167 0.017727405 -0.19440717 0.0024494173 -0.08514369 -0.25169224 0.019902352 -0.05939339 -0.11157293 0.25882667 0.03602267 -0.34368992
用户 -0.0047451947 -0.06828834 0.03223714 -0.083456956 -0.13535921 -0.315775 0.31661394 0.4282264 0.07485553 -0.24757662 0.064303465 0.1621207 -0.120515026 -0.051980525 -0.20683469 -0.06461476 0.32788688 0.15711023 -0.15771835 -0.15810649 0.0748102 -0.13520727 0.068211794 -0.015429757 0.0121523 0.17984302 -0.039689157 0.28308123 0.31596544 0.26395923 -0.29456487 -0.008595689 -0.14906079 -0.31260464 -0.1456756 -0.118518315 0.083222486 -0.096469566 -0.103331976 0.016580123 -0.26761815 -0.0067721154 -0.113214135 -0.35307127 0.046634194 -0.09014436 -0.15658565 0.394473 0.0662358 -0.48447895
填写内容 -0.016080827 -0.028045332 0.0060963305 -0.035393044 -0.036816895 -0.10756056 0.11858034 0.14146966 0.033204924 -0.071729474 0.019344684 0.054659557 -0.050771043 -0.015183783 -0.088289954 -0.026998995 0.10344233 0.06153082 -0.065231174 -0.06371688 0.024143161 -0.047874805 0.017187605 -0.010168767 0.005481567 0.057218164 -0.019571202 0.10740405 0.114956245 0.083922334 -0.096361816 0.0023873232 -0.045327663 -0.10587813 -0.041007653 -0.03147218 0.01495811 -0.047933042 -0.03336239 -0.0035208273 -0.10180275 -0.008466095 -0.050430115 -0.11326052 0.023212235 -0.022056429 -0.05499938 0.14078839 0.010655284 -0.16567855
推荐 -0.014382465 -0.0558807 0.016815428 -0.057426553 -0.07922868 -0.22435623 0.22008456 0.30927834 0.05686724 -0.16925545 0.058885355 0.09693056 -0.10008961 -0.040810164 -0.146344 -0.04082824 0.24071075 0.09634411 -0.10248336 -0.122967675 0.045211338 -0.10435467 0.049652554 -0.010686727 -0.0053271204 0.123473145 -0.043328207 0.1917522 0.22851022 0.17243473 -0.20873284 0.010226564 -0.10754033 -0.21445805 -0.09577276 -0.083660245 0.048565306 -0.07473947 -0.07915261 0.011385769 -0.18633147 -0.0006588291 -0.07547619 -0.25617838 0.024130011 -0.055428736 -0.1253327 0.2663372 0.04594013 -0.33699995
太慢 -0.015806315 -0.04468807 0.023041664 -0.056169815 -0.06734779 -0.17216985 0.19079852 0.25641957 0.049504243 -0.13117415 0.047062375 0.08196254 -0.08461971 -0.034174517 -0.12912035 -0.044719767 0.19773225 0.07919365 -0.09549606 -0.10129495 0.041453153 -0.086634174 0.037297294 0.0022931618 0.0064885006 0.10749475 -0.03540977 0.15652461 0.19606772 0.1448105 -0.16687474 0.01068661 -0.08556116 -0.1859295 -0.08765342 -0.06598354 0.042487763 -0.058610193 -0.06799111 0.0029724191 -0.1702979 0.003373307 -0.06571874 -0.21088412 0.012564 -0.05559046 -0.08673783 0.2260796 0.0293201 -0.2856413
条 -0.010732378 -0.049837023 0.02216185 -0.06258034 -0.08003451 -0.20175081 0.21786965 0.2963252 0.05361524 -0.16774456 0.058848087 0.09567917 -0.09347142 -0.033151332 -0.15885216 -0.048738983 0.22257341 0.108067624 -0.10045466 -0.10971798 0.0582326 -0.09008642 0.04464681 -0.004600482 0.008249409 0.1304501 -0.029878808 0.1865797 0.22006759 0.18267451 -0.20306727 0.010346998 -0.105498835 -0.2077027 -0.08424477 -0.08051819 0.055221215 -0.08139389 -0.070615396 0.0046909694 -0.19546701 0.00047507242 -0.08142665 -0.24149378 0.020612027 -0.05226483 -0.11893593 0.26733637 0.043901164 -0.33961168
建议 -0.009606831 -0.089627266 0.047433868 -0.100361034 -0.15134788 -0.37629858 0.39286467 0.5479725 0.096154384 -0.29429966 0.088046044 0.19116402 -0.15799597 -0.07149597 -0.27476326 -0.07083274 0.41319433 0.18751603 -0.2013723 -0.1953695 0.08797643 -0.18106939 0.09705804 -0.009741206 0.0019784018 0.22417949 -0.052094504 0.3423065 0.41395745 0.3200539 -0.36080328 -0.0025369828 -0.20264448 -0.37330207 -0.159129 -0.14733408 0.08623286 -0.14267582 -0.1274838 0.020606894 -0.3388289 -0.0066334466 -0.1415349 -0.43729421 0.02993197 -0.11064671 -0.20066504 0.48577395 0.07604112 -0.59814566
这家 -0.0065275 -0.048072632 0.02426036 -0.07331389 -0.093765914 -0.24226394 0.23788662 0.3558829 0.054395318 -0.19707337 0.04818134 0.12170792 -0.096002944 -0.054967724 -0.18333988 -0.054579563 0.26687548 0.11516946 -0.13112992 -0.14001983 0.05465349 -0.122022204 0.06743554 -0.019469818 0.0066468646 0.14871703 -0.029862212 0.21649632 0.2651939 0.2003763 -0.22274157 0.0061557875 -0.12376483 -0.24105626 -0.110780366 -0.083906 0.05106806 -0.09952667 -0.09578107 0.006985546 -0.22286868 -0.0121121695 -0.088251494 -0.27777547 0.020166555 -0.06694959 -0.13832329 0.3164061 0.057064023 -0.3951108
送 -0.010736531 -0.05706374 0.035555158 -0.074177735 -0.10187201 -0.23779605 0.2565685 0.35506558 0.06493164 -0.18818249 0.060011763 0.125387 -0.115710445 -0.057851445 -0.17482924 -0.05821097 0.27289024 0.114131235 -0.12770587 -0.13397785 0.061579242 -0.11644637 0.05803753 -0.01724133 0.011485629 0.15812503 -0.034952108 0.2305622 0.26322255 0.210263 -0.22491595 -0.00057085435 -0.13524558 -0.25273633 -0.109942295 -0.099941485 0.064710125 -0.083569765 -0.0796081 0.011768657 -0.22429618 -0.010862534 -0.09211989 -0.28968483 0.024248084 -0.06500309 -0.14143097 0.30390772 0.046625294 -0.38261196
宝贝 -0.013573482 -0.07219002 0.04081585 -0.098331355 -0.13438141 -0.32707354 0.3287638 0.46554494 0.066975884 -0.25226277 0.077997066 0.15557444 -0.13978 -0.07706869 -0.24808471 -0.065906934 0.36252946 0.16524987 -0.17317642 -0.17480561 0.08462105 -0.14790665 0.07599242 -0.024123047 0.0036927548 0.19240804 -0.051769726 0.29643974 0.34924832 0.27447423 -0.3108694 -0.0049999007 -0.1621463 -0.3263158 -0.15479119 -0.1270607 0.07445287 -0.13051744 -0.12693806 0.022475379 -0.3056359 -0.0029280174 -0.13151929 -0.382477 0.025793163 -0.09846247 -0.18734588 0.42452553 0.059487354 -0.52171373
真 -0.012932998 -0.05855513 0.027636455 -0.051344663 -0.09245496 -0.224258 0.22300616 0.3080187 0.03952449 -0.17396389 0.056822293 0.102821745 -0.101834096 -0.045486074 -0.15485984 -0.04544669 0.23278517 0.1087427 -0.10180023 -0.11749318 0.05204071 -0.103157826 0.059545383 -0.012566609 0.0064831707 0.13456117 -0.025993483 0.19242819 0.23760109 0.18976471 -0.21472616 -0.0037575641 -0.10998819 -0.21499057 -0.10076763 -0.08722077 0.044273596 -0.08564889 -0.07715834 0.017021963 -0.1968495 -0.013912355 -0.08813404 -0.24922082 0.02218811 -0.053598136 -0.12116819 0.2701713 0.03333446 -0.33285692
不想 -0.0138076125 -0.065209225 0.025789734 -0.07958855 -0.1188086 -0.28661022 0.29614028 0.4084742 0.06417388 -0.2203473 0.056933843 0.14391874 -0.11642817 -0.05565954 -0.21016109 -0.058945376 0.30047116 0.13676552 -0.1458101 -0.1524868 0.061358266 -0.12836668 0.06716056 -0.005868156 -0.007178704 0.1655276 -0.039738007 0.26780683 0.30079073 0.2438607 -0.26290655 -0.00346926 -0.15207523 -0.28730455 -0.13027598 -0.100591086 0.06608015 -0.099708885 -0.10323063 0.01625504 -0.25226665 0.0018127905 -0.10593389 -0.3201874 0.02809277 -0.08133843 -0.15038145 0.35752144 0.05513484 -0.45752653
试穿 -0.018678516 -0.06724444 0.041342374 -0.06905087 -0.11160702 -0.28931203 0.28121668 0.409116 0.071031645 -0.22254877 0.07570012 0.14605717 -0.13199852 -0.059873387 -0.2036088 -0.054798443 0.3145368 0.14200552 -0.14374983 -0.16103093 0.07437245 -0.12892148 0.0642897 -0.022812292 -0.0023299085 0.17362027 -0.04836342 0.26298907 0.29821306 0.2316296 -0.26180306 0.013445621 -0.15085025 -0.2868326 -0.11909456 -0.09892965 0.062203668 -0.10863106 -0.1035083 0.008535603 -0.25498986 0.0038253418 -0.11308566 -0.3358064 0.027161371 -0.076762475 -0.14932072 0.36168626 0.05528176 -0.4530154
裤腿 -0.021448914 -0.06166441 0.026331058 -0.07589789 -0.117819436 -0.2877401 0.2983337 0.4195573 0.06039288 -0.23644862 0.062976904 0.1497596 -0.13218993 -0.050669212 -0.20500858 -0.052959435 0.31688645 0.14122798 -0.15664206 -0.15010312 0.06437241 -0.14413716 0.07538352 -0.011966842 0.0046449485 0.18115842 -0.04906738 0.2694137 0.30280447 0.23738886 -0.28409082 0.012218786 -0.14267853 -0.29054186 -0.12393095 -0.11032639 0.07471292 -0.116038516 -0.09564132 0.01676493 -0.27218518 -0.00094273355 -0.10150757 -0.3396111 0.024962204 -0.074254334 -0.15778668 0.36409858 0.058712553 -0.46880928
第二次 -0.012998776 -0.028650966 0.019683264 -0.04455553 -0.05602647 -0.14851587 0.16630612 0.21197407 0.039031338 -0.11517296 0.02825142 0.066023014 -0.06604808 -0.023718774 -0.11792346 -0.032190565 0.17354895 0.082788825 -0.07658595 -0.08014514 0.044374675 -0.07287699 0.03949554 -0.0022096075 0.0070405523 0.09021871 -0.028266763 0.14992473 0.16300589 0.122360766 -0.15037063 0.008454179 -0.085810505 -0.16697012 -0.075291194 -0.06401605 0.04549161 -0.058038708 -0.04838399 0.0040273643 -0.13887808 0.000814778 -0.059164032 -0.18265349 0.010015287 -0.041062865 -0.08080654 0.20171261 0.03352338 -0.24112725
系统 -0.001197539 -0.06314753 0.049481414 -0.08392058 -0.13940762 -0.32917953 0.34071627 0.47249454 0.08191188 -0.25073507 0.0830989 0.16327804 -0.1388131 -0.07004792 -0.2324073 -0.08090892 0.34843174 0.15522937 -0.18492685 -0.16710761 0.07814563 -0.15325181 0.07853956 -0.015438217 0.012706986 0.1871681 -0.052347366 0.29935515 0.36218348 0.275734 -0.30138287 0.0013605545 -0.17107213 -0.3321762 -0.14941527 -0.1301128 0.07806862 -0.11820494 -0.119555324 0.017231455 -0.31049168 -0.01841918 -0.13125819 -0.38099778 0.032896277 -0.08303645 -0.169178 0.4279575 0.067911886 -0.51663685
还会 -0.0003064106 -0.050067134 0.021551438 -0.054058716 -0.10286782 -0.24116135 0.24090113 0.3361062 0.057694633 -0.17463592 0.047955766 0.11119557 -0.093512625 -0.04798291 -0.1559259 -0.045822117 0.25544563 0.119502276 -0.11889788 -0.11829683 0.056444574 -0.112192094 0.06440522 -0.016087523 -0.008911216 0.1408896 -0.041675605 0.20699911 0.23821953 0.19368242 -0.21998857 0.011000331 -0.12211225 -0.24011888 -0.09194047 -0.09551855 0.06330804 -0.080616266 -0.08944788 0.019243337 -0.20122103 0.005655248 -0.081036486 -0.27058995 0.02148734 -0.06335859 -0.127605 0.28475216 0.037204437 -0.36770126
30 -0.020122582 -0.091891505 0.043375492 -0.090186656 -0.14193732 -0.35263264 0.3572311 0.50527525 0.09115753 -0.2839563 0.07376415 0.18188632 -0.16289501 -0.068246305 -0.25454757 -0.062146053 0.38049892 0.16660358 -0.17779912 -0.19821155 0.07831057 -0.15875356 0.08159491 -0.012376549 0.008890514 0.20769058 -0.06010431 0.3216409 0.38963684 0.30209598 -0.33060437 -0.001958868 -0.1932379 -0.3673341 -0.16104937 -0.13498963 0.08078558 -0.13168524 -0.12348629 0.022406407 -0.33304626 -3.186785e-05 -0.13205405 -0.4224863 0.036251955 -0.09499939 -0.20240374 0.45992938 0.07852931 -0.57600456
退货 -0.0073814956 -0.0709479 0.032811396 -0.07433199 -0.12570122 -0.30786917 0.29920295 0.42014456 0.07127085 -0.2292013 0.06805896 0.14770702 -0.13788183 -0.069681 -0.22241756 -0.0633798 0.3293595 0.1460362 -0.15397815 -0.16205482 0.068019025 -0.14991874 0.066961825 -0.0055568353 0.006580133 0.18065329 -0.045857538 0.28307238 0.33083078 0.25812128 -0.29324207 0.0033028265 -0.15657529 -0.29823768 -0.12709825 -0.110315606 0.079421245 -0.11767713 -0.10627957 0.016254202 -0.26644766 0.0040779784 -0.10639807 -0.3569859 0.023592042 -0.074749865 -0.15200359 0.37837082 0.06320107 -0.47729328
掉 -0.012074237 -0.052656934 0.030068943 -0.059413727 -0.08283573 -0.22096418 0.22569652 0.30245814 0.058134522 -0.18126406 0.059207816 0.11223592 -0.08470193 -0.04065521 -0.15565377 -0.05310592 0.23663396 0.10106266 -0.11121438 -0.12616128 0.046641678 -0.09696513 0.060499076 -0.007133542 -0.0032064046 0.12360785 -0.042988323 0.19431444 0.24267493 0.19407211 -0.20366324 0.012088198 -0.103508055 -0.2284056 -0.090435155 -0.08126114 0.049229912 -0.08535181 -0.0693101 0.015136413 -0.19911738 0.00212354 -0.07481414 -0.2587879 0.031772204 -0.06755965 -0.11277897 0.2757489 0.03648548 -0.34674734
一码 -0.015450578 -0.06939352 0.02764209 -0.08878423 -0.13718003 -0.3295276 0.32439664 0.44431826 0.072568096 -0.24532542 0.07130554 0.15770848 -0.13412315 -0.06862 -0.2236066 -0.053339083 0.33244863 0.16132258 -0.15433784 -0.16771874 0.07244704 -0.15555583 0.06939605 -0.010200426 0.010500133 0.18856974 -0.05005859 0.3009581 0.3326307 0.2588161 -0.30005366 0.0012022337 -0.15436438 -0.32079053 -0.14643803 -0.123006545 0.07924331 -0.11495646 -0.12162041 0.023624115 -0.29164305 -0.013725724 -0.123244785 -0.37668788 0.03837053 -0.07967353 -0.17911741 0.39930135 0.058753226 -0.5119344
支持 -0.008785958 -0.038145404 0.02003064 -0.057535194 -0.06580703 -0.16716592 0.16905598 0.25142094 0.045918483 -0.14560437 0.045585323 0.07835591 -0.071367 -0.031202707 -0.12306058 -0.041606706 0.19117084 0.092579946 -0.08243645 -0.10242231 0.04970899 -0.08109823 0.033302914 -0.00233693 0.011359846 0.11598384 -0.02987909 0.15225235 0.18930373 0.13776965 -0.17168814 0.011957707 -0.07988785 -0.17760661 -0.07549563 -0.068555705 0.03572636 -0.059939247 -0.06330376 -0.0003313049 -0.1476219 0.0022357253 -0.063763216 -0.19998182 0.019615833 -0.05238226 -0.08493868 0.21883303 0.027497083 -0.28173488
摸 -0.014180017 -0.043901984 0.031175021 -0.0520285 -0.07637826 -0.20190234 0.18309121 0.2653336 0.052717537 -0.14152493 0.036190376 0.09983722 -0.08987219 -0.02879057 -0.14161731 -0.032785688 0.1969756 0.08826729 -0.09568898 -0.110088274 0.039726354 -0.08492445 0.044102672 -0.012343192 -0.007813177 0.11699615 -0.027319096 0.18365622 0.20724915 0.15540162 -0.17338146 -0.007257566 -0.10530141 -0.19096608 -0.09114497 -0.07262608 0.041834537 -0.07994141 -0.05876543 0.006983364 -0.17394607 -0.0057398314 -0.06687976 -0.22612038 0.0095587885 -0.05072028 -0.11027875 0.23216172 0.038696997 -0.30745575
适合 -0.0030689721 -0.035291865 0.017917506 -0.055027626 -0.08401798 -0.19226459 0.18815686 0.25920257 0.040099636 -0.15302007 0.0403446 0.0953918 -0.08749329 -0.035403784 -0.1291501 -0.029779911 0.21275245 0.08986715 -0.08634453 -0.09395627 0.035407573 -0.08877424 0.03794125 -0.0024987157 -0.006057641 0.109291345 -0.039039057 0.16736725 0.2088091 0.16235054 -0.18028115 0.0050866925 -0.09253265 -0.18848631 -0.08244691 -0.06837355 0.04946567 -0.064723104 -0.06959779 0.0017636312 -0.16290395 -0.006294205 -0.07628205 -0.21424526 0.022796221 -0.0484738 -0.09706068 0.23466758 0.029251924 -0.30279118
深蓝 -0.011618189 -0.073289156 0.0292833 -0.09144221 -0.1362386 -0.30550978 0.31797424 0.44119737 0.07901385 -0.25253484 0.06769211 0.16211899 -0.13846524 -0.065542474 -0.22640513 -0.06428141 0.33426595 0.15578975 -0.15078256 -0.17093766 0.06924499 -0.14396651 0.08200183 -0.01614072 0.0035984053 0.19264089 -0.04632292 0.290073 0.3242011 0.26683307 -0.29429528 0.0063267644 -0.16326435 -0.3187575 -0.13924931 -0.113784626 0.0728188 -0.106463425 -0.118945114 0.015028885 -0.2728208 -0.01350957 -0.10866342 -0.35112423 0.026630621 -0.084981896 -0.1722825 0.39749917 0.05773365 -0.5005314
差距 -0.010549417 -0.037428647 0.016066948 -0.041757926 -0.061554417 -0.15431388 0.15743804 0.21797657 0.03529751 -0.123192556 0.045142546 0.076752745 -0.07458716 -0.040893145 -0.10511879 -0.035098143 0.17234722 0.07717133 -0.08553069 -0.07426397 0.03207011 -0.07511139 0.036744192 0.0015747894 0.010463339 0.09124729 -0.023146272 0.13341491 0.16394207 0.13197742 -0.14919932 0.0046886667 -0.07455048 -0.15255937 -0.059751183 -0.057401568 0.03587226 -0.04904122 -0.049489424 0.01718953 -0.13678652 -0.0076760724 -0.057847485 -0.1791182 0.010419161 -0.03876702 -0.09081104 0.18627255 0.021448249 -0.24745981
问 -0.00957253 -0.099156916 0.05242164 -0.11150004 -0.1634549 -0.40939376 0.4152022 0.5803677 0.10110601 -0.31486478 0.09721171 0.1903467 -0.17523722 -0.08824564 -0.29051983 -0.08906604 0.43977892 0.19447623 -0.2135276 -0.2213534 0.095116995 -0.1971447 0.105219945 -0.013045528 0.011180742 0.25512755 -0.062115997 0.37803474 0.43129566 0.34667587 -0.38043076 0.008696303 -0.21525852 -0.403786 -0.17717195 -0.15546659 0.10777302 -0.15741824 -0.1489462 0.01167386 -0.36118162 -0.0023554738 -0.15892245 -0.48139358 0.050616127 -0.112990476 -0.2140683 0.5200932 0.07708772 -0.6473505
填写 -0.012554885 -0.06912243 0.046836596 -0.08612189 -0.14246078 -0.37280142 0.3555984 0.51789653 0.09395958 -0.2916828 0.08003271 0.17195013 -0.14881986 -0.08060971 -0.25052017 -0.08542375 0.38812378 0.18394557 -0.1998704 -0.17935771 0.08321188 -0.166888 0.09277667 -0.026239801 0.018881852 0.21382272 -0.05010918 0.324832 0.3964902 0.30561012 -0.34802452 -0.008258541 -0.18016295 -0.35032496 -0.16905037 -0.12878795 0.09172552 -0.1194541 -0.14025575 0.024513138 -0.32918006 -0.016354615 -0.14556456 -0.42588523 0.044976078 -0.10791878 -0.193172 0.46584526 0.07726424 -0.56506574
内容 -0.0044462965 -0.075832725 0.0480702 -0.089965984 -0.14520559 -0.33640808 0.3470563 0.48313788 0.075818084 -0.2615252 0.07624201 0.17646728 -0.14162928 -0.06658755 -0.23744579 -0.07031947 0.36912343 0.15737385 -0.18308993 -0.17102668 0.073540606 -0.14521733 0.08160466 -0.017232114 0.007482335 0.19429237 -0.05146271 0.31009084 0.36125353 0.286321 -0.31749564 0.010030262 -0.17161801 -0.34404957 -0.1457099 -0.13275348 0.09066839 -0.11487635 -0.1297475 0.0051640132 -0.3123981 -0.006740834 -0.13506411 -0.38177142 0.05120736 -0.083932005 -0.17553458 0.42526504 0.058429386 -0.5417157
描述 -0.016476994 -0.04603609 0.02155398 -0.057499714 -0.07577176 -0.1957771 0.2020872 0.28967488 0.0366255 -0.15181337 0.039230242 0.09667625 -0.09116145 -0.048281316 -0.14497294 -0.048322503 0.21721464 0.090545714 -0.1086515 -0.105300024 0.041939333 -0.10123213 0.044032436 -0.006175109 -0.004546689 0.12269392 -0.025636809 0.18695548 0.21489179 0.16777769 -0.18716522 0.008426794 -0.10867177 -0.19633064 -0.07904119 -0.06833341 0.043455344 -0.0743987 -0.06292856 0.0183912 -0.17067271 -0.011803565 -0.08453776 -0.22503869 0.018063055 -0.04607177 -0.10640703 0.26044306 0.03207 -0.30829293
款 -0.017874273 -0.07326712 0.032916293 -0.09030392 -0.12908547 -0.33520743 0.34054643 0.4670511 0.076900095 -0.26651284 0.0829799 0.16178152 -0.1407698 -0.059152167 -0.23746717 -0.058848795 0.3592489 0.17247202 -0.16698433 -0.18115336 0.08439996 -0.14419903 0.077327706 -0.015678199 -0.00063754636 0.20828445 -0.055377085 0.30710593 0.35356766 0.28188476 -0.32250893 -0.0037409824 -0.17073414 -0.32185125 -0.14732528 -0.11138751 0.08766075 -0.12674865 -0.11898888 0.010077107 -0.30245593 -0.009181771 -0.11512875 -0.38709885 0.034862567 -0.0963975 -0.1819926 0.40741587 0.07308025 -0.52653134
高 -0.0034445622 -0.057366163 0.03134416 -0.085520536 -0.105053894 -0.27818245 0.27874875 0.3924003 0.058101896 -0.22301723 0.05937744 0.135735 -0.12079262 -0.050165318 -0.20596568 -0.060131423 0.29565397 0.13021448 -0.14596634 -0.15591075 0.074655 -0.12905996 0.067514874 -0.021725208 0.0051439498 0.17522296 -0.046556994 0.25257787 0.28251883 0.22233248 -0.25406405 0.004669701 -0.14172442 -0.28517 -0.11395317 -0.108821906 0.059072435 -0.09573911 -0.09711518 0.010418977 -0.24290234 0.0046020336 -0.09832933 -0.30685565 0.023533473 -0.0746508 -0.1488401 0.33742777 0.048898194 -0.4261086
物美价廉 -0.010609855 -0.034034315 0.00851439 -0.03527093 -0.064537816 -0.14285447 0.14062773 0.19757482 0.021726687 -0.1159651 0.03662673 0.078029335 -0.07014952 -0.032390915 -0.09814997 -0.035524487 0.15560606 0.06960609 -0.0676117 -0.07728977 0.04016133 -0.055665463 0.040760867 -0.0074338247 -0.0040772995 0.079311885 -0.011989735 0.12519602 0.14425957 0.114023544 -0.12727758 -0.0034851697 -0.06636009 -0.14515911 -0.061341997 -0.060763907 0.02474989 -0.058081795 -0.051499397 0.009434035 -0.13261817 -0.007964217 -0.05956167 -0.15406911 0.014601398 -0.048207078 -0.072199166 0.16718626 0.024922924 -0.22329791
赞 -0.00396956 -0.021942588 0.0066195833 -0.031702105 -0.041525792 -0.10609789 0.10827812 0.15602067 0.019990377 -0.08969898 0.026610354 0.058810253 -0.05338293 -0.028814415 -0.07245127 -0.026510345 0.111392155 0.054781426 -0.052278064 -0.053527504 0.022106098 -0.06079339 0.030424012 -0.0061876588 0.0014962507 0.06692699 -0.017350983 0.10708517 0.1270927 0.098783284 -0.099319294 0.0014510195 -0.04776004 -0.121229485 -0.052760642 -0.038151886 0.019111665 -0.047353875 -0.037245207 0.0018459742 -0.09683814 -0.0017532904 -0.040482868 -0.12301461 0.020000037 -0.034840573 -0.06940407 0.14245321 0.015375595 -0.18134065
几次 -0.015063835 -0.05135485 0.015739704 -0.061756797 -0.07190648 -0.19412322 0.18287523 0.27242598 0.0381127 -0.14446025 0.04532536 0.08665616 -0.08690468 -0.030565979 -0.13274996 -0.044592094 0.19582954 0.091227666 -0.097087294 -0.09274819 0.039494626 -0.09237351 0.051893614 -0.015406341 0.0072568664 0.11023918 -0.032990355 0.18027598 0.1993705 0.16580556 -0.18391314 -0.006034943 -0.09750917 -0.19574638 -0.082754165 -0.06752338 0.053257637 -0.078766756 -0.074808165 0.002285193 -0.16253638 -0.009541792 -0.07421217 -0.22448026 0.028780166 -0.042868633 -0.09541815 0.2437676 0.04683287 -0.30161268
中 0.0014738784 -0.042947 0.016170861 -0.0613993 -0.07460141 -0.21606284 0.20084411 0.28857702 0.04558568 -0.15133041 0.045066446 0.09710517 -0.08736022 -0.03070061 -0.14467773 -0.03591294 0.21089941 0.09720747 -0.10219 -0.104349785 0.04152105 -0.09089246 0.040757302 -0.0065927976 0.0047480697 0.12767301 -0.031803828 0.1780466 0.20725706 0.17214972 -0.19992939 -0.006236624 -0.09883704 -0.21052249 -0.089935444 -0.08399859 0.044254933 -0.069730386 -0.07982002 -0.00017791272 -0.18625022 -0.0075755557 -0.080837406 -0.23325372 0.02576872 -0.05973866 -0.101191625 0.25491837 0.031785812 -0.31487358
卖 -0.013195186 -0.06324554 0.032342736 -0.07950655 -0.1296447 -0.29788232 0.30284792 0.42054188 0.057901654 -0.24048895 0.066017024 0.14482346 -0.12463757 -0.0615821 -0.21241239 -0.057125874 0.32732326 0.1519715 -0.14434293 -0.15606837 0.071407594 -0.13787577 0.07531484 -0.01467507 -0.007874421 0.19230598 -0.05402213 0.27822334 0.3168739 0.25623238 -0.28851753 0.014047308 -0.15958071 -0.29520136 -0.13654217 -0.118001856 0.06730425 -0.10430575 -0.11479772 0.023331717 -0.27497473 -0.0026254323 -0.12013318 -0.36030158 0.03523345 -0.08147417 -0.15348898 0.38606027 0.064147346 -0.47148594
照片 0.0015453337 -0.038645387 0.019520054 -0.053948198 -0.08743609 -0.20083685 0.18710643 0.26992208 0.050612193 -0.14840057 0.045676358 0.086008415 -0.0780045 -0.04530877 -0.14513291 -0.04647112 0.21299343 0.09371691 -0.0913383 -0.093926765 0.04728877 -0.086910464 0.053862017 -0.016164027 -0.0030622357 0.12569954 -0.021342866 0.17768982 0.21583956 0.17386597 -0.18749237 0.0036573973 -0.104618475 -0.20327245 -0.082066454 -0.06882351 0.053886928 -0.0760752 -0.07761103 0.0072121406 -0.18521562 -0.0110878255 -0.07683324 -0.23376386 0.015208861 -0.050725736 -0.112425305 0.24785739 0.04440355 -0.3070452
卖家 -0.0020204752 -0.07426979 0.025054626 -0.085483655 -0.11023475 -0.29013875 0.28971067 0.4090827 0.05373473 -0.21960546 0.06823926 0.14198193 -0.1302055 -0.05362965 -0.19608156 -0.06477492 0.29569757 0.1396659 -0.15185724 -0.1579934 0.075571 -0.12267946 0.058836706 -0.0067189047 0.008619854 0.16838288 -0.035162225 0.25141165 0.3105418 0.2347393 -0.2738793 0.013298075 -0.13819991 -0.28328186 -0.11313444 -0.10117673 0.066141516 -0.10360489 -0.094621375 0.010850185 -0.2645769 -0.0001365317 -0.10087096 -0.32042766 0.03065869 -0.069313824 -0.14701328 0.35266444 0.053202916 -0.44703138
希望 -0.0032638458 -0.07579277 0.026135048 -0.07561378 -0.117871486 -0.2880311 0.30297148 0.42110822 0.06811112 -0.22780295 0.07197438 0.13812187 -0.119356886 -0.06976271 -0.2010911 -0.057563934 0.32108006 0.14138088 -0.154296 -0.15860114 0.06906932 -0.13625796 0.067845374 -0.014655599 -8.973457e-05 0.17686138 -0.050008737 0.26872274 0.3209879 0.2445995 -0.27194023 -0.00536717 -0.1443051 -0.2930829 -0.13553907 -0.11107156 0.069204554 -0.1150413 -0.105534494 0.014176702 -0.2649611 -0.009544667 -0.10247058 -0.3321486 0.02644058 -0.07697585 -0.1654093 0.38124597 0.06066971 -0.4609541
找 -0.015513239 -0.094557755 0.045375086 -0.11100342 -0.16627555 -0.4099532 0.39902672 0.5545624 0.08075267 -0.31595483 0.0975506 0.18849593 -0.16813174 -0.0860707 -0.28474274 -0.083633326 0.42127243 0.19102547 -0.20535174 -0.21560219 0.09115717 -0.18344975 0.0930521 -0.024464577 0.01363818 0.25064456 -0.055596087 0.36501753 0.42209184 0.3389123 -0.3718683 -0.0020120458 -0.19622704 -0.39193773 -0.18036586 -0.15705203 0.10089205 -0.15045072 -0.14401752 0.018112801 -0.37046665 -0.0118448045 -0.15530683 -0.46987253 0.04288543 -0.11613412 -0.20450144 0.5096808 0.08544275 -0.6235673
失望 -0.008868269 -0.049073357 0.024640065 -0.054521214 -0.07433026 -0.17988025 0.1848991 0.2595087 0.035260517 -0.1486664 0.03667975 0.08604829 -0.08968728 -0.031745322 -0.14000374 -0.041635085 0.19622369 0.09093883 -0.089653656 -0.10891179 0.04958381 -0.08014164 0.054572087 -0.012414915 -0.0016799853 0.12014114 -0.023213655 0.18026112 0.19835927 0.15565784 -0.18424734 -0.007178293 -0.10275011 -0.1904263 -0.090424865 -0.062327143 0.038082413 -0.06007322 -0.07282866 0.018031148 -0.16421811 0.0008150083 -0.06219302 -0.2104816 0.009806815 -0.05893486 -0.11044989 0.23564121 0.040871408 -0.30138403
超级 -0.01586476 -0.05812154 0.020513168 -0.07781448 -0.108399436 -0.26255548 0.2588106 0.36706632 0.061876964 -0.20698617 0.057572216 0.117716655 -0.09978181 -0.06097126 -0.19135974 -0.052103173 0.27212894 0.12334306 -0.13326676 -0.14487645 0.0666673 -0.12325769 0.059050918 -0.01746029 -0.0033195156 0.14576581 -0.045274798 0.22656527 0.26999274 0.22191389 -0.24711148 0.006947809 -0.12267086 -0.26261628 -0.11360023 -0.087887764 0.07118999 -0.08824639 -0.09768757 0.022416752 -0.22298937 0.0030279167 -0.103352696 -0.2896233 0.025058785 -0.0669189 -0.13147527 0.32061934 0.053725317 -0.40176833
挺不错 -0.0072372723 -0.029127777 0.021157416 -0.037110537 -0.070726946 -0.16087374 0.16818757 0.2153911 0.037153736 -0.12546015 0.04367125 0.08495851 -0.058542874 -0.022696638 -0.10368928 -0.035583857 0.16114073 0.069480315 -0.0866487 -0.0891368 0.03749882 -0.07842344 0.039917443 -0.012424768 -0.0035087971 0.0869992 -0.03259557 0.13882707 0.16202258 0.13561179 -0.1497974 -0.0057005263 -0.07645093 -0.15944402 -0.0593057 -0.04867429 0.048249573 -0.06534791 -0.06361682 0.0034214137 -0.1528602 0.0021968542 -0.052573964 -0.17936769 0.013331047 -0.04530568 -0.08964905 0.20456064 0.025792627 -0.2519249
薄 -0.015211842 -0.036853533 0.022516 -0.040426742 -0.07990473 -0.16753672 0.16532543 0.23565698 0.038690545 -0.1412297 0.04622793 0.085234255 -0.0758012 -0.04423954 -0.11335868 -0.030663118 0.1844105 0.08570283 -0.08870101 -0.091912225 0.043117553 -0.07309802 0.038412403 -0.014355927 0.00034661256 0.09436647 -0.01572794 0.16417347 0.17596547 0.13910532 -0.17046008 -0.0072311307 -0.088122874 -0.17735274 -0.0832129 -0.06164387 0.033936292 -0.055096097 -0.06619962 0.000112284804 -0.15596983 -0.010708381 -0.07232479 -0.20757528 0.02047076 -0.050649438 -0.085982114 0.21350461 0.034226686 -0.27212146
回复 -0.010471269 -0.07287657 0.0474318 -0.0812859 -0.13415125 -0.3158835 0.32220006 0.46242392 0.07893949 -0.25173974 0.076517425 0.16552407 -0.13373888 -0.060632486 -0.23716572 -0.060020693 0.33565393 0.15983813 -0.16709737 -0.17787398 0.068236604 -0.14921963 0.08171771 -0.022727905 -0.0029580484 0.19837315 -0.058348384 0.30189118 0.34962085 0.26940575 -0.30645466 -0.0048355614 -0.1732887 -0.3285424 -0.13237534 -0.12585437 0.08761372 -0.11234334 -0.12514947 0.018393796 -0.2940306 -0.003953047 -0.11612708 -0.38222432 0.041867092 -0.08708404 -0.18119963 0.40043724 0.06571843 -0.51636046
钱 -0.015682707 -0.07010622 0.025803974 -0.07466137 -0.114384465 -0.2933541 0.2923915 0.4042901 0.059939016 -0.22186479 0.072290815 0.14314052 -0.114956565 -0.05940165 -0.19532411 -0.056264095 0.31584582 0.13517103 -0.13982642 -0.14312474 0.05732948 -0.12377503 0.060481794 -0.019383986 0.0020877859 0.17205717 -0.037912264 0.2626332 0.3086521 0.24665576 -0.26112872 -0.0004084202 -0.15233332 -0.29417157 -0.118844725 -0.096531846 0.08020426 -0.10369224 -0.10597534 0.014247199 -0.26226228 -0.0012412238 -0.09861846 -0.32453063 0.03713505 -0.084554516 -0.15313181 0.35931766 0.049252655 -0.44187263
灰 -0.01997013 -0.059909053 0.03573282 -0.07646726 -0.117895186 -0.30145 0.30118337 0.4218517 0.06391086 -0.22096092 0.072809346 0.15169385 -0.12921773 -0.06694953 -0.220871 -0.0658919 0.3139354 0.1543061 -0.15820912 -0.15864661 0.059006345 -0.13215499 0.06960192 -0.013221892 -0.004452875 0.17324567 -0.051532105 0.27037972 0.31812668 0.24969502 -0.28283992 -0.0023910098 -0.15852368 -0.294594 -0.1255036 -0.10393099 0.07881372 -0.09927133 -0.11232561 0.010079439 -0.27318895 0.0031361978 -0.11903205 -0.34050563 0.020561341 -0.08306415 -0.15467747 0.37499484 0.059277486 -0.46110225
腿 -0.011321056 -0.032516398 0.018124197 -0.041038886 -0.052612737 -0.14764975 0.15319858 0.20196895 0.02672592 -0.11712071 0.0377837 0.0739067 -0.072375834 -0.037463374 -0.09788758 -0.019682169 0.15454715 0.070728734 -0.08088479 -0.072785474 0.031846065 -0.06828435 0.040084824 -0.004430084 0.006049895 0.09288568 -0.02347653 0.12648143 0.16029544 0.12202624 -0.13999791 -0.008279212 -0.07891968 -0.15261567 -0.071100324 -0.047200773 0.041143637 -0.050719038 -0.04976528 0.012482997 -0.141272 -0.0078153955 -0.048480522 -0.17491469 0.019059896 -0.037465557 -0.07952676 0.18459353 0.019425986 -0.22617467
确实 -0.015140049 -0.05642612 0.02516384 -0.058263782 -0.08042806 -0.22028285 0.21777044 0.30832225 0.04684086 -0.16269232 0.040106192 0.096872605 -0.10023567 -0.03765491 -0.15961963 -0.03642604 0.22960421 0.10709684 -0.101536386 -0.12142007 0.043314278 -0.09510536 0.052180227 -0.011434332 -0.0065313173 0.13108702 -0.041554786 0.19912148 0.23347051 0.17757538 -0.209723 -0.0035776137 -0.11751668 -0.2047034 -0.09489683 -0.07797736 0.042218115 -0.074320644 -0.07088359 0.019888692 -0.18680674 -0.007315434 -0.07533701 -0.23974144 0.03170585 -0.064554386 -0.121110514 0.2671802 0.042763695 -0.3430041
水 -0.0024327852 -0.05086436 0.032227755 -0.06884923 -0.09825222 -0.24852112 0.25980055 0.36645684 0.052918162 -0.20697817 0.06924233 0.11780642 -0.10773255 -0.045823693 -0.18477142 -0.055516582 0.26978764 0.1345327 -0.12514195 -0.12566046 0.0666857 -0.11716861 0.05817169 -0.013882405 -0.005285896 0.16216356 -0.033635497 0.22689521 0.264639 0.21698293 -0.23920617 0.012987857 -0.13587162 -0.2631837 -0.11490973 -0.0915539 0.07014536 -0.101537906 -0.08596011 0.008606622 -0.23889126 4.6363522e-05 -0.10377901 -0.29617766 0.0332214 -0.062010534 -0.139703 0.32744676 0.047290485 -0.40642285
店 -0.013890885 -0.043132517 0.03433975 -0.05877761 -0.08260542 -0.21094209 0.21740949 0.3052465 0.042808063 -0.16633804 0.043840516 0.10071205 -0.09718135 -0.04681404 -0.16264732 -0.045773026 0.23174177 0.112081446 -0.107632406 -0.12574248 0.059748486 -0.09847771 0.04334147 -0.0048551685 0.00029261335 0.1237058 -0.028477916 0.20488448 0.22299531 0.1775921 -0.20805345 0.0039368356 -0.12149435 -0.20867753 -0.09149207 -0.081948295 0.05601735 -0.07818889 -0.073048696 0.011463114 -0.20298891 0.0027357766 -0.091912255 -0.2455025 0.02390982 -0.049981035 -0.11455803 0.2804965 0.03321796 -0.34708366
气味 -0.017995253 -0.057929922 0.03092795 -0.057806894 -0.10301008 -0.22570027 0.23822589 0.3291488 0.051641684 -0.18534186 0.052449126 0.116044916 -0.09370564 -0.046263468 -0.16883527 -0.049995854 0.25615335 0.11639306 -0.1249995 -0.12715778 0.057470553 -0.11577573 0.062083524 -0.0155785605 -0.0002221626 0.14710133 -0.028169325 0.20388497 0.24811544 0.19506326 -0.21275951 0.00073691783 -0.12057426 -0.23345295 -0.09982594 -0.08343724 0.062545925 -0.07945393 -0.085503586 0.02108959 -0.20515126 -0.0078307735 -0.08835502 -0.27182364 0.019936582 -0.06503353 -0.11998194 0.2943383 0.05156136 -0.3561191
太厚 -0.013531105 -0.039629668 0.025891703 -0.043362025 -0.086311564 -0.19419798 0.20680383 0.2781452 0.044785436 -0.15902792 0.049577482 0.0991412 -0.07767889 -0.041798804 -0.15190654 -0.04633882 0.20663573 0.09769364 -0.09793162 -0.11247445 0.049938504 -0.09805598 0.04415948 -0.005167853 -0.0034052103 0.11865283 -0.01987454 0.17447807 0.22220032 0.17528667 -0.19783953 0.008660967 -0.10110716 -0.20192382 -0.079654254 -0.07721097 0.04115777 -0.08041104 -0.07374697 0.0015889615 -0.18202992 -9.636957e-05 -0.07516808 -0.24157912 0.017953299 -0.05637684 -0.113713495 0.25199533 0.031619832 -0.32260853
冬天 -0.017247822 -0.06459586 0.036490027 -0.069491945 -0.10200205 -0.27306926 0.2580268 0.37211978 0.063002795 -0.20789836 0.06617784 0.1370229 -0.10530626 -0.058592048 -0.18326719 -0.05305716 0.28342164 0.13719869 -0.13333124 -0.14913066 0.07106982 -0.12676609 0.06190892 -0.009175388 0.0036046202 0.15539336 -0.034029145 0.24899098 0.2899768 0.22753243 -0.2495686 -0.004061564 -0.14095758 -0.26587358 -0.12165518 -0.10215786 0.06349769 -0.10742869 -0.09038463 0.008274182 -0.24105433 -0.0025322535 -0.10764457 -0.30809137 0.0282835 -0.08332512 -0.140603 0.34538412 0.059362937 -0.41196397
a21 0.0016642461 -0.03875957 0.023729872 -0.06081849 -0.07327773 -0.20900662 0.1988868 0.29411638 0.04707741 -0.15708636 0.037225798 0.0928545 -0.08087968 -0.04721218 -0.14267144 -0.039197735 0.21807091 0.10009341 -0.101542845 -0.11588627 0.047892146 -0.098956816 0.04195934 -0.008650759 -0.007056185 0.1184619 -0.03624725 0.18564692 0.21162379 0.17191654 -0.19942093 0.009507852 -0.094547786 -0.20995131 -0.0808835 -0.07168399 0.052449506 -0.07870575 -0.06980262 0.0026634855 -0.18395007 -0.0027809225 -0.07542814 -0.22862823 0.028586386 -0.065653875 -0.11024371 0.24783008 0.03247737 -0.31197792
双十 0.0024009726 -0.0491595 0.023876244 -0.04814282 -0.09038725 -0.20737202 0.21265112 0.29618382 0.05350211 -0.16511627 0.055547643 0.11382183 -0.09270392 -0.042188507 -0.15032247 -0.036077037 0.22489853 0.10736894 -0.11450517 -0.11396667 0.048364297 -0.09686672 0.049089722 -0.017594146 0.004941789 0.12709244 -0.034888275 0.18876944 0.2211447 0.18133114 -0.20019037 -0.0065250183 -0.10197005 -0.21039695 -0.09547212 -0.07845452 0.061297715 -0.07751438 -0.07099953 0.010039683 -0.18166193 -0.006075438 -0.08479631 -0.24902192 0.019196978 -0.056627758 -0.11717714 0.2605386 0.050340522 -0.3267687
总体 -0.015120517 -0.04509474 0.015005413 -0.056927484 -0.09139495 -0.21651836 0.19843322 0.29000676 0.039721046 -0.168151 0.045960248 0.09559859 -0.09693875 -0.033509538 -0.1530709 -0.041063607 0.21217199 0.09544538 -0.11084263 -0.11450158 0.040156167 -0.09131958 0.057241175 -0.011508851 0.0047951024 0.11623347 -0.041336726 0.1949708 0.21323214 0.16638735 -0.19780135 -0.0008285974 -0.115010925 -0.2081779 -0.082601406 -0.06700195 0.04522088 -0.085926756 -0.067312256 0.013336276 -0.18872568 0.0038887446 -0.07967032 -0.24094196 0.018142728 -0.06104788 -0.107097454 0.26025 0.041917037 -0.3228577
试 -0.0060548587 -0.02797534 0.023640163 -0.04057247 -0.066575415 -0.15828365 0.16489145 0.23111352 0.033930145 -0.13002834 0.036410965 0.07711637 -0.07521165 -0.04275009 -0.12417241 -0.022182332 0.18114392 0.08326081 -0.073002204 -0.08932773 0.029993486 -0.07917667 0.04021482 -0.015587608 0.0020986428 0.103630014 -0.020636862 0.15131211 0.1674134 0.13515778 -0.15306316 0.00010847496 -0.0886343 -0.1529117 -0.06055454 -0.060617805 0.03785913 -0.05200301 -0.061597608 0.016495435 -0.1562752 -0.003380578 -0.06485712 -0.18211031 0.01594318 -0.03910802 -0.09522036 0.21214166 0.038953267 -0.2591273
完美 -0.003814594 -0.04568926 0.015600224 -0.051871073 -0.08495266 -0.18960585 0.20601942 0.27909255 0.042704694 -0.14504468 0.03564341 0.105502084 -0.08648697 -0.03774368 -0.13295749 -0.03744425 0.2034951 0.09367344 -0.096494704 -0.097882755 0.050407752 -0.09493752 0.043563105 -0.015209111 0.0049495134 0.12510914 -0.034909572 0.1694329 0.21636203 0.16560654 -0.17511283 0.0027146058 -0.092317544 -0.19042219 -0.08695399 -0.07206932 0.05458151 -0.06487283 -0.06199706 0.005912991 -0.17633913 -0.010517721 -0.0683498 -0.22533356 0.029635394 -0.056189105 -0.09999945 0.24161421 0.030055009 -0.3173525
只能 -0.014843629 -0.055858444 0.028216843 -0.069816776 -0.12149665 -0.27504683 0.27991349 0.37287357 0.064860985 -0.21781665 0.06421336 0.13815632 -0.11577905 -0.06253247 -0.19850941 -0.05296325 0.29898942 0.13539204 -0.13110541 -0.14651372 0.058562536 -0.13364679 0.06476343 -0.0039842394 -0.0067022988 0.17231713 -0.03211247 0.24751066 0.27809373 0.22455461 -0.254991 0.009164617 -0.14000008 -0.279088 -0.11880673 -0.1011627 0.05864081 -0.09729947 -0.10120136 0.011408308 -0.23915815 0.0016890039 -0.10751687 -0.31669673 0.036523677 -0.067701556 -0.15404171 0.35094258 0.056218386 -0.42690074
几天 -0.0078973835 -0.042399015 0.025429785 -0.049031265 -0.09175377 -0.20891942 0.1990513 0.28816286 0.051141698 -0.16797282 0.05249499 0.10090779 -0.08318803 -0.0479718 -0.13585067 -0.03993947 0.22409068 0.10132854 -0.112853885 -0.09979096 0.041291468 -0.09327482 0.04285603 -0.0077025183 -0.00065992994 0.11551071 -0.030353084 0.18124901 0.20849909 0.16507697 -0.19519734 -0.004746015 -0.101501666 -0.19879381 -0.09001508 -0.07948838 0.059775516 -0.082346566 -0.077161245 0.011266762 -0.17603433 -0.006921392 -0.079137936 -0.23001228 0.02777867 -0.058818735 -0.09932045 0.2627652 0.04335743 -0.31977934
