463 50
裤子 -0.07241078 0.13748327 -0.12518866 -0.20292875 -0.55040824 0.2610085 -0.4873928 -0.5619645 -0.040652946 0.4198665 0.008454392 0.052843373 -0.006069962 0.4975235 0.2844582 -0.64673704 0.044416565 -0.17819576 0.22487138 0.28034842 0.9974695 0.2724644 -0.73475814 -0.16313376 0.78429824 0.49918792 -0.20907778 -0.23213167 0.038901377 0.26526603 -0.008162863 -0.40036857 -0.5091292 0.32506064 1.0497874 0.06742544 -0.05633969 -0.061268542 0.25246444 -0.16954798 0.5376409 -0.71276486 0.46378434 -1.0018249 -0.008934851 0.42018923 -0.37682837 -0.15078941 -0.19199562 -0.28498587
不错 -0.05563376 0.09383277 -0.09070814 -0.13524584 -0.3744031 0.18487465 -0.31929561 -0.3758149 -0.032710332 0.28140688 -0.0054327454 0.049443237 0.0015768713 0.3171977 0.19768682 -0.43106917 0.037268933 -0.12500167 0.14881139 0.20273729 0.6691328 0.17475675 -0.50126237 -0.11718544 0.5280422 0.33146077 -0.1575337 -0.14614122 0.02649301 0.17711473 -0.00269979 -0.27233526 -0.34825742 0.22843221 0.70582587 0.036730263 -0.03327336 -0.047857296 0.17321873 -0.10707858 0.35412833 -0.4771191 0.3168845 -0.676084 0.011177265 0.2936607 -0.26206097 -0.103920996 -0.12823814 -0.18493743
买 -0.1007301 0.18907608 -0.18284936 -0.27397737 -0.74552536 0.3527532 -0.67839104 -0.7702481 -0.055997975 0.565863 0.010620884 0.07726472 -0.008760337 0.6709577 0.40164876 -0.895295 0.039535936 -0.23560603 0.31827208 0.38953015 1.3733104 0.36672506 -0.987643 -0.21216081 1.0700593 0.6932856 -0.2948029 -0.3025585 0.055389136 0.3776456 -0.007881473 -0.5320006 -0.69953954 0.462409 1.4268025 0.07892071 -0.07540817 -0.092694566 0.34688425 -0.23718582 0.7428358 -0.980541 0.64766526 -1.3544683 -0.0010749083 0.57993037 -0.50932217 -0.21238671 -0.2644165 -0.39490908
质量 -0.046716128 0.11924911 -0.09806792 -0.1460594 -0.4270703 0.20806165 -0.38227746 -0.44052 -0.02416872 0.3127367 0.0052171154 0.05440843 -0.0026145172 0.38102257 0.22487712 -0.50628686 0.031425584 -0.12766813 0.18019146 0.21388765 0.7781917 0.2106891 -0.5661672 -0.1269013 0.61085194 0.39651877 -0.17318435 -0.1819311 0.034810763 0.20651463 -0.004996629 -0.30278772 -0.39468232 0.2613713 0.80766094 0.056961518 -0.045596726 -0.051473 0.19815211 -0.12828568 0.42719164 -0.5631416 0.36710805 -0.7738721 0.0011797854 0.3296424 -0.2944308 -0.11999172 -0.13360073 -0.22739048
穿 -0.07979654 0.15435733 -0.14151987 -0.20065254 -0.5796814 0.28008845 -0.5099401 -0.6027064 -0.046494585 0.43874007 0.0058425064 0.058670457 -0.011676559 0.52447873 0.30713645 -0.68606144 0.03679211 -0.18245968 0.25098124 0.31037557 1.0694 0.2769426 -0.78148603 -0.18078615 0.82225794 0.5353688 -0.22791031 -0.23924771 0.02808962 0.2987719 0.0025807486 -0.42567122 -0.5445786 0.34705207 1.0967737 0.07645438 -0.076398365 -0.074379385 0.26520124 -0.16986558 0.56362987 -0.7664694 0.4928208 -1.0552207 -0.0009901002 0.45633012 -0.3909294 -0.15625419 -0.20119672 -0.30937532
舒服 -0.04623802 0.08156097 -0.08000139 -0.11922093 -0.35231307 0.16619791 -0.3123885 -0.35946414 -0.031603653 0.26595825 0.0093577895 0.046726562 -0.0073498804 0.30564174 0.18935235 -0.40330324 0.027117804 -0.10230182 0.14738949 0.18374315 0.6343624 0.1602322 -0.46776006 -0.10804259 0.49075317 0.3058122 -0.12925147 -0.1524747 0.017738014 0.1771978 0.0022030186 -0.241218 -0.31115285 0.19820361 0.6552045 0.035633564 -0.043784797 -0.042696774 0.15866548 -0.110962406 0.3324477 -0.4473729 0.3078568 -0.6336871 -0.007903981 0.26228216 -0.23816957 -0.092890546 -0.112004995 -0.17855294
颜色 -0.044021256 0.11467209 -0.10120068 -0.15323028 -0.42854303 0.2015935 -0.37657988 -0.44383606 -0.039987978 0.30826616 -6.2331965e-05 0.04881207 0.0012602438 0.37623772 0.23000275 -0.5110734 0.022639731 -0.13275488 0.17936689 0.21890365 0.77713305 0.21213605 -0.5607377 -0.13183561 0.5958429 0.39276272 -0.17443228 -0.17530693 0.028381532 0.21890974 -0.0058402326 -0.2970294 -0.38657805 0.24999064 0.8099918 0.05506608 -0.045014117 -0.05567599 0.2034212 -0.12572439 0.42451128 -0.5600928 0.37208048 -0.7611407 -0.0012336035 0.3275994 -0.28634888 -0.113017 -0.14484334 -0.22709571
喜欢 -0.039112598 0.06728995 -0.059121843 -0.10591938 -0.27440992 0.12796 -0.24646555 -0.2760608 -0.031399578 0.20440844 0.004101582 0.032449085 0.0033480306 0.24657816 0.14630438 -0.3312723 0.028732624 -0.08729663 0.121573284 0.13300967 0.49396095 0.12470946 -0.36667 -0.07744172 0.37817007 0.25272787 -0.11662288 -0.10665015 0.018245386 0.13546236 -0.006305743 -0.20572059 -0.26135543 0.15462777 0.5197745 0.026177011 -0.03879372 -0.040573046 0.12110853 -0.077523164 0.26850852 -0.35674524 0.24313761 -0.49755484 0.006808762 0.21810286 -0.19399607 -0.08393443 -0.09217777 -0.13182546
穿着 -0.04376722 0.07933064 -0.06802995 -0.110432535 -0.31900644 0.14132755 -0.26919195 -0.32385883 -0.025739685 0.22793646 -0.00407832 0.03342321 -0.00036652572 0.28434664 0.1592959 -0.36622468 0.018090604 -0.09934708 0.13061848 0.172259 0.5763844 0.14962691 -0.42326254 -0.100090794 0.4516913 0.29469347 -0.11756188 -0.13713461 0.011101957 0.16305421 -0.009047191 -0.21825445 -0.287655 0.18751085 0.59277755 0.04057869 -0.029915951 -0.03600587 0.14251333 -0.09776126 0.30547374 -0.40254584 0.26330635 -0.56163675 0.0032477027 0.24263749 -0.21460752 -0.079521224 -0.10284311 -0.1689348
好好 0.006776489 0.116240114 -0.0042633917 -0.14684364 -0.23234625 0.023105903 -0.21258593 -0.10956452 -0.004459174 0.21878578 0.04972845 -0.06861055 -0.038003802 0.17782322 0.0910049 -0.2995471 -0.08458682 -0.029781843 -0.018892895 0.13946018 0.41087735 0.04256501 -0.17542252 0.007395242 0.12272094 0.23195297 -0.0037723198 0.05691127 0.07062611 0.052727103 -0.0940513 -0.16839732 -0.32011387 0.09662805 0.37789878 0.06199461 -0.059627943 -0.084122956 0.0351932 -0.08936841 0.23861964 -0.24569744 0.11283875 -0.21743575 0.000530571 0.26347074 -0.0068910858 -0.019307055 -0.098906316 -0.15985854
挺 -0.03491736 0.08575501 -0.06650888 -0.113997445 -0.29198948 0.13733605 -0.26128992 -0.31250042 -0.02706858 0.228065 0.00814693 0.03743612 -0.00016125439 0.26660603 0.14884546 -0.3440244 0.01010357 -0.10259972 0.11641005 0.15078326 0.5275372 0.14117524 -0.39349377 -0.09085304 0.4155271 0.25853214 -0.12202457 -0.1289846 0.022416543 0.13556083 0.009056092 -0.20756625 -0.27929127 0.18521672 0.5656436 0.033980343 -0.0404532 -0.038655125 0.13443166 -0.08874335 0.28276244 -0.37215644 0.25854233 -0.53274304 0.004736184 0.23327647 -0.20858432 -0.08917036 -0.091013394 -0.1479339
合适 -0.037020635 0.09808243 -0.08408732 -0.13757928 -0.3485303 0.16327971 -0.31253952 -0.37321186 -0.030700838 0.26545042 0.012104253 0.037007753 -0.014697503 0.3111538 0.1928837 -0.41465247 0.014686676 -0.12387426 0.13660762 0.19715708 0.65763485 0.16888273 -0.48197398 -0.113044836 0.4965056 0.33665383 -0.13614894 -0.15073243 0.012381003 0.18161017 0.005737496 -0.26396614 -0.33592397 0.20634511 0.6772862 0.049273983 -0.038588136 -0.03491862 0.1614479 -0.108641095 0.34441662 -0.46164608 0.29820484 -0.6473726 -0.0048778905 0.28254363 -0.23370168 -0.101618245 -0.13051033 -0.18021806
以纯 -0.05597525 0.11148068 -0.088900924 -0.14851485 -0.40557677 0.2028885 -0.3693938 -0.433159 -0.02095001 0.31822017 0.011388202 0.05277789 -0.013705284 0.3597563 0.22230376 -0.49467334 0.024694283 -0.122740865 0.1665745 0.21479411 0.7526082 0.20095994 -0.55512565 -0.11216649 0.58355474 0.38291752 -0.17318116 -0.16252345 0.025427282 0.19907619 -0.011889876 -0.30254263 -0.38168395 0.25321195 0.7891942 0.05095054 -0.043015756 -0.046754956 0.19202691 -0.12538706 0.40451983 -0.53587496 0.3466709 -0.75653934 -0.0033951057 0.31323415 -0.28575945 -0.123905435 -0.14314541 -0.22031462
客服 -0.082166724 0.17719929 -0.14312543 -0.22743441 -0.6210831 0.30431905 -0.56799525 -0.6572542 -0.039557 0.4780939 0.0019740078 0.06172727 -0.010023805 0.5516583 0.33442116 -0.7465973 0.047818463 -0.20246094 0.2613893 0.33533832 1.1490585 0.30261543 -0.83983105 -0.19375996 0.89459425 0.5745753 -0.24733973 -0.25469542 0.046823066 0.30399323 0.0029007588 -0.4623657 -0.5875708 0.3776395 1.1975863 0.06429109 -0.07269823 -0.07332677 0.29663837 -0.19652067 0.60987586 -0.8230738 0.53469706 -1.1435146 -0.009237304 0.49310046 -0.4280439 -0.18843661 -0.20665325 -0.3345277
衣服 -0.061130006 0.109511256 -0.095142916 -0.14995281 -0.40645638 0.1975719 -0.36329764 -0.41763553 -0.025341908 0.30311373 0.011918874 0.04068913 -0.011893902 0.36809394 0.21919356 -0.48873502 0.03520883 -0.13346596 0.17871463 0.214689 0.755558 0.20523828 -0.54797125 -0.1226487 0.5885135 0.38162228 -0.15992785 -0.17678715 0.017623773 0.19381452 -0.008920601 -0.3046025 -0.3743449 0.24015003 0.7841004 0.050681155 -0.047134846 -0.037592568 0.18795311 -0.12297938 0.4084082 -0.52631015 0.35681793 -0.73774606 0.008722185 0.31526676 -0.27313364 -0.10914195 -0.14404032 -0.21615313
感觉 -0.039759915 0.1090239 -0.09728025 -0.15205164 -0.3953334 0.1796282 -0.35654074 -0.4035014 -0.03816713 0.29082832 0.007050026 0.045730945 -0.0034082688 0.3413729 0.20829006 -0.47406986 0.03536128 -0.12037211 0.1610454 0.19738016 0.7151833 0.18479018 -0.53581524 -0.12526414 0.5635375 0.36271986 -0.1514448 -0.17415923 0.020402225 0.20568979 -0.0048391493 -0.28232867 -0.36579028 0.24374646 0.75672024 0.049257424 -0.054834235 -0.040755153 0.17884359 -0.12611504 0.38154456 -0.5251772 0.3352836 -0.7209476 0.003005733 0.30070615 -0.25865453 -0.103609316 -0.140238 -0.20470804
快递 -0.058477882 0.09995776 -0.09348144 -0.15700996 -0.4030217 0.19139372 -0.3631716 -0.4247542 -0.03823026 0.29946974 0.010699832 0.04080243 -0.0020653908 0.3599993 0.22483441 -0.48228416 0.027291039 -0.12925842 0.17680648 0.21685098 0.75194114 0.2047823 -0.54780257 -0.11222352 0.59081227 0.37360063 -0.15578878 -0.16256426 0.025408704 0.20736858 -0.008227832 -0.29291353 -0.37572572 0.25282714 0.7747542 0.04919923 -0.04388159 -0.038705077 0.20057921 -0.13371825 0.41009548 -0.537255 0.35624826 -0.7541412 0.007072591 0.30931264 -0.2888581 -0.112186745 -0.13661397 -0.21581353
掉色 -0.04246299 0.07255477 -0.056023143 -0.10399594 -0.2842276 0.13510633 -0.25753605 -0.29207107 -0.023502795 0.2180312 0.004372922 0.0234772 -0.010271393 0.2552072 0.1422203 -0.34092286 0.022079354 -0.09577231 0.11228725 0.13647431 0.5188331 0.14601779 -0.3812166 -0.09110994 0.40275773 0.24516739 -0.10630238 -0.113970876 0.008785329 0.1315477 0.005406455 -0.20315282 -0.25583005 0.17388235 0.5352367 0.041024838 -0.033473894 -0.027975412 0.13255183 -0.092535034 0.2765216 -0.3568718 0.23848213 -0.49510488 -0.005105353 0.21339428 -0.19742915 -0.075915284 -0.096208446 -0.14831862
好看 -0.03661518 0.08944377 -0.07274072 -0.10834325 -0.2855271 0.14421542 -0.25332052 -0.31450823 -0.01959819 0.21829234 0.0024564476 0.043825194 -0.001829255 0.2618474 0.16078813 -0.348713 0.022765769 -0.10319759 0.117060184 0.15102425 0.5397565 0.13420092 -0.39655522 -0.08038002 0.41694525 0.2630728 -0.11524595 -0.11805555 0.019222317 0.15299149 -0.0037252717 -0.2102312 -0.26559758 0.18574828 0.5534888 0.026930079 -0.039661456 -0.033262026 0.13545921 -0.091337 0.28589967 -0.38513687 0.26212507 -0.541859 0.0009223799 0.21896525 -0.20653696 -0.08199023 -0.09891474 -0.16075717
满意 -0.047762558 0.083520174 -0.07411059 -0.112390794 -0.3045979 0.14616074 -0.27259645 -0.31716076 -0.03444523 0.23405118 0.00900982 0.033524226 -0.011827188 0.2774959 0.16453168 -0.36186117 0.026963849 -0.09447335 0.12529716 0.15275468 0.5557592 0.14316924 -0.4080417 -0.08571563 0.42994177 0.27979112 -0.12981863 -0.124489315 0.02421362 0.15915152 -0.0002922497 -0.22588216 -0.28859687 0.18426587 0.5912442 0.040808838 -0.03422268 -0.04610279 0.13870104 -0.09607301 0.2974036 -0.397597 0.25951043 -0.55988586 0.007861015 0.22963959 -0.21732725 -0.089311466 -0.09453785 -0.16194333
收到 -0.050811928 0.09376767 -0.095206805 -0.13888025 -0.36497742 0.18636712 -0.3380342 -0.38808325 -0.029226394 0.2723267 0.0071031963 0.033252556 -0.014551689 0.33569172 0.19716568 -0.43458858 0.025410432 -0.121849634 0.16311981 0.19960184 0.6892445 0.17479782 -0.49347392 -0.116868965 0.52599686 0.3372338 -0.14013775 -0.14687607 0.013614649 0.18815914 -0.0019945211 -0.26742858 -0.3542371 0.22407609 0.7194276 0.049637415 -0.04405903 -0.046272293 0.1815318 -0.115027316 0.3610869 -0.49640647 0.3311093 -0.680089 0.0026587965 0.2969327 -0.24896449 -0.106937 -0.13103431 -0.19356851
物流 -0.040951304 0.09852408 -0.088108115 -0.12659669 -0.38359123 0.1777698 -0.34180173 -0.39421806 -0.029167222 0.2908665 0.006125985 0.034532983 0.00081631204 0.32500097 0.21052426 -0.44988477 0.03271238 -0.13021083 0.14600518 0.2038302 0.6894706 0.19350909 -0.49698502 -0.11230928 0.5351921 0.3425745 -0.1595744 -0.16133207 0.028670225 0.19739313 0.0050750417 -0.26831296 -0.34393245 0.2337745 0.7172821 0.047245856 -0.051509663 -0.045383397 0.18366739 -0.11043335 0.36674032 -0.49412787 0.32713068 -0.6881143 0.009803509 0.29038823 -0.25328285 -0.10329553 -0.13522364 -0.18578829
好评 -0.043122325 0.10051462 -0.073878 -0.124986365 -0.34014228 0.17661898 -0.31290388 -0.3617148 -0.034748297 0.26892418 -0.0033387362 0.036330435 0.003832916 0.31243414 0.1810063 -0.40618712 0.028707076 -0.10928376 0.13890715 0.1796435 0.6401413 0.17848924 -0.47505325 -0.11506413 0.507843 0.31614885 -0.14550118 -0.14461641 0.0225577 0.17168412 0.007955981 -0.25549507 -0.3182096 0.20481996 0.65797967 0.033508133 -0.034139656 -0.04241848 0.15218577 -0.108191445 0.33638668 -0.44674602 0.30469766 -0.61989456 -0.0016896512 0.28253227 -0.2284983 -0.09556378 -0.11918765 -0.17524952
差评 -0.04291685 0.101608515 -0.102640845 -0.15431485 -0.39574748 0.18786286 -0.36643875 -0.40877846 -0.020942623 0.3006387 0.001250698 0.051813006 0.00093748415 0.34848455 0.2226726 -0.4692795 0.020389324 -0.13302927 0.17689691 0.20827287 0.7413249 0.19353592 -0.5380052 -0.11066286 0.56344146 0.35832146 -0.1605248 -0.16678722 0.03344064 0.18994528 -0.0027723035 -0.29046315 -0.38119146 0.25456226 0.77048796 0.05080322 -0.04291299 -0.04752786 0.1918894 -0.11301052 0.4004557 -0.5308222 0.35482323 -0.7149276 0.0057226946 0.30709094 -0.2722223 -0.12137721 -0.14069887 -0.20266461
合身 -0.044844445 0.07643043 -0.0751009 -0.09463513 -0.2897601 0.13061385 -0.25591397 -0.2956263 -0.016859727 0.2129744 0.007343119 0.03752009 -0.0101439115 0.25840348 0.14834893 -0.33601397 0.025794111 -0.08984015 0.12160854 0.14779475 0.522112 0.13988121 -0.3888855 -0.08009748 0.41041702 0.2663933 -0.11973702 -0.119086154 0.010161737 0.13847525 -0.0054190294 -0.21147977 -0.27401635 0.1792574 0.53608406 0.042712472 -0.024411835 -0.04035818 0.12928542 -0.09334511 0.2867449 -0.37572435 0.23787937 -0.5228517 0.005307079 0.21643713 -0.20510675 -0.089336984 -0.10501643 -0.14416929
牛仔裤 -0.056770045 0.1228035 -0.100925155 -0.1604916 -0.4536744 0.21126506 -0.3993754 -0.47475946 -0.031016307 0.34336454 0.014754069 0.05026777 -0.009269525 0.403397 0.25153163 -0.54218775 0.037847206 -0.148767 0.19183818 0.23839928 0.8393992 0.22924466 -0.61885476 -0.13511892 0.6552424 0.42146137 -0.17972055 -0.1936987 0.036481403 0.22944218 0.0029393563 -0.3288907 -0.42318293 0.27584893 0.86101705 0.04792577 -0.061791826 -0.053912017 0.21485077 -0.12857665 0.45826772 -0.58868474 0.40030116 -0.8263788 -0.002453264 0.36011246 -0.31098062 -0.12369536 -0.14868237 -0.23932524
洗 -0.05535391 0.11628638 -0.1066337 -0.16078937 -0.42077544 0.20671724 -0.3893757 -0.4369154 -0.036303915 0.31752488 0.007405859 0.043870278 -0.0039449576 0.37869143 0.23443079 -0.51445985 0.026620679 -0.1369912 0.17746231 0.22039993 0.77413243 0.20616476 -0.571071 -0.118429005 0.5982933 0.38609028 -0.1568193 -0.17656161 0.0181199 0.21828294 -0.0006372226 -0.3083623 -0.4009943 0.26636276 0.81907463 0.04742388 -0.05920161 -0.038431626 0.19016573 -0.13902414 0.42354298 -0.56340426 0.36104488 -0.75705117 -0.0033242858 0.339076 -0.2878207 -0.11196961 -0.14755242 -0.2156602
色差 -0.042384222 0.07571713 -0.07132086 -0.10794242 -0.299994 0.13587956 -0.2607976 -0.29930654 -0.021182574 0.22180682 0.010406534 0.041703727 -0.005440127 0.26643756 0.14935392 -0.35683432 0.016838038 -0.09816467 0.115323216 0.15597263 0.53737295 0.14151062 -0.4015171 -0.07626294 0.41748685 0.2776471 -0.11556637 -0.12971789 0.0145759825 0.13776918 -0.0015690103 -0.21309268 -0.28639042 0.1786595 0.5646557 0.04147514 -0.04376066 -0.033258285 0.12778912 -0.08788976 0.2925025 -0.37933138 0.26354557 -0.53525156 -0.002663388 0.23606998 -0.19272718 -0.07858859 -0.096578375 -0.14792475
图片 -0.049797133 0.09200098 -0.09272872 -0.13166206 -0.38138428 0.17185162 -0.3298046 -0.3948481 -0.01847733 0.2779478 0.009367008 0.05290097 -0.014537521 0.32762882 0.19145404 -0.44557604 0.0154792145 -0.11846331 0.15737526 0.18682231 0.6995094 0.18793 -0.50636446 -0.11656133 0.5317692 0.33493352 -0.14441828 -0.157042 0.031496 0.18393701 0.0045373435 -0.2740019 -0.34958404 0.21913451 0.7283173 0.03980095 -0.036719278 -0.046644185 0.1792291 -0.12351022 0.37041584 -0.49721768 0.31696543 -0.6696405 -0.006134247 0.29798272 -0.261612 -0.102571726 -0.12889259 -0.20329228
购买 -0.040280353 0.09713448 -0.06770729 -0.112222746 -0.337379 0.16439454 -0.2904595 -0.34485298 -0.033613216 0.2400163 -0.0043125814 0.028455522 -0.0036961464 0.2956368 0.1792009 -0.3869149 0.022880912 -0.09596697 0.12826766 0.17918287 0.5917998 0.15241434 -0.4453071 -0.09622319 0.47281012 0.3076429 -0.13235153 -0.14283551 0.017205669 0.15428647 0.00018137893 -0.2295961 -0.31197158 0.20729674 0.6246085 0.04486731 -0.030037418 -0.043193832 0.1513898 -0.102022484 0.3182076 -0.43568814 0.27817798 -0.584584 0.0057794396 0.2526281 -0.21840814 -0.09061259 -0.12209743 -0.16540696
差 -0.052977692 0.10640288 -0.09273768 -0.15945087 -0.40943545 0.19571163 -0.3798959 -0.4322239 -0.026966957 0.31413442 0.016216664 0.047490444 -0.016608993 0.374767 0.23116814 -0.5078616 0.021355832 -0.13780992 0.17272407 0.22410852 0.7746736 0.20564795 -0.55655485 -0.11637889 0.5940808 0.37314427 -0.16912578 -0.17799063 0.020709258 0.2045693 0.0013807252 -0.29682818 -0.3853449 0.2539537 0.808603 0.040531974 -0.05371635 -0.043377455 0.19891556 -0.12876256 0.40575448 -0.5508053 0.35698858 -0.76770794 0.0029574584 0.3285449 -0.28720996 -0.11538895 -0.1454455 -0.22518437
京东 -0.07334023 0.15059929 -0.12841547 -0.19649224 -0.54296535 0.26946118 -0.49818873 -0.5607817 -0.030147938 0.4177444 0.0177274 0.05660396 -0.013562679 0.49420294 0.29155034 -0.64391184 0.03753072 -0.17269911 0.23523577 0.29119024 0.9995835 0.26915714 -0.72754365 -0.15972616 0.77965885 0.49352175 -0.2145632 -0.2273651 0.025812332 0.27773118 0.006444177 -0.3931525 -0.50213695 0.3391062 1.0420647 0.05683423 -0.06669564 -0.057484306 0.24675104 -0.17246905 0.5415728 -0.7224361 0.47999462 -0.99614316 -0.005178844 0.4129278 -0.38159925 -0.14917395 -0.1831866 -0.28982615
东西 -0.05150554 0.08183862 -0.08760816 -0.12611358 -0.32504535 0.16215654 -0.30750418 -0.3512335 -0.017457549 0.255672 0.016044771 0.038493242 -0.008971771 0.29870746 0.1805255 -0.3993639 0.01890302 -0.108231 0.13229804 0.17023148 0.6111826 0.15419434 -0.43581867 -0.10389191 0.47433722 0.30308622 -0.13917461 -0.13288939 0.025620798 0.17124984 -0.009213285 -0.24383092 -0.30637658 0.20507905 0.6361686 0.031615306 -0.03088005 -0.043775834 0.1605346 -0.09960735 0.33853805 -0.4354855 0.28345093 -0.6041662 0.0016342719 0.24883893 -0.22791639 -0.09595063 -0.11103033 -0.1676313
尺码 -0.054276943 0.0910373 -0.095135346 -0.13057566 -0.3699004 0.18540402 -0.32477668 -0.38907245 -0.028301667 0.28733668 0.010004701 0.049154915 -0.014495741 0.3306353 0.20313871 -0.4349365 0.023399217 -0.11687199 0.14543878 0.20437998 0.6902567 0.18164268 -0.4954054 -0.10712065 0.5280162 0.3386273 -0.14387605 -0.15166342 0.02793937 0.19128665 -0.010154281 -0.27227986 -0.33927533 0.21520914 0.7149817 0.038631313 -0.053312 -0.03279194 0.16986306 -0.10865531 0.36527184 -0.48756805 0.31519565 -0.6792229 -0.00048385616 0.27774283 -0.24496694 -0.11056576 -0.12858965 -0.20283715
价格 -0.03230808 0.08817733 -0.07539891 -0.11671217 -0.3032325 0.13554086 -0.27618125 -0.31697297 -0.01829755 0.22369356 -0.0019213663 0.027163854 -0.013093709 0.27634814 0.16999395 -0.35655218 0.018988287 -0.10453603 0.12182939 0.15811424 0.5423853 0.15095931 -0.40374205 -0.09566237 0.42254972 0.28397143 -0.12465517 -0.117998675 0.019760787 0.14318968 -0.008542098 -0.2097806 -0.28372672 0.18040718 0.5759521 0.027945155 -0.03457113 -0.028913014 0.14831431 -0.08667748 0.3002175 -0.3968757 0.26600242 -0.55429816 0.0054345326 0.23958224 -0.19912045 -0.08274469 -0.096024066 -0.16108073
弹性 -0.03914497 0.08456396 -0.08238921 -0.12292754 -0.33266032 0.16654913 -0.28534552 -0.33585942 -0.025341023 0.24478963 -0.0048551857 0.03918334 0.0044581867 0.2925339 0.1723889 -0.38226983 0.016123496 -0.09456408 0.13653219 0.1773733 0.5950161 0.16897184 -0.44036123 -0.09788242 0.46824995 0.3046649 -0.13999528 -0.13175997 0.022243943 0.16544744 0.007213439 -0.24741991 -0.29780763 0.20674324 0.63072973 0.04801617 -0.035149135 -0.033143166 0.15228263 -0.10674385 0.3251886 -0.42604262 0.2917247 -0.60126376 0.0067385365 0.26451716 -0.22720565 -0.088560596 -0.119105496 -0.17686637
A21 -0.061315514 0.120013416 -0.106815875 -0.14222047 -0.41224524 0.19506826 -0.3630625 -0.41925794 -0.03868509 0.30147317 -0.0034396132 0.04215418 -0.015456158 0.36700457 0.2307434 -0.490939 0.02886777 -0.1287619 0.17047541 0.2250427 0.7428511 0.21019168 -0.5524895 -0.12292123 0.58761364 0.38227704 -0.17094766 -0.17714131 0.020365484 0.2134899 -0.008363699 -0.29993835 -0.3805695 0.2489495 0.79097944 0.053766396 -0.037598234 -0.046793938 0.18777308 -0.13479896 0.40805838 -0.5371749 0.34804428 -0.74647605 -0.00457781 0.30842873 -0.27328607 -0.113153026 -0.14146762 -0.22133155
值得 -0.04896114 0.07709227 -0.08128841 -0.10053431 -0.30170798 0.14376548 -0.27484354 -0.3232738 -0.03510271 0.23777948 0.0010305691 0.041183252 -0.009125985 0.278664 0.17439151 -0.37247935 0.017658617 -0.09102235 0.13567425 0.17206538 0.57911193 0.15665218 -0.41756645 -0.09269226 0.43754756 0.29535893 -0.1231109 -0.13241102 0.012780389 0.16020043 -0.004866804 -0.22719158 -0.28723356 0.19054233 0.5896546 0.028042158 -0.03714921 -0.03184732 0.13602033 -0.09320394 0.30307344 -0.41724765 0.271691 -0.5699101 0.0018018173 0.24286173 -0.21513094 -0.09300792 -0.10335921 -0.15198983
大小 -0.043352254 0.067829095 -0.06584723 -0.100302346 -0.27729967 0.13242698 -0.2468395 -0.2868352 -0.023276368 0.20995234 -0.0067641498 0.023568947 0.00047359636 0.23847562 0.14171305 -0.33553335 0.018631281 -0.081528455 0.12508762 0.1380507 0.51041234 0.12733912 -0.37880394 -0.08266833 0.38769844 0.24529035 -0.11980999 -0.10600213 0.013500306 0.14658175 0.0003960287 -0.20775893 -0.26150677 0.16721183 0.529712 0.024374915 -0.022932533 -0.02367009 0.119685866 -0.082292065 0.28169325 -0.3588317 0.24671212 -0.49360654 -0.0065678903 0.21997437 -0.18023074 -0.07163322 -0.08413069 -0.14683121
下次 -0.04442013 0.073989496 -0.07637104 -0.11669036 -0.31279975 0.14571877 -0.2645408 -0.32306898 -0.014803764 0.23580067 -0.0020562836 0.04158519 0.0044001546 0.27378047 0.15961331 -0.36126918 0.02032423 -0.106823705 0.12911631 0.16609302 0.56450623 0.14105381 -0.41463614 -0.081398815 0.43223342 0.27341324 -0.12559183 -0.123480685 0.014131078 0.15170763 -0.0021974896 -0.22887333 -0.27575192 0.17766765 0.57089114 0.04518487 -0.028358174 -0.0441993 0.13760781 -0.09415134 0.29152617 -0.3989378 0.2601077 -0.5547587 -0.005507557 0.24118878 -0.21171355 -0.087365896 -0.093951546 -0.15643328
味道 -0.040474746 0.10375695 -0.08773794 -0.13365142 -0.35381946 0.1672455 -0.32206127 -0.38475323 -0.023926768 0.285793 0.0042333505 0.031687815 -0.00722331 0.3326565 0.19448175 -0.4461047 0.018980723 -0.12601066 0.15770228 0.1978047 0.6761255 0.1802746 -0.48267382 -0.09787447 0.5140284 0.33216628 -0.14297338 -0.1435928 0.02195089 0.1875279 0.007922967 -0.27421787 -0.34084788 0.22620979 0.70217305 0.03941563 -0.0510907 -0.039592773 0.17266588 -0.10846835 0.37114644 -0.475978 0.31305838 -0.6623379 -0.010011527 0.2889304 -0.25821412 -0.097585246 -0.12718947 -0.19698663
垃圾 -0.047582086 0.08655722 -0.07465915 -0.10905323 -0.32608873 0.14852981 -0.282438 -0.33532143 -0.019411372 0.24532121 -0.0009845545 0.032955885 -0.010273545 0.28418818 0.17881683 -0.37573597 0.03004125 -0.095585674 0.14157979 0.17138413 0.59576833 0.16493827 -0.43371022 -0.08472751 0.46174613 0.28623962 -0.12820631 -0.13969296 0.027935745 0.15072958 -0.008593741 -0.22845177 -0.29617304 0.20582338 0.6157233 0.039856862 -0.041379567 -0.032302484 0.15962863 -0.09577297 0.32379493 -0.4161534 0.27945217 -0.5923899 -0.003670599 0.25146577 -0.22760502 -0.085241005 -0.11641766 -0.16351472
版型 -0.03236199 0.07284648 -0.06779687 -0.10229814 -0.29976633 0.13844468 -0.2666436 -0.32194772 -0.014716605 0.22788991 0.007905674 0.028093848 0.0041765617 0.268213 0.1567682 -0.36738163 0.013447094 -0.0938857 0.122282095 0.16246559 0.5556415 0.1441722 -0.40820828 -0.08073699 0.43697056 0.287346 -0.13105874 -0.12807113 0.014138141 0.14221576 0.0021501295 -0.21458772 -0.28722897 0.17644125 0.58023334 0.04433944 -0.044197377 -0.04426975 0.14480464 -0.09295432 0.2901003 -0.4015837 0.25965688 -0.5397993 -0.0058116172 0.22558233 -0.20688407 -0.08265395 -0.09848328 -0.14942534
评价 -0.071896315 0.13765928 -0.13114958 -0.20472132 -0.56754786 0.2767322 -0.49734506 -0.57180375 -0.04376591 0.42954007 0.021445483 0.072170936 -0.016971298 0.50441515 0.29695 -0.6557384 0.033974178 -0.16615312 0.23315214 0.28925112 1.032125 0.2844197 -0.7426947 -0.15794358 0.7847872 0.5055041 -0.22450148 -0.24379003 0.02255622 0.27114594 -0.0109868655 -0.39105695 -0.52896255 0.34299907 1.0696771 0.06667242 -0.04826866 -0.07615466 0.24958347 -0.17635302 0.5367136 -0.72614884 0.4783511 -0.9903727 -0.016216487 0.44347772 -0.38120294 -0.16597067 -0.17914304 -0.2924428
太 -0.0556806 0.0888463 -0.08611059 -0.13929915 -0.34981346 0.17666022 -0.33207226 -0.37105754 -0.033204205 0.26573884 0.005198993 0.04185469 -0.013222059 0.31462392 0.19193839 -0.4338408 0.014816372 -0.10663243 0.14582905 0.18964192 0.6619595 0.17837782 -0.47758606 -0.11145715 0.5011869 0.33123866 -0.13508157 -0.15033866 0.032241777 0.17798433 0.0042930855 -0.2618539 -0.34719536 0.21961766 0.6832642 0.03726649 -0.0312946 -0.037984017 0.16084431 -0.10934968 0.34715018 -0.46783382 0.3040335 -0.65141094 -0.0052998657 0.27787435 -0.25041887 -0.111308254 -0.12192212 -0.18254906
很快 -0.042882707 0.06300419 -0.06522409 -0.090987645 -0.26964352 0.1403329 -0.24186546 -0.29197234 -0.02751774 0.21150528 0.009148191 0.023831526 -0.009938685 0.24945495 0.14600734 -0.328671 0.027240815 -0.08032168 0.11386424 0.13691488 0.50319403 0.124035 -0.35526162 -0.07894118 0.37991303 0.2559754 -0.109899856 -0.106735595 0.018480524 0.12988149 -0.0035623526 -0.19266762 -0.24431507 0.1617869 0.5106376 0.039676275 -0.022046043 -0.038578782 0.13446411 -0.07452992 0.26333618 -0.36032456 0.23936942 -0.50401866 -0.006925413 0.21766552 -0.19306676 -0.07357307 -0.09350305 -0.13208808
刚刚 -0.044792682 0.07100292 -0.06994667 -0.09945332 -0.29979306 0.1358972 -0.26756948 -0.31116083 -0.016609628 0.23143585 0.0026028384 0.042888664 0.0012746488 0.27502048 0.15755644 -0.3489104 0.02228596 -0.09186365 0.11591467 0.16235456 0.5403728 0.14411424 -0.4047672 -0.083577335 0.4256791 0.27660665 -0.11907589 -0.118748635 0.026827773 0.15315516 -0.008920635 -0.20786996 -0.27964213 0.18282354 0.5805387 0.035684653 -0.03379526 -0.035113335 0.13232994 -0.09259073 0.29918188 -0.40021527 0.2633313 -0.5354892 -0.008503513 0.22712718 -0.20717357 -0.080612265 -0.10912498 -0.16341254
款式 -0.03276139 0.07607935 -0.07072488 -0.11599508 -0.29449874 0.14336105 -0.2656693 -0.3122835 -0.030186117 0.21853667 0.0036872928 0.037023105 -0.0045394422 0.26759982 0.16455536 -0.3450022 0.024214676 -0.10328271 0.11683267 0.16075815 0.55089426 0.1344001 -0.39100617 -0.08170235 0.4261848 0.26183844 -0.123027556 -0.12562169 0.01668566 0.15806144 0.0066518513 -0.20656005 -0.28364727 0.17275244 0.56968695 0.031165047 -0.028334368 -0.037953187 0.13043836 -0.089282736 0.29284763 -0.37813523 0.2650315 -0.5416888 0.009602219 0.23091194 -0.19615845 -0.074821495 -0.10776797 -0.15790772
品牌 -0.055084005 0.0981638 -0.094664104 -0.13901481 -0.37161124 0.17866373 -0.32415152 -0.3905631 -0.036784958 0.2848744 0.012611327 0.0332259 -0.010167695 0.3328291 0.19751868 -0.44213855 0.023757523 -0.11942741 0.16237502 0.19572543 0.666853 0.18362112 -0.49377114 -0.118031524 0.5336079 0.34447607 -0.15624315 -0.15421684 0.023056218 0.18960935 0.008380083 -0.26094708 -0.3521404 0.23203938 0.6986567 0.04567121 -0.04532903 -0.036016878 0.16140513 -0.11596174 0.36121005 -0.4879523 0.31524405 -0.6714543 -0.005378085 0.2870772 -0.2554653 -0.10890418 -0.12207193 -0.18372919
面料 -0.0353779 0.06659349 -0.06774375 -0.0911214 -0.24850981 0.11332092 -0.21067435 -0.25444242 -0.028439544 0.19198385 -0.0046809497 0.027635543 -0.0042267474 0.22387306 0.12283955 -0.28211796 0.017703088 -0.087752484 0.10057428 0.12617229 0.44837266 0.1279949 -0.3321129 -0.07989607 0.3460816 0.22892216 -0.102520324 -0.10933054 0.018593399 0.12977067 0.0036020991 -0.1778208 -0.22572784 0.14602779 0.47240224 0.034663063 -0.0250772 -0.02333973 0.11771674 -0.07279318 0.24244389 -0.32509315 0.21995033 -0.44641182 0.00058604986 0.18432844 -0.17080966 -0.07872573 -0.08551657 -0.13466437
实体店 -0.049935084 0.08827821 -0.08793311 -0.11819223 -0.3379036 0.15563285 -0.29565808 -0.34648648 -0.02321788 0.24664457 0.009329675 0.036770977 -0.011950354 0.29308012 0.17952693 -0.3904557 0.015003113 -0.104134955 0.12619053 0.17752086 0.6019039 0.15667726 -0.4394454 -0.08836626 0.4718479 0.3038174 -0.13606647 -0.14580968 0.010109551 0.17433734 0.007666048 -0.2505281 -0.31327465 0.19922395 0.63946927 0.03298234 -0.034178533 -0.030999647 0.15666944 -0.108161576 0.33176833 -0.4260024 0.28668287 -0.60050106 -0.008124101 0.2469289 -0.2233038 -0.08523299 -0.117908895 -0.17481601
购物 -0.04313431 0.07541492 -0.078373134 -0.10657989 -0.33020318 0.15440604 -0.28593862 -0.33272633 -0.035008147 0.24092315 0.00218736 0.03918637 -0.00884498 0.29434255 0.17005782 -0.3828718 0.012521848 -0.09940911 0.12936455 0.17230397 0.59337956 0.15456244 -0.43643865 -0.10395647 0.44877958 0.28754112 -0.13582289 -0.13890319 0.019191021 0.15210749 -0.0029420676 -0.23008056 -0.29376116 0.19227321 0.62524575 0.042748675 -0.041915197 -0.02985215 0.15554322 -0.08933242 0.31311667 -0.41401088 0.27760887 -0.5938252 -0.0059262407 0.25560653 -0.21379268 -0.09803289 -0.11145467 -0.17319866
柔软 -0.04538681 0.07927852 -0.06815862 -0.11915942 -0.3102197 0.14513218 -0.26847017 -0.3060579 -0.021792423 0.22530437 0.0064068027 0.024137998 -0.014459662 0.26179004 0.1622108 -0.354402 0.014376873 -0.08952342 0.1315067 0.15981926 0.55626714 0.13926893 -0.39301246 -0.08977386 0.43723232 0.2847722 -0.113547586 -0.12977774 0.007607116 0.15135117 0.004826769 -0.22474496 -0.28298235 0.18432921 0.56724674 0.025405064 -0.033220045 -0.036527008 0.1466027 -0.09888882 0.29040602 -0.39561322 0.2527442 -0.54830617 -0.0010485316 0.23704934 -0.19559039 -0.09002694 -0.09806311 -0.16473325
活动 -0.05466179 0.11610455 -0.10623187 -0.16390343 -0.43362683 0.21450914 -0.3786151 -0.44273996 -0.032823212 0.3333232 -0.0016738531 0.04719478 0.0039978926 0.388669 0.23367102 -0.51585597 0.029234402 -0.1344934 0.17929898 0.23914596 0.7842044 0.21457756 -0.57457197 -0.12466719 0.61008745 0.39480454 -0.18256566 -0.18802829 0.021315318 0.21726891 -0.0028870266 -0.3131583 -0.39869997 0.25636604 0.82512254 0.060930684 -0.045192644 -0.051426575 0.19596295 -0.13390975 0.42646858 -0.5558959 0.38132045 -0.7818695 0.0076794066 0.32816055 -0.3038672 -0.13139258 -0.13770382 -0.2318276
行 -0.035348933 0.071169086 -0.058276128 -0.09403099 -0.22893198 0.11231285 -0.21843487 -0.24284875 -0.009805967 0.1786681 -0.00041142668 0.023681594 0.0024562771 0.2041499 0.11823232 -0.29113996 0.01036917 -0.06705159 0.10051877 0.13221245 0.42559257 0.10827637 -0.31683424 -0.06677416 0.33619258 0.22258443 -0.09992351 -0.09565852 0.012557645 0.12132796 0.004657576 -0.1664979 -0.22912112 0.13938996 0.46244776 0.031766165 -0.031618413 -0.03181297 0.10193768 -0.07615329 0.2409621 -0.32016444 0.20760223 -0.41811213 -0.0018969085 0.19396678 -0.16138078 -0.06269722 -0.08778022 -0.12891182
码 -0.054896645 0.11678202 -0.123165965 -0.16363473 -0.47821572 0.21895011 -0.43176216 -0.49775276 -0.046396617 0.35721117 -0.0026537357 0.056172743 -0.017009988 0.4204936 0.24670283 -0.5762866 0.034030236 -0.15331061 0.2051894 0.2398501 0.87859124 0.22817431 -0.63072556 -0.14670824 0.6840813 0.43628803 -0.19467571 -0.19070856 0.03306229 0.2440645 -0.005083013 -0.3479309 -0.4397891 0.28851914 0.9150818 0.044681933 -0.06307847 -0.04704668 0.21095122 -0.14936109 0.47483262 -0.6174503 0.4173641 -0.8646475 -0.0071494803 0.36969483 -0.32784367 -0.13830982 -0.17204756 -0.25739405
一点 -0.04411684 0.08577051 -0.07000081 -0.11436753 -0.3354333 0.16541855 -0.3021896 -0.3412124 -0.028182367 0.24116609 0.008078819 0.035413902 -0.0072873496 0.30165944 0.18609385 -0.3940922 0.02854948 -0.09705399 0.13263199 0.16705477 0.61007005 0.16106158 -0.4369285 -0.0915242 0.4679685 0.30046254 -0.13938834 -0.13982652 0.012975149 0.15798353 -0.0009914101 -0.24570312 -0.3145629 0.20223318 0.6381201 0.03759585 -0.043217875 -0.031486325 0.1435498 -0.11021735 0.32689273 -0.4352398 0.280944 -0.59584486 -0.0012449708 0.25218752 -0.21605633 -0.10244837 -0.11515909 -0.17662942
不好 -0.035496876 0.076432385 -0.06386687 -0.10903269 -0.30906928 0.13872796 -0.2676048 -0.3184682 -0.015564197 0.22864644 0.012315587 0.040097326 0.0035814792 0.27170473 0.15477592 -0.36502126 0.012461428 -0.089086734 0.12922251 0.16074325 0.5651483 0.14892533 -0.41596952 -0.099677496 0.4288598 0.2821065 -0.12973174 -0.13707918 0.012910304 0.1626291 -0.006319634 -0.22007044 -0.27907813 0.18419276 0.5844711 0.02819387 -0.042194184 -0.026564324 0.14296287 -0.097302996 0.29952714 -0.4096251 0.2575332 -0.5640732 -0.0018270666 0.242087 -0.21607572 -0.08382352 -0.09968558 -0.15620893
布料 -0.04515945 0.08252426 -0.077554576 -0.11711176 -0.33003244 0.15762399 -0.27967227 -0.33976266 -0.02986478 0.24126196 0.0029441086 0.036977954 0.004050598 0.29012454 0.17178132 -0.3952398 0.01841845 -0.09418901 0.13587263 0.16228351 0.6013594 0.15840963 -0.42220053 -0.10114753 0.4621025 0.29313526 -0.13765977 -0.12629208 0.017866705 0.15797043 -0.010978782 -0.22569834 -0.31208026 0.18755864 0.61759937 0.03271783 -0.04740256 -0.036538806 0.1453222 -0.08858481 0.3092861 -0.41493446 0.2778598 -0.57668155 -0.0053875605 0.25058106 -0.21679859 -0.09847039 -0.10909032 -0.16415027
默认 -0.036913905 0.08887146 -0.062839106 -0.105559014 -0.31177846 0.14152186 -0.2892751 -0.32172513 -0.01092019 0.22556062 -0.007175026 0.03683476 0.0057119764 0.26801145 0.1564876 -0.3755863 0.022421556 -0.10767925 0.13445395 0.1627564 0.5702024 0.15705268 -0.41389427 -0.10618971 0.43753967 0.29153317 -0.11619855 -0.1430443 0.022394504 0.15682888 -0.004718316 -0.2275042 -0.29598856 0.19818142 0.5921477 0.049911812 -0.030990653 -0.05118885 0.13814674 -0.09418238 0.29243356 -0.39910305 0.27442363 -0.56704414 -0.0006805844 0.25778508 -0.20941094 -0.07811424 -0.098023 -0.16173808
一般般 -0.019629868 0.025768815 -0.027680656 -0.037460707 -0.10791975 0.058561336 -0.094148576 -0.10554535 0.002315339 0.08579313 -0.0062187905 0.019613143 0.0062243883 0.08511037 0.063175306 -0.13335717 -0.0008373526 -0.035977833 0.03884317 0.059506375 0.18273444 0.056555267 -0.14648369 -0.032302268 0.14244533 0.09655007 -0.040348876 -0.04630563 0.00051522866 0.045517392 -0.008924837 -0.07105032 -0.09087353 0.06668018 0.20732659 0.0073987194 -0.006090013 -0.0032797563 0.043678343 -0.034477074 0.095839895 -0.1327134 0.09415666 -0.1796384 0.0064570573 0.083044596 -0.07071112 -0.034188922 -0.028929899 -0.064297535
实惠 -0.020939413 0.051680215 -0.045883365 -0.08663036 -0.2203741 0.10248336 -0.18819846 -0.23919122 -0.01846732 0.16826762 0.01001373 0.018329324 -0.001085828 0.19194207 0.12279377 -0.2579559 0.009465622 -0.08084347 0.09861594 0.12675712 0.4049448 0.0993099 -0.2855963 -0.07470894 0.32590836 0.20358162 -0.09495512 -0.089937516 0.012384379 0.118060485 -0.0028099713 -0.15409344 -0.21076047 0.14217278 0.4309503 0.034397975 -0.024984088 -0.030371979 0.11052576 -0.07581372 0.22848451 -0.28019404 0.19435504 -0.39372998 -0.0091499025 0.17197545 -0.15562585 -0.060106166 -0.07532774 -0.11514266
牌子 -0.03309167 0.07346248 -0.05529015 -0.10753904 -0.2679903 0.12329113 -0.23513073 -0.28782308 -0.028129121 0.21373594 0.013233721 0.036970407 -0.014713967 0.24122682 0.13929981 -0.33433092 0.017764127 -0.09434984 0.10622133 0.134316 0.50351006 0.1325792 -0.3591289 -0.06982405 0.39454862 0.24232922 -0.11793477 -0.11691517 0.024581257 0.13296771 0.004552978 -0.18753064 -0.25591117 0.17246367 0.51121104 0.020930763 -0.039535213 -0.031494256 0.12908876 -0.07524096 0.2711159 -0.35657266 0.22810885 -0.49239758 -0.0032182063 0.21823516 -0.1816728 -0.06755356 -0.08965458 -0.13249885
第一次 -0.044802345 0.094766885 -0.07603882 -0.12507555 -0.32735455 0.16645323 -0.29592028 -0.33869326 -0.016667627 0.23736046 0.0070966193 0.041843105 -0.0003454153 0.2910053 0.1788145 -0.3949076 0.02041791 -0.095519446 0.13303387 0.17781276 0.60734254 0.15274681 -0.43466625 -0.08737904 0.46754473 0.28979868 -0.13852187 -0.12634286 0.02762019 0.15862666 -0.0073282183 -0.2458353 -0.3030644 0.19424647 0.62036216 0.03882657 -0.033955805 -0.039160408 0.14143725 -0.09988073 0.3222919 -0.43600857 0.2789776 -0.5900736 -0.0072793863 0.2515655 -0.22887826 -0.09691335 -0.11593999 -0.17798941
商品 -0.048891257 0.10400604 -0.08289081 -0.13678628 -0.36140487 0.16310757 -0.32222554 -0.37696642 -0.03640271 0.27744415 0.0077175614 0.044552278 0.0029484213 0.32242137 0.19818543 -0.4345387 0.014693805 -0.107809186 0.15766923 0.18969336 0.6496221 0.17465588 -0.4705466 -0.09759131 0.5046477 0.32640377 -0.14544873 -0.15984912 0.02609125 0.18684082 -0.0052751503 -0.26722303 -0.34341764 0.21153885 0.6897842 0.048671056 -0.04447291 -0.045960236 0.15992787 -0.1162216 0.3519793 -0.46766433 0.3103841 -0.65112996 -0.010262521 0.2750531 -0.24000964 -0.10262453 -0.12025882 -0.17846918
码数 -0.040728517 0.096121594 -0.08313526 -0.12198996 -0.33351076 0.16018762 -0.31401578 -0.35724828 -0.025948279 0.2524148 -0.0008548216 0.04878279 -0.0042727003 0.29612684 0.18167816 -0.40100586 0.031487852 -0.112566 0.13456066 0.1828895 0.6314233 0.16531147 -0.44717854 -0.096566066 0.48010987 0.32024372 -0.13497056 -0.15012844 0.025778694 0.16599247 -0.010139557 -0.24489987 -0.32325757 0.20274563 0.6601475 0.04286554 -0.037932742 -0.046660878 0.15917496 -0.106786616 0.34547573 -0.44692615 0.30258125 -0.62309486 -0.0028232362 0.26087984 -0.23450013 -0.088934585 -0.12394665 -0.18635443
舒适 -0.026810162 0.0595707 -0.065235876 -0.08355888 -0.2386774 0.11045135 -0.22019811 -0.261511 -0.029074026 0.18788143 0.0034363912 0.022933047 -0.0021392808 0.21300058 0.12795763 -0.2877696 0.018756516 -0.08271985 0.09486488 0.12856558 0.46169746 0.12373695 -0.33172324 -0.06425034 0.3455936 0.22877704 -0.09516595 -0.107037134 0.006652384 0.12858017 -0.007415704 -0.17252554 -0.2334517 0.15234691 0.47621736 0.034742855 -0.021974673 -0.02657216 0.10622516 -0.085243754 0.24648558 -0.3237324 0.20718119 -0.44374955 -0.0010671845 0.19888939 -0.17460655 -0.077903464 -0.07893181 -0.11993484
速度 -0.040507182 0.07705534 -0.069965675 -0.11512781 -0.29888698 0.13996272 -0.2779638 -0.3227452 -0.0354473 0.22968554 0.0026099654 0.034241263 -0.00038044757 0.2684197 0.15817092 -0.3676918 0.021748539 -0.09686166 0.11783838 0.15389785 0.5561439 0.13814378 -0.40682793 -0.08380469 0.43851665 0.28511715 -0.12781172 -0.13392887 0.029897535 0.15976554 0.0060518966 -0.22205141 -0.2806992 0.19575389 0.59128916 0.04186174 -0.024320671 -0.03401814 0.1454733 -0.090930484 0.30439338 -0.39032048 0.2654522 -0.56054837 -0.005618849 0.22775364 -0.2167298 -0.07892337 -0.105161496 -0.15704782
一条 -0.054767366 0.10009498 -0.10301779 -0.14892732 -0.41926554 0.20427333 -0.374252 -0.42525974 -0.032470584 0.310121 0.015759386 0.038381133 -0.005336672 0.37558162 0.23192708 -0.49694186 0.025149573 -0.12940457 0.17254311 0.22051372 0.75491965 0.2113004 -0.5495027 -0.12326735 0.59279674 0.38577452 -0.16925573 -0.17325626 0.029024076 0.20551038 0.0063119046 -0.30764815 -0.39305928 0.25531274 0.785276 0.050931156 -0.039532233 -0.057062827 0.18891767 -0.12275686 0.41910475 -0.53065544 0.36292845 -0.751537 0.005914453 0.30921164 -0.27397105 -0.12655655 -0.14376032 -0.21141268
褪色 -0.03008183 0.06983268 -0.046207935 -0.09356313 -0.23175108 0.102762476 -0.1972636 -0.23052976 -0.011586442 0.17773263 -0.0024381338 0.02334512 -0.003801379 0.20109281 0.12037907 -0.26309395 0.022682985 -0.06924257 0.09063658 0.11378284 0.41243884 0.11678472 -0.30207145 -0.05956101 0.33416685 0.20256595 -0.09838624 -0.10151456 0.012978567 0.11650883 -0.0062358417 -0.17588943 -0.21175832 0.13979505 0.43086016 0.034439195 -0.028341893 -0.029586444 0.10928529 -0.07544957 0.22721235 -0.30868995 0.19489415 -0.4176547 -0.0008198157 0.18564501 -0.14585896 -0.07019481 -0.075483456 -0.11547112
修身 -0.04189852 0.074483864 -0.07260818 -0.11707709 -0.29080525 0.14096671 -0.26162636 -0.31698838 -0.017449934 0.23185545 -0.0012035519 0.026447471 -0.014688417 0.272765 0.16047367 -0.36500216 0.010219948 -0.10090872 0.1319592 0.1613028 0.53907573 0.1445824 -0.39586458 -0.09347481 0.42669454 0.27223903 -0.12090699 -0.13330391 0.026906865 0.14446479 -0.0059894416 -0.21636707 -0.28767854 0.17255196 0.5675088 0.029766394 -0.028345285 -0.030177847 0.13143325 -0.09936646 0.29222456 -0.39768243 0.2664702 -0.53194886 0.0038140852 0.23296362 -0.2078223 -0.08109386 -0.09169283 -0.14905068
还行 -0.039627723 0.06723961 -0.061323904 -0.10096738 -0.24614127 0.12538707 -0.21802078 -0.25042066 -0.02631105 0.197069 0.009823088 0.02078953 -0.0036472606 0.22326031 0.13223039 -0.29882228 0.023572784 -0.07830197 0.11295901 0.1299724 0.45440477 0.11433356 -0.3368259 -0.06940014 0.34793118 0.23585205 -0.101797864 -0.10909052 0.010172438 0.12387458 -0.009488189 -0.17529222 -0.2352475 0.15394726 0.47548681 0.039604332 -0.027944388 -0.021993978 0.11829955 -0.071332805 0.24527863 -0.3207328 0.22140084 -0.4595071 -0.004345889 0.1912319 -0.16964507 -0.07124878 -0.08613372 -0.12190662
裤脚 -0.03853827 0.06376525 -0.065004565 -0.09094123 -0.23412313 0.11593543 -0.20602658 -0.24891987 -0.017065885 0.1767342 -0.0055033 0.035355676 0.0024317142 0.21934864 0.124213316 -0.27643156 0.015365364 -0.08488325 0.09594101 0.13472283 0.44605303 0.12244334 -0.3169192 -0.06583638 0.3453702 0.22641234 -0.09416416 -0.10396219 0.02163502 0.12768541 0.006244233 -0.16618946 -0.22989467 0.1548297 0.45372438 0.020085214 -0.03672234 -0.028823454 0.102575235 -0.06366635 0.24457537 -0.31337968 0.20267077 -0.43024394 -0.0052084858 0.18073088 -0.16011511 -0.07738244 -0.089994505 -0.12988403
便宜 -0.035734653 0.06261864 -0.0538267 -0.09453778 -0.2465967 0.12659957 -0.22267674 -0.24980435 -0.011459457 0.18853758 -0.00018076735 0.020910695 -0.00025018206 0.22315346 0.13064097 -0.29606646 0.02014455 -0.08872401 0.10711861 0.13397156 0.44587633 0.123450525 -0.32398552 -0.06544877 0.35514793 0.23319563 -0.09036441 -0.108422965 0.024969459 0.13173686 -0.002079046 -0.1825722 -0.22223392 0.14618778 0.48184264 0.023122491 -0.032710925 -0.034250848 0.11382098 -0.07399806 0.2406938 -0.32343304 0.21757074 -0.4561542 0.009467275 0.19798936 -0.16232601 -0.07679269 -0.08827745 -0.13365248
实物 -0.0437866 0.073441915 -0.073506914 -0.10888945 -0.28462452 0.1306125 -0.26546133 -0.3026046 -0.026081944 0.21274705 0.0025559172 0.028871462 -0.0099288765 0.25041264 0.15755822 -0.34149218 0.022446927 -0.08144908 0.12270643 0.16009545 0.5334642 0.14764579 -0.38849738 -0.074884385 0.40605435 0.25708345 -0.10945959 -0.11819166 0.018190106 0.13497703 -0.0047356877 -0.21401589 -0.27414906 0.16932932 0.55661345 0.030083548 -0.04021314 -0.022938758 0.13111405 -0.08396508 0.29062086 -0.37275675 0.25424418 -0.5111531 0.0036937264 0.21236491 -0.19653697 -0.075142965 -0.100589424 -0.15917683
特别 -0.030490546 0.080714524 -0.07212809 -0.118529305 -0.30711538 0.14947695 -0.26688412 -0.31629983 -0.02433629 0.23783863 0.010767877 0.028901478 -0.0067995517 0.27718917 0.16736262 -0.36589035 0.023627339 -0.09449882 0.13496356 0.16811751 0.56365854 0.14323296 -0.4076697 -0.084634036 0.42394495 0.2760256 -0.116703145 -0.11710758 0.028610129 0.14750704 -0.011027175 -0.22973895 -0.2876361 0.17775726 0.5869564 0.035602868 -0.034183532 -0.04381482 0.13695449 -0.08533973 0.29747778 -0.40246433 0.25703126 -0.5500619 -0.008788948 0.23118965 -0.21323279 -0.079241134 -0.11136892 -0.15226585
货 -0.02874989 0.060703654 -0.06246729 -0.089035645 -0.27060822 0.13176514 -0.23438707 -0.27632025 -0.02224507 0.19731228 0.005792233 0.024609955 -0.00087855925 0.2340936 0.14340861 -0.3273901 0.024048787 -0.07740377 0.120148346 0.13708287 0.4951531 0.13166149 -0.35823542 -0.06949612 0.3756421 0.23912612 -0.106813066 -0.10200353 0.01779356 0.14048937 -0.0037812714 -0.18656899 -0.25575468 0.16054878 0.5153291 0.03937819 -0.03206297 -0.019826576 0.12103522 -0.07918638 0.25804433 -0.353652 0.2360038 -0.479327 -0.005189594 0.21340851 -0.18952526 -0.08502519 -0.08092768 -0.12961952
换 -0.055363044 0.0974297 -0.092746235 -0.14126638 -0.38274714 0.18096194 -0.3488497 -0.39737618 -0.035564806 0.2818569 -0.0039830427 0.049895264 -0.0071197934 0.34116146 0.21083577 -0.44407764 0.0138871875 -0.1102439 0.15160903 0.19857174 0.6952765 0.19517864 -0.5062547 -0.11831292 0.54681325 0.3548477 -0.15422875 -0.15133545 0.029186392 0.19390123 -0.011100008 -0.2793874 -0.35903493 0.23940021 0.7266855 0.046363313 -0.051559433 -0.050151687 0.18459326 -0.11688049 0.38178387 -0.49437636 0.32935143 -0.6900019 -0.0041796607 0.29040208 -0.2531036 -0.102567956 -0.12043247 -0.19156587
发货 -0.052605838 0.12258611 -0.10559436 -0.15633757 -0.43029788 0.21088636 -0.3762691 -0.44525987 -0.03143534 0.316377 0.014049039 0.057751067 -0.007709103 0.38453203 0.23405603 -0.5181793 0.032901205 -0.13391289 0.17810443 0.22746125 0.78937006 0.21204895 -0.56848633 -0.1278149 0.61072236 0.39448938 -0.17264046 -0.18500942 0.03344686 0.22444877 0.005815159 -0.30426356 -0.3930252 0.27081645 0.82375455 0.043538526 -0.04316649 -0.0405876 0.19716732 -0.12803783 0.41824088 -0.56658 0.37967288 -0.78464854 0.0054815696 0.3279872 -0.2920816 -0.12225301 -0.15169905 -0.21322608
挺舒服 -0.023695285 0.03797711 -0.046543248 -0.061871223 -0.17728443 0.0858782 -0.16011044 -0.1793514 -0.02205383 0.14306886 0.0067850854 0.019729894 -0.009655177 0.15860972 0.09062569 -0.21937892 0.016357182 -0.06321977 0.063901976 0.08534318 0.33521506 0.08720369 -0.24015616 -0.04913638 0.26294187 0.1740747 -0.07639034 -0.07868818 0.0025253282 0.07982662 -0.0008826939 -0.12895249 -0.17063236 0.10041245 0.35089603 0.025073137 -0.022815987 -0.013980394 0.08716183 -0.053972725 0.1701132 -0.23187874 0.14526269 -0.31763878 0.00455836 0.13990048 -0.1188727 -0.058161896 -0.06589767 -0.08933151
三条 -0.036903728 0.082972154 -0.08039996 -0.11212168 -0.3080323 0.139043 -0.27026477 -0.32529753 -0.032385506 0.23102742 -0.0009519301 0.0356648 0.00078022137 0.27682725 0.17355078 -0.3730797 0.024010835 -0.09701993 0.12393298 0.15984477 0.56865764 0.14339781 -0.40760374 -0.10099195 0.44403195 0.29421198 -0.11975412 -0.12796539 0.029160611 0.15686272 -0.0015801663 -0.2238864 -0.294173 0.18432058 0.59456456 0.034290895 -0.030201364 -0.037828293 0.13435885 -0.08700953 0.2995274 -0.4098664 0.2777007 -0.564462 -0.005594468 0.23946336 -0.21611817 -0.08858788 -0.10128531 -0.15900885
商家 -0.044343296 0.117038265 -0.107645325 -0.14929365 -0.41437364 0.18678455 -0.37059146 -0.43049338 -0.031316154 0.30327737 0.003866101 0.051999435 -0.015308448 0.3715414 0.22029714 -0.49608597 0.024330238 -0.12427904 0.16237006 0.20706743 0.7585577 0.20854266 -0.54260457 -0.12137578 0.59437996 0.3824732 -0.155653 -0.17316832 0.017762579 0.20873536 0.0016284698 -0.30797857 -0.39425054 0.24892423 0.7889589 0.038261123 -0.054683603 -0.046328552 0.19599694 -0.12354944 0.39625987 -0.54218 0.35026026 -0.7398452 -0.0023905488 0.31053144 -0.2852517 -0.11809374 -0.13303073 -0.21561131
真的 -0.037755165 0.07774938 -0.05963964 -0.09716622 -0.29465187 0.14508922 -0.26117024 -0.30098397 -0.028578885 0.20953843 0.008014185 0.032435372 -0.014494739 0.25529662 0.1455639 -0.3381665 0.028241435 -0.08284077 0.1156215 0.15352228 0.524565 0.13771275 -0.38173804 -0.076097235 0.40636724 0.2688742 -0.11805337 -0.12416685 0.014069004 0.15172535 -0.00069818506 -0.2093572 -0.27493107 0.16673127 0.5565782 0.029081268 -0.031197978 -0.04066742 0.13919911 -0.09548101 0.29294097 -0.3800459 0.25318387 -0.5215977 0.007929255 0.22304317 -0.19483258 -0.089228615 -0.08945547 -0.15311937
做工 -0.044692628 0.0840527 -0.08188051 -0.11063195 -0.31761852 0.1406936 -0.27626964 -0.32122773 -0.024486484 0.22669555 0.008326774 0.036389917 -0.01349987 0.27002674 0.15605162 -0.37423578 0.017138138 -0.099597 0.13546644 0.167672 0.572214 0.15897837 -0.40813595 -0.09954645 0.44030285 0.28525993 -0.1217717 -0.13105229 0.022596465 0.15413372 -0.0049967547 -0.22044212 -0.28954753 0.19302507 0.59374267 0.04100173 -0.027763 -0.04238118 0.15201314 -0.0898449 0.30231655 -0.408704 0.26317003 -0.5652208 -0.0065230015 0.23089331 -0.21049447 -0.086651675 -0.11364376 -0.16449466
换货 -0.055865087 0.11053481 -0.10664768 -0.15738289 -0.44210088 0.2078004 -0.39886054 -0.4483877 -0.02549817 0.32606536 0.006491313 0.045889195 -0.0044928673 0.38280076 0.24136446 -0.51602775 0.032723565 -0.13753358 0.18901622 0.24104293 0.80721736 0.20854829 -0.59476393 -0.12176697 0.63432354 0.3956069 -0.18148464 -0.18960585 0.022074953 0.22391146 0.00034135123 -0.32916728 -0.40650496 0.25823173 0.8335405 0.05390947 -0.0588982 -0.04998842 0.19411601 -0.13766183 0.4347687 -0.57031447 0.37282267 -0.7872271 0.0007549578 0.3410837 -0.3039974 -0.1293078 -0.14371537 -0.2240839
手感 -0.033828937 0.0628224 -0.050659996 -0.08320806 -0.237281 0.11193471 -0.20974493 -0.24531147 -0.012795297 0.18897279 0.0014429032 0.034273986 -0.0058331364 0.20170975 0.1239288 -0.28659305 0.021705423 -0.08650624 0.10212307 0.12731548 0.4255614 0.10925349 -0.32748497 -0.06756546 0.34358934 0.22349302 -0.087598875 -0.101796634 0.022233542 0.11982393 -0.0068643987 -0.18207146 -0.22380571 0.15238315 0.4594482 0.021448448 -0.03427621 -0.022571458 0.10698204 -0.06496337 0.2350769 -0.30854464 0.19708452 -0.43120506 0.009215314 0.18260317 -0.16105594 -0.0731676 -0.08873578 -0.11813628
还好 -0.015211127 0.058940984 -0.04836632 -0.0800725 -0.2098654 0.09975464 -0.18301432 -0.20468399 -0.023146976 0.15320708 0.0013338461 0.026371501 -0.010983605 0.17309473 0.10859144 -0.25205797 0.0030070022 -0.06345781 0.092418894 0.11472817 0.36474293 0.10266841 -0.2674349 -0.068993755 0.29256636 0.17969778 -0.085260436 -0.09253773 0.0067214677 0.103770144 -0.007390446 -0.14743917 -0.18593116 0.12461372 0.39490026 0.017765986 -0.01996294 -0.013879067 0.099471845 -0.070876025 0.19732182 -0.2571385 0.17080005 -0.3693285 0.0066217473 0.16600648 -0.13260473 -0.054273933 -0.059153277 -0.11118283
两条 -0.025907317 0.04953143 -0.051924605 -0.08150213 -0.2244524 0.10770352 -0.2046385 -0.23612039 -0.012665001 0.17315136 0.0065654335 0.024607982 -0.0063108415 0.20516214 0.123227194 -0.26891273 0.01603958 -0.07948268 0.0995904 0.12569456 0.41116917 0.10607429 -0.3008302 -0.06822098 0.32326826 0.20690103 -0.08971989 -0.08243964 0.0052137296 0.107714675 0.0027680541 -0.16123782 -0.2122687 0.12448303 0.41823754 0.014453669 -0.029100813 -0.020192577 0.10767043 -0.077594236 0.22294809 -0.29139903 0.19283147 -0.40191546 -0.009350299 0.16076308 -0.14651643 -0.06675593 -0.081409894 -0.11324925
很大 -0.03149671 0.06673701 -0.061623786 -0.093277365 -0.27190864 0.13398322 -0.24980196 -0.27472883 -0.02097875 0.20612656 0.009245571 0.03171386 -0.010827862 0.24557698 0.14184943 -0.32891405 0.02338753 -0.083118305 0.104368106 0.14404087 0.5055971 0.13552098 -0.3532117 -0.07040793 0.38524237 0.2583797 -0.106913865 -0.11317562 0.011034435 0.13128582 -0.0033109372 -0.18940642 -0.2553813 0.17217182 0.5192198 0.032560878 -0.03660576 -0.029132443 0.12875527 -0.08866199 0.27507198 -0.355804 0.2420566 -0.48984736 0.002430411 0.22136985 -0.17897888 -0.08074031 -0.08634804 -0.1453131
退 -0.044046655 0.08396033 -0.08070163 -0.11581022 -0.3249697 0.1675896 -0.29561323 -0.3393994 -0.016237838 0.25101292 0.0020605675 0.03715967 -0.0013748462 0.29390016 0.17408566 -0.39388776 0.013509395 -0.109833784 0.13459946 0.17201163 0.60233414 0.17164461 -0.43300402 -0.0975802 0.46283364 0.2939666 -0.13706964 -0.14274417 0.012874001 0.16880345 -0.003099158 -0.24845779 -0.32016435 0.21217945 0.64489913 0.035540514 -0.046454154 -0.045030616 0.14986283 -0.09867313 0.3213871 -0.43070295 0.28832203 -0.6059054 -0.0050629335 0.25323042 -0.21772307 -0.09905067 -0.11133182 -0.16365314
服务 -0.036279112 0.05973585 -0.04328614 -0.08557905 -0.21740194 0.10704476 -0.19120036 -0.23100762 -0.022001088 0.16397348 0.003441645 0.030967569 -0.005746275 0.19425279 0.12641016 -0.2660231 0.02271149 -0.06770726 0.09211158 0.12274656 0.39981377 0.112690724 -0.29912466 -0.06510479 0.30180466 0.19690363 -0.09635163 -0.084607214 0.004165318 0.11158233 -0.00081016705 -0.16781543 -0.20751992 0.13714027 0.41300932 0.01876849 -0.014597969 -0.016315939 0.10619126 -0.070481755 0.20552798 -0.2917703 0.19621779 -0.4035385 0.0043573123 0.16005366 -0.14419556 -0.06590306 -0.079802066 -0.10584383
服务态度 -0.04056565 0.08068873 -0.07407842 -0.10558348 -0.3021332 0.13841867 -0.27280384 -0.31741408 -0.032869395 0.22191311 0.00036914155 0.038561057 -0.0134000555 0.26352176 0.16871205 -0.35050112 0.0146727655 -0.089774676 0.12628588 0.14889124 0.55068684 0.15336405 -0.39986637 -0.09182639 0.43687707 0.2687669 -0.114411265 -0.12785321 0.016202154 0.16069722 -0.0046061184 -0.22314906 -0.2886878 0.19198738 0.5789728 0.037757304 -0.042165864 -0.03188927 0.1458899 -0.08753273 0.30584466 -0.39081958 0.2704557 -0.55412596 0.0021685245 0.23258185 -0.20508362 -0.08724348 -0.110969104 -0.15598522
一如既往 -0.043538794 0.079852544 -0.062217508 -0.10843969 -0.29539695 0.15641864 -0.2799437 -0.32221717 -0.021056984 0.22862935 -0.0036209933 0.035951972 -0.017460901 0.26130372 0.157329 -0.36269405 0.03028828 -0.10682845 0.11539511 0.14946052 0.55091065 0.14244875 -0.38882908 -0.09818874 0.4162475 0.27259192 -0.10568102 -0.12229996 0.013195587 0.14911155 -0.004643973 -0.22957315 -0.28195834 0.16526535 0.5719303 0.022712605 -0.026231738 -0.03932697 0.13595924 -0.08329902 0.3093123 -0.381091 0.2469855 -0.54561454 -0.008939844 0.24087158 -0.20578107 -0.08087827 -0.09097827 -0.14680535
性价比 -0.0345967 0.08180731 -0.05956053 -0.10280188 -0.28611556 0.1413374 -0.25661582 -0.3029405 -0.01969515 0.21579683 -0.0023828673 0.026579998 -0.008615631 0.25810117 0.15385048 -0.3404478 0.01727844 -0.091838546 0.12069846 0.15611978 0.5198629 0.13197659 -0.36785677 -0.08578678 0.4088715 0.26461285 -0.10848667 -0.11107356 0.015265493 0.1473609 0.005611576 -0.19557726 -0.2568813 0.16854613 0.54705447 0.037861045 -0.026645843 -0.036969237 0.13367954 -0.08669174 0.27117482 -0.37548307 0.24491139 -0.51388896 -0.0064025843 0.21418329 -0.19817758 -0.075073354 -0.08704898 -0.14585875
紧 -0.025635611 0.063172124 -0.05487692 -0.08868908 -0.2288995 0.10360143 -0.20740214 -0.23680656 -0.019585352 0.18078496 0.009247974 0.0233256 -0.009653077 0.20181714 0.13298379 -0.27333948 0.012349969 -0.0725735 0.09334682 0.115408495 0.4286955 0.11508464 -0.31190214 -0.07133812 0.34149367 0.21726438 -0.09402223 -0.10453187 0.013711417 0.12545903 0.0019819667 -0.16239578 -0.23175889 0.14088246 0.4486817 0.017809402 -0.03749116 -0.026949545 0.103792004 -0.07832791 0.23800996 -0.3058381 0.20816928 -0.42670116 -0.0053956993 0.18302488 -0.16018356 -0.07666476 -0.0842885 -0.1279808
态度 -0.046541344 0.10415674 -0.08012948 -0.12282863 -0.35445297 0.1819299 -0.31828737 -0.37505686 -0.021059966 0.27870446 -0.0025127507 0.03891033 -0.0008424811 0.3288104 0.19700949 -0.43799013 0.023106787 -0.11692189 0.1457253 0.18178053 0.65896624 0.17939132 -0.48784348 -0.110453896 0.50787324 0.33429596 -0.14512956 -0.1409602 0.015478201 0.18153088 0.0027044688 -0.25554553 -0.32842967 0.21937023 0.6972612 0.037255824 -0.039106045 -0.04683072 0.16380055 -0.103044756 0.3457215 -0.4710676 0.31668937 -0.65313476 0.0014215746 0.26924157 -0.24524862 -0.11222837 -0.12232359 -0.18693408
想象 -0.016735218 0.050058205 -0.05062217 -0.051392138 -0.17106853 0.08561365 -0.15650712 -0.18051282 -0.020594794 0.133061 -0.007918063 0.025019318 -0.0051258896 0.14837395 0.08730825 -0.19909321 0.006588549 -0.049838837 0.07580697 0.080887206 0.3191391 0.07678664 -0.23058079 -0.05419056 0.23486675 0.16275278 -0.066544674 -0.07106998 0.014622609 0.075662225 -0.0009899162 -0.1292138 -0.1540077 0.10214868 0.3174361 0.012327281 -0.019821446 -0.02828444 0.07297645 -0.04138046 0.16411114 -0.23150119 0.13611847 -0.30720255 -0.00085187005 0.13621798 -0.11394925 -0.050257325 -0.05419991 -0.096917465
慢 -0.024818037 0.067989044 -0.06324853 -0.08286917 -0.23460966 0.119783655 -0.2189232 -0.25498426 -0.020797929 0.17461263 0.0043672677 0.027958611 -0.011782999 0.20056133 0.12220548 -0.27376565 0.020425841 -0.078455 0.09725625 0.11589798 0.44084704 0.113885865 -0.31157088 -0.07186628 0.3369891 0.21841423 -0.08767509 -0.10075841 0.017579641 0.10782248 0.00885554 -0.16877955 -0.22635677 0.14784458 0.455378 0.024680624 -0.024518523 -0.029731916 0.10289016 -0.06730623 0.23690815 -0.3030183 0.20539725 -0.43408766 -0.0041333106 0.18250243 -0.15567125 -0.06791002 -0.0792859 -0.12869284
尺寸 -0.035153877 0.0733696 -0.06801576 -0.10019152 -0.27229112 0.136398 -0.25393313 -0.28070113 -0.020299701 0.2189918 -0.0003395708 0.03830544 0.003509528 0.25259945 0.14685135 -0.32636127 0.015125092 -0.07981428 0.10848177 0.15009472 0.51481956 0.13098848 -0.38027686 -0.09010155 0.40111852 0.26371074 -0.106611006 -0.12393809 0.008702951 0.14627059 -0.0112277 -0.20665853 -0.26361147 0.1639934 0.53529656 0.036501337 -0.03703715 -0.02811142 0.13367663 -0.080713406 0.27751145 -0.36620653 0.24819095 -0.5131351 -0.002422339 0.21779737 -0.19070977 -0.07812388 -0.08508455 -0.1387716
未 -0.03661191 0.078725144 -0.08306724 -0.11891869 -0.3183663 0.16526577 -0.28075877 -0.34745198 -0.024738293 0.25208876 0.009792466 0.045131993 -0.007614034 0.29173595 0.16544534 -0.38230696 0.031028287 -0.093788505 0.1370606 0.17567198 0.6006475 0.16321988 -0.44060358 -0.10052935 0.46810946 0.29542583 -0.119765885 -0.13037787 0.011691903 0.1612327 -0.0037252733 -0.23469716 -0.30995974 0.20409347 0.6212478 0.046275247 -0.036818974 -0.048459023 0.14487413 -0.10810373 0.30515537 -0.41740045 0.28192815 -0.57669055 -0.005792559 0.25641245 -0.21134453 -0.09091358 -0.09823474 -0.17577359
划算 -0.036114834 0.06682714 -0.06337319 -0.08851589 -0.24236232 0.1062567 -0.21784116 -0.24031876 -0.027410982 0.17676361 -0.0027426612 0.023449678 -0.013017907 0.20661977 0.12662801 -0.2911008 0.023692984 -0.066622436 0.08896393 0.12998302 0.4362403 0.11135503 -0.3200487 -0.07100421 0.34429437 0.2191046 -0.08586002 -0.10743461 0.024905976 0.11224535 -0.0048323656 -0.17857589 -0.2130258 0.13511744 0.45119596 0.033217695 -0.032317724 -0.03282719 0.104942724 -0.07318466 0.22840686 -0.30758312 0.21054101 -0.43533424 -0.007886965 0.19083492 -0.16111015 -0.05905663 -0.087267734 -0.1257509
点 -0.041708957 0.06576519 -0.06250772 -0.08990052 -0.2586048 0.12956522 -0.23273376 -0.25959185 -0.02803594 0.18430023 -0.0034577788 0.037476838 0.0012786005 0.22570172 0.13477744 -0.29583746 0.00854757 -0.07475742 0.09458588 0.13167709 0.46328557 0.12878275 -0.33686176 -0.07977849 0.3555445 0.22617349 -0.108991615 -0.10620161 0.013914111 0.115082934 -0.0012382197 -0.1901521 -0.23260468 0.15440962 0.47837076 0.03747544 -0.038826585 -0.024711072 0.114512585 -0.0717427 0.2544822 -0.33552325 0.22121297 -0.45577618 -0.004814309 0.20122479 -0.16247855 -0.063817225 -0.08696804 -0.13218012
长 -0.031827718 0.07677602 -0.068015054 -0.1081142 -0.27804813 0.1306693 -0.24667662 -0.26776177 -0.014801037 0.19840199 0.01471467 0.030270915 -0.014370973 0.23548451 0.15199779 -0.3146784 0.010008586 -0.09347149 0.118492045 0.13154292 0.48632568 0.121410936 -0.3599306 -0.08224917 0.37340575 0.24993756 -0.11255973 -0.102767915 0.008586917 0.1357705 0.0053571346 -0.19779415 -0.2518573 0.15585473 0.52194434 0.031252105 -0.036147293 -0.033458088 0.1250922 -0.091335215 0.2730134 -0.34875152 0.22922581 -0.4932032 0.0028596797 0.20512553 -0.17479938 -0.08614876 -0.092570476 -0.13186264
优惠 -0.023307974 0.059911784 -0.051727824 -0.090826936 -0.2301524 0.11776504 -0.21309873 -0.24529518 -0.022893624 0.1830513 0.00472145 0.017414296 -0.0070869704 0.20612976 0.12677984 -0.28231514 0.024381746 -0.08036347 0.095038086 0.13263641 0.42429864 0.108090386 -0.30987316 -0.06956638 0.3374762 0.21059449 -0.09595979 -0.08819213 0.015540307 0.109411865 9.515025e-05 -0.16696653 -0.22340035 0.13933396 0.44457534 0.021920238 -0.032126363 -0.019888323 0.10407541 -0.0677065 0.24292362 -0.3128296 0.20392583 -0.42866942 -0.005750853 0.18172999 -0.16774471 -0.059197802 -0.07351725 -0.12099368
信赖 -0.01667215 0.051380932 -0.031110562 -0.051796306 -0.1634504 0.0886863 -0.1593557 -0.17593497 -0.006535727 0.13338228 0.004308533 0.012444647 -0.0092099 0.14308673 0.091529764 -0.19681428 0.016687172 -0.0648819 0.06089909 0.088056155 0.320058 0.08113654 -0.22669427 -0.042428926 0.24654944 0.1607648 -0.062449444 -0.06259491 0.0042598033 0.08299977 0.006337903 -0.12067505 -0.15203401 0.10348747 0.33123273 0.017047934 -0.014553823 -0.025409801 0.077311546 -0.061399724 0.17605892 -0.21909456 0.14008622 -0.30065155 0.00048182806 0.12869546 -0.11069191 -0.048165042 -0.053667992 -0.08055398
想 -0.028623719 0.0813934 -0.072855465 -0.10444824 -0.2807597 0.14477871 -0.2567957 -0.2963829 -0.013070153 0.22754717 0.0025369145 0.034274384 0.0028734838 0.26283827 0.15473534 -0.35134923 0.022802766 -0.09136629 0.1302199 0.16015922 0.53522533 0.1382039 -0.38545358 -0.08872664 0.41923803 0.261588 -0.11019333 -0.12681523 0.026401859 0.15202972 0.008324211 -0.2116826 -0.27818057 0.18565772 0.5534867 0.025170827 -0.028571196 -0.043206826 0.12402929 -0.09483117 0.2814709 -0.38962162 0.2622014 -0.52017564 -0.00030055596 0.21917552 -0.20407999 -0.09003577 -0.09515736 -0.14676504
偏小 -0.031881865 0.05230869 -0.056075964 -0.07869526 -0.23270793 0.10920011 -0.21135375 -0.22925267 -0.023492116 0.17031297 0.0070998394 0.020939084 -0.0028867882 0.20086734 0.11131791 -0.27717617 0.022385081 -0.07236581 0.09380472 0.11470605 0.4078802 0.11826078 -0.29725325 -0.075460084 0.3214423 0.21493144 -0.08432799 -0.098056525 0.019324407 0.10799251 0.00409705 -0.17300601 -0.21523951 0.1267089 0.43612117 0.016561512 -0.017148444 -0.033536326 0.11108923 -0.07056686 0.22864538 -0.28818324 0.20076808 -0.40276742 0.0057592946 0.18441586 -0.15157886 -0.06436119 -0.067543805 -0.11705283
厚 -0.017888194 0.056715872 -0.03366193 -0.07100303 -0.17099062 0.07524086 -0.16460192 -0.1880251 -0.010887395 0.14098372 -0.0048458218 0.016515069 0.0030025076 0.1544722 0.088009275 -0.21142498 0.0055510895 -0.058332134 0.08084542 0.09975469 0.3349535 0.08595698 -0.23592232 -0.046916205 0.2500802 0.17226627 -0.06965139 -0.0759469 0.013652084 0.09670662 -0.0037145494 -0.12879907 -0.17041102 0.11356504 0.33386332 0.025084943 -0.020630337 -0.027648175 0.086470224 -0.05089293 0.18411396 -0.23964445 0.15745868 -0.31328872 -0.00453639 0.13891119 -0.1154587 -0.049939938 -0.06716129 -0.089447446
用户 -0.029783988 0.058302652 -0.07200864 -0.09825984 -0.2713939 0.12873149 -0.23246643 -0.27684745 -0.009719442 0.2051412 -0.0047966857 0.032559432 -0.012401592 0.24411364 0.13628003 -0.32276535 0.023082562 -0.09178359 0.11667197 0.14726576 0.4999993 0.13986024 -0.34906363 -0.073401086 0.38274315 0.25444415 -0.10292901 -0.10692228 0.008163214 0.13934483 -0.012045761 -0.18728957 -0.24989733 0.17646927 0.51569813 0.036943614 -0.033467915 -0.029725129 0.12682205 -0.08657616 0.25456882 -0.35142776 0.22321934 -0.4833391 -0.0018484927 0.22056386 -0.19187146 -0.07223709 -0.09747805 -0.14901346
填写内容 -0.0026102094 0.023422731 -0.016742915 -0.039644606 -0.09355222 0.043482874 -0.07517233 -0.09132606 -0.0065740477 0.06766369 0.013190322 0.0011146265 0.0077401353 0.07034304 0.038511574 -0.10604122 0.009827842 -0.028599797 0.03669468 0.03767764 0.16458991 0.04942864 -0.11600739 -0.028802812 0.1410166 0.07706651 -0.041421957 -0.0336061 -0.00345861 0.038731635 -0.0056207133 -0.064839095 -0.07801217 0.06500162 0.18583149 0.020815281 -0.0008125982 -0.011345843 0.04322902 -0.030673027 0.09207191 -0.12400946 0.08116296 -0.15305431 -0.009003722 0.07736065 -0.06913237 -0.017125526 -0.024541343 -0.052571688
推荐 -0.028260974 0.048879337 -0.037170786 -0.05633873 -0.18258005 0.08840249 -0.16448376 -0.19276638 -0.021690562 0.14212789 -0.004846537 0.014549269 0.005410385 0.15489863 0.10054412 -0.20785768 0.0019022812 -0.061283108 0.082590684 0.10170056 0.33901185 0.09821485 -0.24219997 -0.06258143 0.2667579 0.16936603 -0.079186685 -0.07086975 0.019440925 0.100144476 0.009074894 -0.13824514 -0.16091074 0.11034737 0.3545449 0.019045996 -0.018373976 -0.015513458 0.08818635 -0.05638822 0.1707971 -0.24034046 0.15132336 -0.33406112 0.009510315 0.14708628 -0.13293402 -0.04134085 -0.064493366 -0.100283355
太慢 -0.013708109 0.03445285 -0.037830774 -0.04529472 -0.16147919 0.083008796 -0.13610174 -0.16363555 -0.009627081 0.122250624 0.010410954 0.025789429 -0.0076010334 0.13562474 0.083900966 -0.1732506 0.0069913357 -0.056575082 0.063928775 0.08974348 0.27778646 0.08301164 -0.2067134 -0.036373414 0.21359529 0.14401506 -0.06992855 -0.06721418 0.018591557 0.065689236 -3.297095e-05 -0.104626544 -0.15059154 0.10199255 0.28070614 0.02805737 -0.010656537 -0.018177463 0.080329604 -0.041858092 0.1408935 -0.1999947 0.12525935 -0.2731882 -0.006362957 0.11834956 -0.10890511 -0.04348073 -0.05645077 -0.086580396
条 -0.018216178 0.05630628 -0.03892085 -0.05473122 -0.1739252 0.0915634 -0.1533576 -0.17519303 -0.0077175135 0.12475838 -0.004159864 0.011773542 0.0069493307 0.16492201 0.094981216 -0.22185333 0.00970798 -0.05939804 0.07451267 0.08574108 0.31739455 0.08479822 -0.24113202 -0.045931093 0.25434178 0.15673609 -0.07482367 -0.06563583 0.0067532645 0.08651777 -0.002424749 -0.1386335 -0.16019812 0.117299095 0.33974656 0.020730777 -0.016466167 -0.025942916 0.07870546 -0.050447788 0.1756601 -0.23981401 0.15422453 -0.33027098 0.0066162595 0.1455201 -0.1247435 -0.043682422 -0.059547246 -0.092273094
建议 -0.037075322 0.08385853 -0.08050372 -0.120831236 -0.31159502 0.15284157 -0.29486352 -0.32296738 -0.022151044 0.23709476 -0.0009220781 0.03206163 0.0021398119 0.27923346 0.16443193 -0.38618788 0.022996306 -0.09802979 0.12546985 0.16534396 0.5823298 0.16471334 -0.42596838 -0.10281036 0.45849347 0.28847787 -0.12364408 -0.13285375 0.014673079 0.15325335 -0.009269254 -0.22711362 -0.30164772 0.18950282 0.6043788 0.04278561 -0.039368883 -0.044139177 0.15135556 -0.09901887 0.3182914 -0.42348507 0.2808115 -0.58211803 -0.0040207915 0.25341386 -0.21163541 -0.08861809 -0.109185584 -0.1612742
这家 -0.030354321 0.058960192 -0.040040135 -0.06896087 -0.21148004 0.10864449 -0.19495332 -0.21506897 -0.019048382 0.15487522 0.005327095 0.025456704 0.0020330497 0.17852575 0.101754345 -0.24415317 0.019215245 -0.07051767 0.084749304 0.11846296 0.38172233 0.09963353 -0.28178406 -0.05679373 0.29300603 0.19817035 -0.089869015 -0.08063875 0.021423971 0.110716924 0.00035180218 -0.14257169 -0.18738087 0.12482556 0.3968663 0.028302753 -0.028691731 -0.014116352 0.098873734 -0.065298766 0.2065319 -0.28071246 0.16991161 -0.3833602 0.005729831 0.15429807 -0.13311371 -0.055778395 -0.06929484 -0.10614548
送 -0.016262386 0.053622752 -0.04765449 -0.07473314 -0.2100275 0.10281743 -0.18337771 -0.21752498 -0.0182815 0.16448179 -0.0063045174 0.019224072 -0.0090769725 0.19378254 0.11767469 -0.24947052 0.013228648 -0.06853705 0.096234605 0.11591617 0.37423456 0.091137916 -0.27685112 -0.0707928 0.2947452 0.18855248 -0.079597525 -0.09056587 0.0099295275 0.100889005 0.0004476812 -0.15443432 -0.20220987 0.11786787 0.39690664 0.025116052 -0.030142939 -0.025099969 0.08761993 -0.0555123 0.21344991 -0.27742806 0.1857547 -0.37481558 0.006582269 0.15810825 -0.1494602 -0.06326665 -0.068497404 -0.10321304
宝贝 -0.0403884 0.06981933 -0.072847255 -0.10763306 -0.27650246 0.13938601 -0.25018576 -0.27973962 -0.019391263 0.21858543 0.011496739 0.03934596 -0.013011591 0.236948 0.14651625 -0.32545057 0.0096097505 -0.08747171 0.12323414 0.14901026 0.51185423 0.13582496 -0.36499742 -0.08918717 0.40261218 0.25680524 -0.11710006 -0.12648825 0.014342992 0.1460103 0.008804124 -0.21153699 -0.25446007 0.1685733 0.52440494 0.030856654 -0.04131574 -0.028315041 0.118404076 -0.08549399 0.2740824 -0.36735255 0.24149738 -0.50599587 -0.007200087 0.21925507 -0.18640123 -0.07502256 -0.0970413 -0.13544457
真 -0.019511148 0.056197003 -0.034004714 -0.0754059 -0.17945452 0.08229414 -0.16287373 -0.19647662 -0.017717298 0.1462922 0.010362675 0.02369327 -0.0034978392 0.17145826 0.08830135 -0.21414392 0.00902559 -0.065509476 0.070436604 0.088769354 0.340301 0.08058681 -0.24576686 -0.048427828 0.26662558 0.1761982 -0.07889172 -0.07502554 0.017132444 0.100753784 0.007450299 -0.13528769 -0.16218434 0.11928004 0.35400468 0.01816765 -0.0159767 -0.01144023 0.08723919 -0.05952529 0.17823565 -0.24193005 0.16459279 -0.33574417 0.0071482626 0.1369701 -0.11520669 -0.048654906 -0.05417368 -0.1004013
不想 -0.021427957 0.05581117 -0.06599971 -0.07941383 -0.229403 0.11937243 -0.21908237 -0.25607416 -0.009643877 0.18092756 0.008127783 0.026724065 -0.0038947414 0.20568143 0.13674401 -0.28741512 0.011161986 -0.0730413 0.0983748 0.12488073 0.44674754 0.11590159 -0.3147908 -0.076202765 0.35070798 0.22023688 -0.08728909 -0.108864136 0.0116186375 0.12204095 -0.001911188 -0.18123733 -0.23061882 0.14362456 0.46667773 0.020290347 -0.030293953 -0.021039922 0.12029294 -0.06741263 0.2345311 -0.32342923 0.19845435 -0.4386613 0.0028058917 0.19300762 -0.16578372 -0.07354816 -0.07610404 -0.12499687
试穿 -0.035971936 0.062450267 -0.053696327 -0.08728059 -0.24415495 0.12263539 -0.2238118 -0.25827244 -0.010192431 0.17062126 0.0066759204 0.035245996 -0.01250946 0.22192787 0.13320397 -0.29247406 0.009206606 -0.08372241 0.10529974 0.12388781 0.43543613 0.12177372 -0.31452847 -0.061151166 0.33913258 0.21599163 -0.09654311 -0.10981075 0.014652919 0.11882232 0.0010257472 -0.16546229 -0.23310697 0.13817693 0.4610665 0.032628648 -0.031211039 -0.030113287 0.10668814 -0.07563363 0.22653157 -0.30807588 0.21161868 -0.4411072 -0.0073098545 0.17726554 -0.16513403 -0.07589332 -0.084202655 -0.11992706
裤腿 -0.041239288 0.07260716 -0.05195283 -0.083170876 -0.2533244 0.11307595 -0.22233199 -0.26002452 -0.019339835 0.17980847 0.009192032 0.033671167 -0.0034705908 0.21945703 0.12385185 -0.2878247 0.024409177 -0.07979627 0.10624506 0.12400086 0.44327813 0.12639323 -0.33983055 -0.065653145 0.34831607 0.23282424 -0.09189327 -0.10272828 0.01791977 0.115669236 -0.006276995 -0.18774946 -0.2343887 0.14015123 0.46744454 0.022583324 -0.036289588 -0.024376739 0.11576769 -0.07691459 0.23755455 -0.3240299 0.2233635 -0.44068843 0.0013532726 0.18875542 -0.16452387 -0.06255516 -0.093451545 -0.13723668
第二次 -0.019419104 0.03438595 -0.041464347 -0.038313154 -0.13443078 0.069107816 -0.1185855 -0.13184379 -0.013264577 0.09236857 0.004672331 0.019518225 0.0007311619 0.124873824 0.07423503 -0.15028012 0.009988846 -0.035207354 0.053191345 0.078443356 0.24075465 0.06510761 -0.1795451 -0.041337825 0.18848246 0.1114448 -0.057754416 -0.04447104 0.0031265353 0.06561001 0.0047354624 -0.09490964 -0.113236986 0.07389073 0.25663865 0.021613335 -0.016975995 -0.022096042 0.06471606 -0.0422361 0.1286606 -0.16471662 0.1136976 -0.2408991 0.0046327715 0.09254613 -0.09559945 -0.04142327 -0.04164979 -0.07116161
系统 -0.039833933 0.06585441 -0.07085655 -0.10561495 -0.30227458 0.13353275 -0.25507653 -0.31093857 -0.013287351 0.2162729 0.015386689 0.0232419 -0.008624303 0.26109964 0.14644812 -0.35066494 0.024049027 -0.08423864 0.13372354 0.1458095 0.5282225 0.15448585 -0.39685485 -0.082283854 0.41063058 0.2662425 -0.115349226 -0.13110672 0.016694622 0.15018135 -0.009076909 -0.20516974 -0.2733967 0.18893078 0.5524362 0.03373883 -0.023624599 -0.027875597 0.13867427 -0.0931509 0.2719853 -0.38422093 0.2456146 -0.5105493 -0.01605134 0.23816732 -0.20415568 -0.08743994 -0.104671665 -0.15770349
还会 -0.033812303 0.043394163 -0.050016653 -0.063099705 -0.20253727 0.08558183 -0.16749598 -0.20093317 -0.010963722 0.15324982 -0.001809763 0.028188424 0.007298068 0.17307653 0.09908465 -0.22421995 0.013410722 -0.066970274 0.077831276 0.10125205 0.3528141 0.0917166 -0.25885648 -0.055665664 0.2782239 0.1853852 -0.08692378 -0.08276286 0.004168195 0.088601455 0.0023770793 -0.14773689 -0.17322281 0.123127945 0.37095433 0.013651745 -0.021611638 -0.026793482 0.08273012 -0.055549346 0.18375425 -0.25726792 0.15839282 -0.350278 -0.0089447005 0.15080106 -0.1375505 -0.056932352 -0.060666725 -0.10642874
30 -0.039786737 0.07320239 -0.07699799 -0.11734039 -0.30127275 0.15297104 -0.26774746 -0.31387267 -0.01849567 0.2307963 0.0014105777 0.040602554 0.0035831095 0.26395246 0.15377018 -0.35523084 0.015476215 -0.09422893 0.13294265 0.14984752 0.5588109 0.14270407 -0.40987298 -0.08208575 0.42616624 0.2738242 -0.1117082 -0.11768469 0.009773823 0.15408482 -0.009909554 -0.20713711 -0.2710104 0.17239681 0.57796574 0.025628235 -0.046558805 -0.026364183 0.14399195 -0.0894256 0.28562263 -0.4007655 0.26356003 -0.5342919 -0.010882628 0.22829361 -0.20305714 -0.08788255 -0.09733058 -0.1557786
退货 -0.04162517 0.07533611 -0.06680469 -0.09872749 -0.24699739 0.12497687 -0.23701577 -0.25386426 -0.019669244 0.18301171 0.012542251 0.027005855 0.0029297492 0.23501995 0.13762729 -0.31417271 0.01877848 -0.086689845 0.11197174 0.1287848 0.46296465 0.1253015 -0.33911633 -0.08006674 0.3606062 0.22742958 -0.10964627 -0.105407305 0.020003542 0.12895957 0.0074274153 -0.1916097 -0.2463158 0.15329209 0.49616638 0.033009257 -0.027577197 -0.027224917 0.12204866 -0.07151848 0.24553482 -0.34088227 0.22407602 -0.4655273 -0.008368401 0.20478071 -0.18103622 -0.07695623 -0.08974457 -0.13619708
掉 -0.029003786 0.0533347 -0.042995833 -0.071314 -0.17687815 0.09401768 -0.17060885 -0.19548503 -0.01804639 0.14655182 0.0079231355 0.03032929 -0.00015484709 0.1718634 0.10319107 -0.22832511 0.009563138 -0.051123053 0.08416144 0.09142102 0.33209863 0.08515434 -0.2545486 -0.06146781 0.26335096 0.16866249 -0.06981271 -0.08009135 0.014131393 0.09659228 -0.00590724 -0.14217058 -0.1674695 0.10408499 0.34958276 0.013375745 -0.012467993 -0.02269987 0.075805 -0.048685472 0.18811782 -0.24463727 0.16060816 -0.33398956 0.0036967027 0.13910553 -0.124339655 -0.047757175 -0.061950885 -0.103352964
一码 -0.03199257 0.06215817 -0.06817317 -0.10598106 -0.27182454 0.123662055 -0.24545464 -0.2808316 -0.0108386595 0.1907349 0.014483761 0.020532545 -0.0030814472 0.23881371 0.13723661 -0.32617843 0.023773277 -0.09349515 0.10897538 0.1428644 0.48625943 0.13369235 -0.35532612 -0.08017757 0.37360984 0.24561238 -0.099587075 -0.11808057 0.009911661 0.13143478 0.0019268887 -0.19373538 -0.26060304 0.16698873 0.51373243 0.020222543 -0.0353851 -0.03182339 0.115810044 -0.08323729 0.26299393 -0.35645753 0.23398535 -0.47890472 0.009313936 0.21361837 -0.19001107 -0.08590776 -0.08111853 -0.13965282
支持 -0.02183469 0.03323742 -0.031684104 -0.047567703 -0.14980201 0.069207184 -0.12568057 -0.15455155 -0.0067857564 0.101053745 0.0074865962 0.018684799 -2.3214088e-05 0.1266982 0.08129646 -0.18184325 0.01109968 -0.048230745 0.057380874 0.08418388 0.26343313 0.07164548 -0.1893778 -0.049253087 0.20165522 0.1274952 -0.06671539 -0.06667222 0.0045875637 0.08111651 0.00092644966 -0.10011254 -0.14093982 0.08944041 0.2814757 0.024200877 -0.01635282 -0.026324345 0.0614867 -0.037445325 0.14245585 -0.18892853 0.13209668 -0.26611942 0.006559493 0.12029753 -0.107524715 -0.042112354 -0.047955304 -0.07744866
摸 -0.01793543 0.050276436 -0.028682116 -0.051569916 -0.15799661 0.070101954 -0.14022428 -0.1709218 -0.017572979 0.1283151 0.00089205586 0.021104233 -0.00445043 0.1519824 0.08321325 -0.18508574 0.010870779 -0.055055495 0.06806012 0.0870866 0.29854462 0.08252975 -0.21621738 -0.05346414 0.22407956 0.14484046 -0.07023481 -0.07679427 0.0127361035 0.083982974 -0.0014602122 -0.10904744 -0.15981126 0.092489965 0.3151923 0.015242836 -0.024828872 -0.014294109 0.074050434 -0.042319663 0.16358903 -0.20658419 0.1483014 -0.2982589 0.0064870794 0.11715063 -0.1146028 -0.036677208 -0.06368187 -0.08150891
适合 -0.012221353 0.03359845 -0.040727656 -0.058249533 -0.16189629 0.07839902 -0.15168247 -0.16477375 -0.019057518 0.11523051 0.01215134 0.023794737 -0.010257577 0.14619057 0.09536688 -0.20092037 0.013080448 -0.058024503 0.06507766 0.074988015 0.28606603 0.07665349 -0.20448226 -0.05048136 0.2280135 0.14092167 -0.065852806 -0.058914572 0.004678056 0.07329273 0.004703131 -0.112260565 -0.14199843 0.09874845 0.30736795 0.021523569 -0.0153786745 -0.027031869 0.079563506 -0.047296263 0.14895554 -0.21886012 0.14716274 -0.28122506 0.0026992622 0.12211104 -0.099534795 -0.046306092 -0.050182313 -0.08598432
深蓝 -0.034556996 0.079133086 -0.07103476 -0.08725244 -0.25962257 0.12447363 -0.23952264 -0.26450357 -0.025900537 0.1899619 0.009248126 0.03425088 -0.006447835 0.23733628 0.14357305 -0.31668496 0.009436133 -0.08877629 0.1014912 0.14244294 0.47366413 0.12379747 -0.3534088 -0.080838576 0.37628046 0.24170251 -0.09830206 -0.099679396 0.026159186 0.12331557 -0.008716718 -0.18346156 -0.25193387 0.15465085 0.4971042 0.021336645 -0.026993547 -0.034831084 0.112043574 -0.08654779 0.26611987 -0.343864 0.2178184 -0.47241166 -0.0014842128 0.20182352 -0.17637405 -0.066898614 -0.08719127 -0.14307593
差距 -0.017133169 0.042201366 -0.027155094 -0.043169286 -0.1386278 0.07259011 -0.11685812 -0.13837755 -0.008269762 0.09845774 -0.0018252583 0.020043006 0.007246154 0.11157971 0.062463146 -0.14719926 0.006505847 -0.03927893 0.059787937 0.059834357 0.24154466 0.064819954 -0.16483611 -0.03841267 0.17515177 0.118749164 -0.043892443 -0.0471884 0.012909756 0.06653579 -0.0068268944 -0.09484979 -0.13045296 0.07916007 0.24465372 0.011623173 -0.011930241 -0.01782821 0.065565065 -0.03194141 0.13627571 -0.1757026 0.117974676 -0.22859398 -0.0028604022 0.10217907 -0.08270761 -0.044532757 -0.03953276 -0.06199194
问 -0.038740475 0.097682886 -0.08586912 -0.113028534 -0.3319698 0.15904728 -0.31428233 -0.34772018 -0.021499079 0.24677515 0.0056590266 0.041677002 -3.4184595e-06 0.29535434 0.18936394 -0.41489765 0.012588326 -0.10250187 0.14645919 0.17213087 0.6306096 0.1752211 -0.44663382 -0.10732621 0.48756203 0.3213638 -0.13250133 -0.13742238 0.01868619 0.16742711 -0.00025890543 -0.24772866 -0.32263193 0.217805 0.6514037 0.045341138 -0.037286814 -0.044801958 0.16606806 -0.10329066 0.3346187 -0.44522092 0.30352122 -0.6281388 0.004089582 0.27278012 -0.23562983 -0.10088741 -0.11070358 -0.17835173
填写 -0.039053302 0.0690991 -0.07835198 -0.11571271 -0.3125847 0.14544997 -0.28884715 -0.3249511 -0.012336055 0.23377953 0.0061292807 0.030772995 0.0034600182 0.27555293 0.15763852 -0.37231773 0.029465545 -0.10175776 0.14377588 0.1766363 0.59232986 0.15193336 -0.42444927 -0.09865356 0.45378208 0.28092474 -0.13117425 -0.131522 0.018648598 0.1547756 -0.0047213105 -0.22811663 -0.2906562 0.19233511 0.5939162 0.05142723 -0.021797348 -0.04400889 0.14793548 -0.097263336 0.30321938 -0.4180811 0.2692112 -0.572887 -0.0044022133 0.24352828 -0.21895957 -0.095444 -0.098626755 -0.16083229
内容 -0.031268485 0.06944616 -0.06711015 -0.095120065 -0.29387113 0.14927395 -0.26632416 -0.30207086 -0.009234023 0.2300763 0.007292964 0.02907253 -0.011970105 0.26236612 0.15785553 -0.34966055 0.032427613 -0.08570936 0.12491597 0.15048441 0.5352554 0.14087716 -0.39391163 -0.096969575 0.4199421 0.26013866 -0.10812713 -0.1239024 0.008165762 0.1533323 -0.008362391 -0.21581475 -0.28186202 0.1923236 0.55542076 0.049015973 -0.024661757 -0.042780977 0.12964617 -0.09996935 0.27234638 -0.38272792 0.24697809 -0.5220383 -0.011101869 0.23077625 -0.19705857 -0.08118601 -0.097430736 -0.16007097
描述 -0.013897136 0.042824026 -0.045747083 -0.062062282 -0.17272429 0.083261155 -0.15757021 -0.17370033 -0.020110622 0.12887791 -0.0033246907 0.023821114 0.002725366 0.14468196 0.0887431 -0.19167525 0.0069129155 -0.05774486 0.07167056 0.09184165 0.31611842 0.07947015 -0.23457403 -0.053912602 0.24231209 0.15515363 -0.07649751 -0.07541516 0.018728433 0.08638952 -0.0100482665 -0.11320345 -0.16171081 0.101466246 0.31422216 0.014088326 -0.025914159 -0.023469856 0.08674827 -0.046336222 0.16009055 -0.21534182 0.13664089 -0.3021752 0.006853777 0.13047335 -0.11908562 -0.041527234 -0.048402037 -0.09595902
款 -0.038539134 0.07237204 -0.05713141 -0.105321065 -0.2712725 0.12412994 -0.2515441 -0.29044873 -0.016885977 0.20775509 0.014085764 0.038845878 -0.002051124 0.2465117 0.13993333 -0.330718 0.014022024 -0.084853 0.10817958 0.1496859 0.50552917 0.14389373 -0.37514025 -0.08580023 0.38913652 0.2618972 -0.11609223 -0.109976515 0.019073531 0.13379335 0.006435457 -0.20331544 -0.26351252 0.17158702 0.52940685 0.028926555 -0.027072614 -0.031330574 0.12253964 -0.079053834 0.27294803 -0.36733842 0.24335158 -0.51003987 -0.0011181784 0.21376146 -0.19648917 -0.0866701 -0.09109125 -0.14733358
高 -0.029811958 0.060832735 -0.05888903 -0.078448966 -0.23898251 0.11676513 -0.20448473 -0.24746399 -0.014825776 0.16347341 -0.003724032 0.025810674 -0.0067461855 0.19602223 0.11965755 -0.279344 0.018810509 -0.07824369 0.08812541 0.12774476 0.42929915 0.12103651 -0.3130156 -0.075871184 0.32548544 0.22128455 -0.08315511 -0.10263675 0.023772627 0.12507044 -0.002817027 -0.16405858 -0.21925785 0.14728644 0.42926192 0.01880326 -0.022967646 -0.019169226 0.098424755 -0.06824698 0.22333859 -0.29454106 0.20439622 -0.42141908 0.001063869 0.17272863 -0.16387197 -0.062286507 -0.08149682 -0.11803347
物美价廉 -0.00972934 0.03647587 -0.027867157 -0.041344635 -0.108590804 0.050755356 -0.10341786 -0.12322428 -0.013532822 0.09690455 0.007647017 0.013624164 -0.0047675325 0.1042595 0.0699259 -0.14643748 0.0044479882 -0.04530838 0.044183698 0.062689 0.22016816 0.066572934 -0.15212867 -0.04091596 0.17607006 0.11223461 -0.053497978 -0.04150119 -0.0030658585 0.055013664 -0.007759174 -0.08009167 -0.10461366 0.06985054 0.22617097 0.021908006 -0.010895491 -0.0046794075 0.05946722 -0.043602176 0.12099225 -0.15179753 0.09761709 -0.21541962 0.000730376 0.101138026 -0.08475702 -0.030140242 -0.043244448 -0.054745972
赞 -0.0039113024 0.025468335 -0.027219662 -0.025463099 -0.096649766 0.054412924 -0.08740165 -0.09960745 -0.005614104 0.07932444 0.004067132 0.011278182 -0.010768054 0.083019406 0.05112655 -0.12182868 0.009714425 -0.021270046 0.03423171 0.047196645 0.17190172 0.049992677 -0.13759448 -0.023098752 0.13496102 0.086879745 -0.033429682 -0.034931917 0.013259952 0.045699164 0.0061772345 -0.07537696 -0.0861352 0.06219411 0.18079224 0.0034658671 -0.0078449 -0.01800736 0.034624532 -0.033855148 0.09437024 -0.12992176 0.09259445 -0.1698988 0.009707729 0.07892291 -0.055660944 -0.02745596 -0.03056261 -0.056894388
几次 -0.015656235 0.04267591 -0.04721041 -0.055129115 -0.16338597 0.08087659 -0.1350346 -0.17184672 -0.0018394272 0.12978221 -0.0016835409 0.025262283 0.0061521935 0.14280152 0.08065074 -0.19083753 0.0042374744 -0.057087533 0.06264518 0.08703235 0.29965767 0.08237094 -0.20320766 -0.047717046 0.21970597 0.14310814 -0.06546192 -0.06207048 0.017385198 0.07646325 -0.007950892 -0.12474307 -0.15133461 0.09096478 0.30058798 0.027788807 -0.013660398 -0.020574804 0.079241805 -0.050495915 0.16550185 -0.21499431 0.13552974 -0.27828828 0.0026766837 0.12709244 -0.10533748 -0.037454206 -0.051008537 -0.084159285
中 -0.02542354 0.03505581 -0.04205196 -0.06763797 -0.16184357 0.087495245 -0.14411798 -0.18396059 -0.010201013 0.12509376 0.012325399 0.026010618 0.0020598213 0.15518974 0.08872084 -0.20844364 0.0018278726 -0.06318875 0.0670833 0.082307026 0.30905402 0.089945495 -0.23586571 -0.043613307 0.24712613 0.1558774 -0.07624628 -0.068946086 0.013158401 0.08016014 0.008235721 -0.12413773 -0.14992447 0.09675445 0.33020395 0.016331557 -0.010493644 -0.026628051 0.08183964 -0.04400852 0.15696247 -0.21596885 0.15521897 -0.29835814 -0.00067498133 0.13761953 -0.10552458 -0.057093658 -0.068335034 -0.07996227
卖 -0.02376075 0.060241997 -0.06298322 -0.08427923 -0.26131263 0.11338912 -0.22542544 -0.26491743 -0.026732579 0.19795446 -0.0011921552 0.0323166 -0.0118575925 0.23490846 0.14464915 -0.30748773 0.0160818 -0.088660955 0.10750223 0.14282176 0.4644615 0.121718355 -0.34218052 -0.07342807 0.35361806 0.23095313 -0.10967808 -0.107291535 0.021555133 0.12529066 -0.0031804044 -0.18742524 -0.24774386 0.15805708 0.4803191 0.03266253 -0.031098634 -0.029896498 0.110233456 -0.0869915 0.25839874 -0.32884014 0.22458269 -0.45333314 0.0027443746 0.20441537 -0.1724839 -0.08050749 -0.08136804 -0.13082477
照片 -0.015136879 0.03840604 -0.030796023 -0.06318791 -0.1720267 0.07793068 -0.15560779 -0.17770329 -0.016679917 0.12455766 0.002083689 0.009850262 0.006110134 0.14821194 0.08946199 -0.19796667 0.003690736 -0.041779015 0.063452914 0.08615609 0.29722467 0.08363017 -0.21888487 -0.0382828 0.22709005 0.15778746 -0.06571408 -0.07563125 0.011729325 0.07321949 0.007035609 -0.12353382 -0.16307807 0.105708964 0.30829296 0.022659428 -0.025857318 -0.012062477 0.07432875 -0.059795175 0.17081553 -0.20648676 0.13876425 -0.30240208 -0.004600613 0.12748356 -0.11134576 -0.045235794 -0.05802141 -0.08792128
卖家 -0.029075796 0.06443034 -0.06086901 -0.088748686 -0.24313071 0.12129238 -0.2075243 -0.24790701 -0.014327413 0.17132565 0.0025202502 0.016663717 0.006161891 0.21310972 0.12499659 -0.28424522 0.020197898 -0.0662322 0.10215137 0.12574637 0.43565115 0.120261215 -0.3213401 -0.07853316 0.34477013 0.22858582 -0.089341015 -0.102794364 0.015441851 0.1290009 -0.004121713 -0.1772205 -0.22898781 0.15174288 0.45393187 0.018646788 -0.0224354 -0.018011838 0.10284199 -0.07605178 0.23301856 -0.31091544 0.21078183 -0.4300572 -0.0011067854 0.18140835 -0.16033183 -0.07079429 -0.081607014 -0.12396444
希望 -0.027069125 0.07426228 -0.055137314 -0.085995875 -0.24583547 0.1092996 -0.21135752 -0.26052007 -0.021517273 0.18589185 -0.006662474 0.033649914 -0.0029690275 0.21147919 0.14000611 -0.28581938 0.020899586 -0.07623263 0.10917695 0.12541163 0.45538762 0.12923723 -0.32507342 -0.07700158 0.3484049 0.23127227 -0.104915686 -0.1042533 0.005650982 0.12182361 -0.009026975 -0.174288 -0.23465946 0.15013066 0.46955565 0.023930695 -0.020222498 -0.018856252 0.11615032 -0.06940154 0.23930639 -0.32376438 0.21726163 -0.44929683 0.00033531402 0.19778411 -0.16310126 -0.07528029 -0.08950668 -0.1330525
找 -0.043322157 0.0996814 -0.083095506 -0.11576577 -0.33441758 0.16933589 -0.2991157 -0.3508617 -0.027507642 0.25117314 -0.0020981138 0.046693508 -0.0043804725 0.3070506 0.17975058 -0.40510178 0.023165453 -0.105797485 0.14046742 0.17845501 0.60877365 0.17350052 -0.45044172 -0.10392051 0.4714567 0.31043035 -0.13469124 -0.13556765 0.020940922 0.16564988 -0.009388234 -0.24122545 -0.30648413 0.21239418 0.64595854 0.028848734 -0.034936786 -0.042564116 0.15018871 -0.10942775 0.33108363 -0.44741178 0.28880677 -0.605832 -0.007058334 0.25782165 -0.23958322 -0.092538275 -0.10632833 -0.18655966
失望 -0.011843228 0.044475403 -0.043713816 -0.052104153 -0.15188482 0.082716994 -0.14028051 -0.17334512 -0.014448753 0.1211481 0.007392973 0.016322361 -0.004325134 0.13782778 0.09016139 -0.18234785 0.003105509 -0.046203732 0.0656001 0.0872995 0.29447615 0.08439094 -0.20735575 -0.04745905 0.21510932 0.14140525 -0.05329536 -0.06813039 0.0028140936 0.06959502 -0.0026887986 -0.11163597 -0.15158595 0.10511066 0.30108634 0.022572123 -0.008429337 -0.014696365 0.0783774 -0.050560504 0.15212104 -0.20583858 0.13166931 -0.27801082 0.0018274593 0.12774941 -0.11105487 -0.052283764 -0.056090746 -0.078752264
超级 -0.022832353 0.06690119 -0.051601715 -0.08723039 -0.21983199 0.10048788 -0.19184917 -0.22912674 -0.009749427 0.15603605 -0.0067470595 0.01686545 -0.013322153 0.1924835 0.12186099 -0.26010516 0.012679923 -0.06598605 0.09071399 0.11732444 0.38586697 0.09875875 -0.29071218 -0.05812386 0.29989043 0.20284188 -0.080115154 -0.09489219 0.011040984 0.11466386 -0.002623967 -0.14651187 -0.19329992 0.1378168 0.40543348 0.025109954 -0.015092113 -0.015780497 0.10178007 -0.06358852 0.2201934 -0.28925166 0.18367645 -0.37873682 0.002936969 0.17193003 -0.13816486 -0.059361614 -0.065831386 -0.11027118
挺不错 -0.018734798 0.0438024 -0.037927628 -0.04929029 -0.13997467 0.05319897 -0.12671368 -0.1422654 -0.004669592 0.091974676 -0.0068349955 0.011323943 -0.0028114398 0.111293696 0.07925213 -0.158991 0.010917778 -0.04386961 0.062145982 0.07873813 0.23664871 0.07303503 -0.17898098 -0.03883771 0.18321761 0.12140925 -0.056652274 -0.045051586 0.0023096516 0.06497854 -0.010260423 -0.095637485 -0.122649916 0.07375743 0.26037887 0.009196941 -0.014403893 -0.009523762 0.06798591 -0.038388748 0.13009772 -0.1688631 0.11098409 -0.2480416 -0.0018855948 0.10718197 -0.0986842 -0.03256972 -0.051154256 -0.05929569
薄 -0.014665467 0.03184201 -0.029213509 -0.04498767 -0.14002635 0.06735953 -0.12342589 -0.15869999 -0.016926087 0.12102174 0.007462328 0.014949277 -0.004950886 0.122766346 0.08050215 -0.1674499 0.011882092 -0.046278298 0.05706066 0.070273556 0.25941038 0.07147174 -0.1905277 -0.043477762 0.20483512 0.13565175 -0.06469701 -0.06080833 0.0054777693 0.07765119 0.005006847 -0.11493977 -0.13885328 0.08406513 0.2734412 0.007955954 -0.014601816 -0.020002738 0.07050546 -0.04871352 0.14169021 -0.18327056 0.117398985 -0.2624131 0.0032000712 0.11083805 -0.108698346 -0.0512687 -0.046127833 -0.085996665
回复 -0.027373645 0.06899779 -0.056503464 -0.101494856 -0.26566097 0.14158516 -0.2550411 -0.27522054 -0.024505181 0.2050751 0.0020500694 0.023743471 0.00020704037 0.25012812 0.14560579 -0.3230346 0.011403916 -0.08213334 0.11075641 0.13985005 0.49128187 0.123836145 -0.37202483 -0.073913485 0.38534668 0.24633043 -0.10361581 -0.10750584 0.008285316 0.14334075 0.00015283687 -0.20180008 -0.26248974 0.17490314 0.5274268 0.02397317 -0.030736685 -0.023436483 0.12274244 -0.09382555 0.27520245 -0.36437175 0.24613513 -0.502449 0.0066538905 0.21461134 -0.19239064 -0.0847218 -0.1016199 -0.15179183
钱 -0.020622455 0.065941125 -0.06261924 -0.086315885 -0.24219939 0.11712739 -0.21479118 -0.23939866 -0.026821345 0.18311137 -0.0033107453 0.029793596 -0.003705059 0.21191992 0.1358217 -0.2855184 0.008305659 -0.065863155 0.10850983 0.13246663 0.44104367 0.116119705 -0.31346092 -0.06489803 0.3501418 0.21350081 -0.101912156 -0.10528872 0.023789365 0.12967968 -0.0033519273 -0.16812177 -0.21545969 0.15568161 0.4499481 0.037423044 -0.01890555 -0.026811462 0.10140251 -0.07886518 0.24583513 -0.30882016 0.21581505 -0.43784884 -0.0029109165 0.19533108 -0.16581568 -0.059916347 -0.086384505 -0.12889163
灰 -0.021377891 0.073341586 -0.06900716 -0.0989791 -0.24343333 0.110218875 -0.22375299 -0.259504 -0.028479854 0.19614877 0.0069542173 0.02283914 -0.0011296826 0.22362173 0.13608912 -0.30523968 0.021091642 -0.07421734 0.11310793 0.13778925 0.45976427 0.128884 -0.32399967 -0.073284715 0.3598954 0.23461056 -0.09479295 -0.09447391 0.010191639 0.123562224 0.0025856846 -0.18903068 -0.24214384 0.14778084 0.47319862 0.035954062 -0.029687723 -0.026384028 0.11995764 -0.07064455 0.24138771 -0.3215904 0.22068007 -0.44938594 -0.00029054272 0.19200365 -0.17403208 -0.078351244 -0.08513283 -0.12166909
腿 -0.011554606 0.038919892 -0.034052666 -0.054844055 -0.12011142 0.058931507 -0.11261714 -0.12762168 -0.010127182 0.10065974 -0.0046319324 0.019870175 -0.0075888336 0.107234836 0.06994906 -0.14610079 0.011346404 -0.0489357 0.04830344 0.07305459 0.2360772 0.07162255 -0.16572252 -0.041898612 0.18443504 0.10658892 -0.041083932 -0.052054543 0.017966691 0.0542206 0.002337073 -0.091726325 -0.116612546 0.083411 0.24110025 0.02287733 -0.019207781 -0.019505776 0.049669076 -0.04789302 0.12848385 -0.16755266 0.1147011 -0.2284966 0.007192879 0.09857497 -0.095166914 -0.04477916 -0.033331323 -0.07297185
确实 -0.017089907 0.041585725 -0.052258562 -0.07132222 -0.17065895 0.08753917 -0.16551478 -0.17721461 -0.023819756 0.12643768 -0.0068534752 0.016658494 -0.007434329 0.17059813 0.095177054 -0.2173502 0.010250148 -0.063614294 0.074300304 0.10335596 0.33684772 0.079936355 -0.23160668 -0.046844702 0.24766128 0.16417675 -0.072695285 -0.0752257 0.0037462017 0.095851086 -0.0067400853 -0.13914935 -0.17184791 0.10374106 0.35297725 0.018227806 -0.026819738 -0.011852378 0.08636343 -0.059503946 0.17790209 -0.2379024 0.14999364 -0.3300916 -0.0064978376 0.13877475 -0.117074735 -0.054796387 -0.059533622 -0.084593415
水 -0.02542714 0.06358484 -0.048205994 -0.08852668 -0.22320095 0.09569625 -0.20222895 -0.21835181 -0.010079857 0.16878417 0.014363337 0.024177218 -0.0017300277 0.19485095 0.11371081 -0.261106 0.01522153 -0.07553184 0.084264874 0.113820545 0.39175406 0.104367554 -0.29619455 -0.05977567 0.31415147 0.2029674 -0.09447395 -0.0833869 0.0119052 0.107542805 -0.003821447 -0.15025042 -0.20101051 0.12482993 0.42273617 0.022162223 -0.030605966 -0.030277152 0.10739391 -0.06929017 0.21823157 -0.27490243 0.19457449 -0.38440505 -0.005544074 0.16656335 -0.1534202 -0.054566875 -0.069165684 -0.12146938
店 -0.023967106 0.0547793 -0.0500854 -0.06719931 -0.18875861 0.08758391 -0.1594204 -0.1825118 -0.01896971 0.14047165 0.010059554 0.010715686 0.002157401 0.15372649 0.103233315 -0.22793676 0.009084183 -0.054719638 0.06653564 0.104811296 0.32875824 0.09530137 -0.24779329 -0.04731837 0.26774317 0.15818852 -0.066334896 -0.08221999 0.018316532 0.08149781 0.0044267764 -0.13132572 -0.1676311 0.10848778 0.34782952 0.028234173 -0.018662663 -0.012967255 0.0939511 -0.050841767 0.17355298 -0.23289214 0.1496148 -0.32555446 0.0035555777 0.1515945 -0.12714443 -0.058352217 -0.07005649 -0.09978767
气味 -0.019946313 0.06169128 -0.042224273 -0.07083373 -0.20110117 0.099301144 -0.17428899 -0.20313539 -0.014542677 0.15692301 0.010710976 0.025517227 0.0011270326 0.16902827 0.108266525 -0.22986308 0.0043384703 -0.0696603 0.07855862 0.1119339 0.35020265 0.09283878 -0.2607748 -0.058786776 0.2736002 0.17360361 -0.07572417 -0.08328977 0.01709463 0.10341389 -0.010675245 -0.14596626 -0.17659295 0.11640735 0.36659288 0.030751618 -0.025432555 -0.026864251 0.100898735 -0.068594255 0.198038 -0.26164818 0.15871516 -0.3546531 0.0044367122 0.14707157 -0.13731061 -0.06323268 -0.067272365 -0.111480944
太厚 -0.015877426 0.045818694 -0.045467217 -0.062028695 -0.1627843 0.08757503 -0.1559773 -0.17819296 -0.02024636 0.1219613 -0.0010156647 0.021779645 0.006622031 0.15608996 0.082081534 -0.20356303 0.014039686 -0.048981287 0.06836325 0.09006435 0.2997183 0.07751092 -0.22783148 -0.045943268 0.2398358 0.14541833 -0.076995485 -0.069106676 0.006498477 0.07619977 0.0026661209 -0.12418711 -0.1570455 0.11117252 0.3242571 0.010507867 -0.02976774 -0.02341132 0.07811582 -0.059195593 0.15765758 -0.21290518 0.14129955 -0.29992938 0.0034565937 0.13824219 -0.11473186 -0.04348592 -0.06336002 -0.09665234
冬天 -0.03203341 0.05502857 -0.04762362 -0.08347123 -0.21637638 0.10327166 -0.20216888 -0.22585028 -0.02114007 0.16168897 0.010945742 0.024261026 0.0006407275 0.19456658 0.12631543 -0.26116833 0.015469685 -0.07821112 0.09196236 0.11061149 0.4124907 0.11419799 -0.30237404 -0.0669237 0.329638 0.21032026 -0.080487415 -0.0988628 0.006494048 0.11520558 0.0074275197 -0.17465068 -0.20892051 0.13266042 0.43380347 0.035798516 -0.027852517 -0.02410998 0.10000965 -0.061083842 0.21449925 -0.29231584 0.20158836 -0.40451026 0.008900828 0.1825529 -0.15032032 -0.06562212 -0.07067872 -0.12067777
a21 -0.024938688 0.049900524 -0.04715816 -0.061038986 -0.16766678 0.088305555 -0.15110692 -0.18229479 -0.017670244 0.13124 -0.006190861 0.012872046 0.0034150474 0.15838139 0.08490776 -0.19935384 0.005129941 -0.061296824 0.06294406 0.087283276 0.31635335 0.08075831 -0.23279803 -0.054354742 0.23639837 0.15521605 -0.07632543 -0.06707858 0.014248714 0.08416222 0.0021003704 -0.12638985 -0.16212682 0.095580526 0.3187422 0.009036288 -0.02077481 -0.009840993 0.08264897 -0.04580898 0.17570066 -0.22150737 0.1528626 -0.30117866 0.0058500725 0.1315318 -0.119559586 -0.04501381 -0.055589188 -0.087684296
双十 -0.022675386 0.054940175 -0.048932217 -0.07128389 -0.18199547 0.090870045 -0.16326779 -0.18607359 -0.0055787223 0.13208626 0.006934805 0.016206598 0.003262252 0.1646619 0.098895974 -0.21588998 0.020089969 -0.056323882 0.06745002 0.09194769 0.3338199 0.08516917 -0.24682954 -0.04361237 0.2618557 0.16435158 -0.07780881 -0.06495699 0.019853283 0.083141364 -0.010624421 -0.12948383 -0.17731035 0.10192522 0.3372373 0.022421453 -0.024890093 -0.024525845 0.074674234 -0.06082217 0.17509739 -0.23523659 0.1590024 -0.33626318 0.0089322785 0.143975 -0.11672872 -0.047414877 -0.06497225 -0.09850456
总体 -0.026654018 0.04946391 -0.041979287 -0.06509738 -0.18264607 0.0795246 -0.16560909 -0.1744269 -0.007975625 0.12135307 0.008357926 0.018931689 -0.0020459509 0.14952432 0.08548762 -0.21525174 0.0042177476 -0.049031712 0.0729976 0.09647609 0.32341 0.08900833 -0.23948531 -0.046383105 0.23863083 0.16146462 -0.062251825 -0.07680346 0.009314938 0.09453064 -0.000117273616 -0.13616835 -0.16503629 0.09743215 0.3279523 0.022005351 -0.016838359 -0.02411531 0.078217104 -0.043246426 0.16417313 -0.21855628 0.15899768 -0.31695762 0.00542762 0.13116439 -0.115975074 -0.052991692 -0.066213004 -0.08910586
试 -0.008681701 0.033200108 -0.042673547 -0.05990599 -0.1419932 0.061798733 -0.13092308 -0.13562427 -0.01763749 0.09431964 0.004320368 0.023005946 -0.004339694 0.11645538 0.067435585 -0.16640957 0.0058271354 -0.042621635 0.061068762 0.08096211 0.25132245 0.07012657 -0.19137104 -0.045694727 0.19209068 0.13545868 -0.06053009 -0.050532322 0.00344645 0.07302544 0.00809438 -0.10301554 -0.13329521 0.08732598 0.26277626 0.016460849 -0.0080068465 -0.022346595 0.065180786 -0.04301681 0.13997784 -0.1826696 0.11517409 -0.24479282 0.004989862 0.097815506 -0.09529871 -0.04618777 -0.04360343 -0.062476676
完美 -0.020865481 0.050046872 -0.04162284 -0.05558607 -0.1571684 0.0892902 -0.15150413 -0.16395636 -0.004020839 0.11654668 -0.0011593358 0.00968443 0.0005076153 0.15774335 0.08583281 -0.18784764 0.011993862 -0.053810704 0.072590284 0.09340143 0.29780164 0.071420096 -0.22171979 -0.04079741 0.22797307 0.15302774 -0.0679514 -0.067171894 0.004422789 0.07982364 0.00073812087 -0.11404457 -0.15162633 0.10411065 0.32597247 0.027558053 -0.008374033 -0.02507999 0.072581574 -0.054834753 0.15742384 -0.21413642 0.13844956 -0.29206088 0.0070405924 0.118420966 -0.10583299 -0.056832656 -0.057148434 -0.09613003
只能 -0.020861315 0.053161014 -0.054680113 -0.08936079 -0.22637498 0.10651924 -0.2064802 -0.24269912 -0.018707858 0.16924858 0.012609273 0.027777852 0.002446053 0.19575599 0.13154209 -0.26647726 0.014316393 -0.07162067 0.10020872 0.11190101 0.4158538 0.11712294 -0.31154925 -0.072423786 0.31350145 0.20541263 -0.095393516 -0.09602657 0.007580348 0.11240881 -0.009821287 -0.16785435 -0.20595694 0.13070776 0.43828297 0.027304519 -0.017839374 -0.02144297 0.111236155 -0.06961758 0.22492245 -0.30431083 0.20586589 -0.40853572 0.004639454 0.17669113 -0.16136171 -0.06541647 -0.08564066 -0.12650447
几天 -0.017355511 0.051165245 -0.040938172 -0.05838794 -0.16603164 0.07839079 -0.14445274 -0.16853307 -0.021502335 0.12552612 0.0043737693 0.01876782 -0.0074752974 0.1440028 0.08313552 -0.19962096 0.02118237 -0.049098324 0.065853864 0.09788222 0.3117829 0.08873193 -0.23574954 -0.047468983 0.23840371 0.15458596 -0.06392505 -0.069537975 0.012135662 0.07992915 -0.007213454 -0.13552015 -0.15188505 0.10536343 0.3288234 0.021846194 -0.020298908 -0.027780527 0.08702469 -0.05196805 0.16961458 -0.23591019 0.14669521 -0.314199 0.0038753934 0.14309694 -0.12360677 -0.040976636 -0.0687974 -0.09453124
下单 -0.031706896 0.061827708 -0.053483646 -0.07890133 -0.20309834 0.09247041 -0.18091305 -0.21619499 -0.015674649 0.15347631 0.009054039 0.013779127 -0.004473115 0.19374529 0.11684983 -0.25967792 0.014280758 -0.07121717 0.09692608 0.11022743 0.38111624 0.10876504 -0.279427 -0.055293366 0.30173427 0.18668489 -0.08117332 -0.07639049 0.015242525 0.11119474 -0.009415627 -0.15203053 -0.20359713 0.1340908 0.40822008 0.024742732 -0.015522588 -0.021255875 0.092550926 -0.06855596 0.21374966 -0.27533352 0.17549202 -0.380875 0.009469543 0.15491608 -0.14853789 -0.06069953 -0.07776801 -0.100119025
